tree
version=v4
num_class=1
num_tree_per_iteration=1
label_index=0
max_feature_idx=34
objective=binary sigmoid:1
feature_names=tx_count spend_sum spend_abs_sum spend_mean spend_std spend_max spend_min unique_companies unique_categories is_preferred is_managed is_noncompliant_t is_unmanaged_t tx_count_lag1 tx_count_lag2 tx_count_lag3 spend_sum_lag1 spend_sum_lag2 spend_sum_lag3 spend_abs_sum_lag1 spend_abs_sum_lag2 spend_abs_sum_lag3 tx_count_delta_1m spend_sum_delta_1m tx_count_mean_3m tx_count_std_3m tx_count_cv_3m spend_sum_mean_3m spend_sum_std_3m spend_sum_cv_3m spend_abs_sum_mean_3m spend_abs_sum_std_3m spend_abs_sum_cv_3m months_since_noncompliant noncompliant_last_3m
feature_infos=[1:14206] [-852566.72999999998:13944811.26] [0.02:14384364.959999999] [-16296:2263611.0833333335] [0:3012954.0974787814] [-16296:5692663.3300000001] [-1242172.8:1133333] [1:11] [1:4] none [0:1] [0:1] [0:1] [1:14206] [1:14206] [1:10971] [-21479.66:13944811.26] [-13630.339999999998:13655841.84] [-8266:9202592.9900000002] [3.7999999999999998:14384364.959999999] [3.7999999999999998:14384364.959999999] [3.7999999999999998:12163184.57] [-2736:4411] [-3283692.21:5315037.8300000001] [1:12354] [0:2730.6183060496264] [0:1.6533212254067065] [-8619.876666666667:12267748.696666665] [0:3086814.8861190816] [-5.9607281863418464:3.4993403348802654] [29.960000000000001:13568733.390000001] [0:2902953.7391185551] [0:1.7237966602230186] [0:999] [0:3]
tree_sizes=1069 2272 2505 3558 3562 3551 3560 3545 3540 3555 3561 3551 3556 3572 3569 3582 3558 3597 3571 3584 3601 3607 3615 3614 3602 3598 3602 3574 3608 3624 3629 3579 3609 3625 3633 3629 3582 3596 3652 3653 3588 3567 3584 3562 3579 3609 3597 3599 3609 3556 3553 3608 3597 1945 1263 1140 1493 1723 1492 1260 1026 1261 1028

Tree=0
num_leaves=9
num_cat=0
split_feature=19 14 4 6 13 0 0 1
split_gain=2.37881e+06 850374 411239 19455.4 262593 4.44089e-16 5.55112e-17 2.77556e-17
threshold=1984.2600000000002 352.00000000000006 207.69585667053079 251.99500000000003 11.500000000000002 2895.0000000000005 41.500000000000007 1942.7500000000002
decision_type=2 8 2 2 2 2 2 2
left_child=1 6 7 4 -4 -2 -1 -3
right_child=5 2 3 -5 -6 -7 -8 -9
leaf_value=-7.4013507618779304 -7.4013507618779304 -7.4013507618779304 -7.4013507618779304 69.941119633677786 70.163190864962175 -7.4013507618779295 -7.4013507618779268 -7.4013507618779286
leaf_weight=0.48517847759649191 2.7232805169187491 0.17497189482674036 0.12241623410955083 2.0147403632290661 1.0044860295020044 0.030123366508632787 0.013459376525133848 0.022432294208556414
leaf_count=757 4249 273 191 29 10 47 21 35
internal_value=28.0613 53.5045 62.5999 66.9984 61.7373 -7.40135 -7.40135 -7.40135
internal_weight=6.59109 3.83768 3.33905 3.14164 1.1269 2.7534 0.498638 0.197404
internal_count=5612 1316 538 230 201 4296 778 308
is_linear=0
shrinkage=1


Tree=1
num_leaves=20
num_cat=0
split_feature=3 3 19 14 1 6 6 1 4 2 3 4 19 0 0 0 0 1 1
split_gain=972323 1.00848e+06 1851.57 3322.21 5739.77 20684.1 31632.4 42194.1 615.735 65.5641 62.6489 56.4908 376.696 1.11022e-16 5.55112e-17 2.77556e-17 5.55112e-17 1.38778e-17 1.38778e-17
threshold=220.13878757663051 214.02840277777781 1728.9600000000003 39.500000000000007 1639.5350000000003 291.00000000000006 2865.7400000000002 2001.1550000000002 465.49371411426569 2969.3850000000007 234.2332142857143 277.54336354144789 1674.135 1299.0000000000002 305.50000000000006 17.500000000000004 4.5000000000000009 1219.6400000000001 1527.7400000000002
decision_type=2 2 2 8 2 2 2 2 2 2 2 2 2 2 2 2 2 2 2
left_child=1 11 3 15 17 8 7 -7 -6 -10 -4 13 -13 14 -1 16 -2 -5 -14
right_child=2 -3 10 4 5 6 -8 -9 9 -11 -12 12 18 -15 -16 -17 -18 -19 -20
leaf_value=-0.050030522396010871 -0.050030522396010579 80.818063715709314 -3.2042542576907418 -0.050030522396010135 -14.522351190218728 -30.803711941515946 -8.2510122341623351 -246.07948187534836 -4.3663366864835291 -0.05003052239600958 -0.05003052239601094 -7.5054684421838189 -0.05003052239600822 -0.050030522396007797 -0.050030522396009726 -0.050030522396007054 -0.050030522396010024 -0.050030522396008609 -0.050030522396010392
leaf_weight=0.45238486444577553 0.1780274668708447 0.96345169981941581 0.015851760748774146 0.061577993677929044 0.010364612797275186 0.0048774648457765579 0.012193662114441395 0.0042677817400544882 0.011583979008719325 0.036580986343324184 2.2802148154005408 0.020119542488828301 0.018290493171662092 0.015851760748773813 0.040848768083378673 0.012803345220163465 0.054261796409264207 0.021338908700272441 0.089013733435422182
leaf_count=743 292 23 27 101 20 11 22 29 20 60 3741 36 30 26 67 21 89 35 146
internal_value=17.6577 48.5527 -0.623267 -3.7276 -9.26462 -18.8309 -60.9716 -131.266 -3.46711 -1.08813 -0.0718069 -0.285691 -1.2272 -0.0500305 -0.0500305 -0.0500305 -0.0500305 -0.0500305 -0.0500305
internal_weight=4.30391 1.59996 2.70394 0.407878 0.162785 0.0798685 0.0213389 0.00914525 0.0585296 0.048165 2.29607 0.636509 0.127424 0.509085 0.493234 0.245093 0.232289 0.0829169 0.107304
internal_count=5539 1071 4468 700 298 162 62 40 100 80 3768 1048 212 836 810 402 381 136 176
is_linear=0
shrinkage=0.05


Tree=2
num_leaves=22
num_cat=0
split_feature=3 3 3 3 32 19 14 1 5 6 19 16 4 19 16 16 16 5 0 0 0
split_gain=753.999 10798.1 41005.6 94072.5 164152 228.74 584.125 1149.04 19272.3 818.502 2684.13 3873.42 77.0096 5044.67 76.1399 73.1496 69.6663 1.07549e-13 4.44089e-16 5.55112e-17 1.38778e-17
threshold=249.20500000000001 214.02840277777781 234.2332142857143 227.99823333333336 0.84859386505411105 1935.4900000000002 1.0000000180025095e-35 1639.5350000000003 1170.4500000000003 111.13500000000002 1185.6350000000002 784.34500000000014 277.54336354144789 1935.4900000000002 1324.3850000000004 1292.9950000000001 1072.2950000000003 2831.4550000000004 976.00000000000011 2200.5000000000005 3188.5000000000005
decision_type=2 2 2 2 10 2 10 2 2 2 2 2 2 2 2 2 2 2 2 2 2
left_child=1 12 3 4 -3 6 7 15 -9 14 11 -11 19 -14 17 -2 -4 -10 -7 -1 -15
right_child=5 2 16 -5 -6 18 -8 8 9 10 -12 -13 13 20 -16 -17 -18 -19 -20 -21 -22
leaf_value=-0.050029030295786384 -0.050029030295782852 -706.83690896818825 -4.8395869827624818 -7.5108204650429435 -0.050029030295757095 -0.050029030295785815 -0.050029030295785648 -208.61114843135024 -0.050028788746241795 -129.20843670695075 -0.050028980761927258 -0.050029014359995183 -85.667247419823923 -0.050029030295785253 -5.4203390429532545 -4.3606313118307671 -0.050029030295784052 -0.050029030295782762 -0.050029030295783775 -0.050029030295781929 -0.05002903029578154
leaf_weight=0.47615155979292567 0.064956120215355684 0.0015563390043099035 0.010439376764245167 0.0067017006822425174 0.0017398960771970451 2.1226732141803955 0.25518475798889995 0.0011986893799168915 0.0064338763796409895 0.0011613645805682244 0.005228713665360425 0.0011605679903255407 0.0017519840339446082 0.084094977064523846 0.0093104493025748525 0.011599307181313634 0.027838337235152721 0.016239030053839087 0.021458718285430112 0.012759237899444997 0.011599307181313634
leaf_count=821 112 41 20 25 3 3661 440 32 22 26 29 15 42 145 21 21 48 28 37 22 20
internal_value=-0.6371 -2.17724 -24.9073 -115.074 -333.764 -0.248709 -1.39241 -4.31304 -11.0977 -5.10897 -19.9159 -64.6514 -0.305846 -1.58934 -1.61334 -0.703151 -1.35627 -0.050029 -0.050029 -0.050029 -0.050029
internal_weight=3.15124 0.634633 0.0482756 0.00999794 0.00329624 2.5166 0.372473 0.117288 0.0407327 0.039534 0.00755065 0.00232193 0.586357 0.0974463 0.0319834 0.0765554 0.0382777 0.0226729 2.14413 0.488911 0.0956943
internal_count=5631 1187 137 69 44 4444 746 306 173 141 70 41 1050 207 71 133 68 50 3698 843 165
is_linear=0
shrinkage=0.05


Tree=3
num_leaves=31
num_cat=0
split_feature=20 19 16 1 5 13 19 13 4 4 19 16 4 1 4 16 16 18 18 16 19 32 2 0 23 5 14 0 0 0
split_gain=6.81035e+06 1.70236e+07 2.38723e+08 5.087e+07 2.1428e+09 150.948 341.046 82.1384 6.52298 72.3044 1.27565e-13 3.62078e-13 2.77004e-13 5.05984e-14 1.69679e-13 3.76366e-14 3.89161e-13 1.13243e-14 3.91215e-14 6.43929e-15 3.9968e-15 4.8711e-15 2.76168e-15 2.10942e-15 1.23512e-15 3.06352e-15 4.44089e-16 2.22045e-16 1.11022e-16 2.77556e-17
threshold=inf 4746.2400000000007 4529.5200000000013 7802.1200000000008 1963.4950000000001 13.500000000000002 1935.4900000000002 4.5000000000000009 207.69585667053079 265.94004898214973 1935.4900000000002 1237.2300000000002 1766.9220238782034 1752.5800000000002 866.38971225581543 1292.9950000000001 1943.5850000000003 314.00000000000006 198.00000000000003 2240.8050000000007 532.30500000000018 0.42754182118581069 866.23000000000013 8.5000000000000018 -6.8349999999999929 234.30000000000004 130.00000000000003 208.50000000000003 122.50000000000001 3855.5000000000005
decision_type=8 2 2 2 2 2 2 2 2 2 2 2 2 2 2 2 2 8 10 2 2 8 2 2 10 2 8 2 2 2
left_child=17 2 3 5 -5 8 -7 19 15 -10 11 13 -13 22 -15 -2 -17 18 -1 -6 21 -19 -11 24 -23 -26 27 -22 -3 -28
right_child=1 28 -4 4 7 6 -8 -9 9 10 -12 12 -14 14 -16 16 -18 20 -20 -21 26 23 -24 -25 25 -27 29 -29 -30 -31
leaf_value=-0.050027616434223793 -0.0500276160885786 -0.050027616431337067 8307.2316832026536 70611.833339229677 -0.050027566138902191 -12.997132519670238 -0.050027616431345991 -5.3811886694196875 -4.1678904811003505 -0.050027577160406268 -0.050027616431348371 -0.050026775063111095 -0.05002752073838318 -0.050027206549931084 -0.050027615617957821 -0.050027225440574932 -0.050027616431348371 -0.050027569842179001 -0.050027523668937104 -0.050027616431347149 -0.050027616413158005 -0.050027616431348558 -0.050027616431345727 -0.05002759286360136 -0.050027616431346768 -0.050027583896076901 -0.050027616429078374 -0.050027616431344971 -0.05002761642544782 -0.050027616431345415
leaf_weight=0.047445795382372924 0.12578808652526166 0.53900630335556343 0.0093788200174458325 0.0011033907649106991 0.008843300922089431 0.0077237344369521779 0.014895772968884557 0.0093788200174458325 0.012142220736405335 0.0066298472251560261 0.05075596715323627 0.0028461803182011627 0.0022144903655316739 0.0039208504864352844 0.0071720393025316298 0.0072764529749634035 0.05075596715323627 0.0082895261093086647 0.014947215221070564 0.022619507100898772 1.6092962374418385 0.062893263646401465 0.013792382378596812 0.01601294255533503 0.019309335330035537 0.01159938019418405 0.17488742211675767 0.012688991788309179 0.063444972497695318 0.012688991788309067
leaf_count=88 252 981 18 4 39 20 28 20 37 19 94 34 8 41 18 38 92 19 35 41 2959 118 34 36 35 25 325 23 117 25
internal_value=52.7087 162.112 435.584 223.352 1856.25 -0.540361 -4.47099 -1.27427 -0.226522 -0.552672 -0.0500276 -0.0500275 -0.0500271 -0.0500276 -0.0500275 -0.0500276 -0.0500276 -0.0500276 -0.0500276 -0.0500276 -0.0500276 -0.0500276 -0.0500276 -0.0500276 -0.0500276 -0.0500276 -0.0500276 -0.0500276 -0.0500276 -0.0500276
internal_weight=2.94975 0.959689 0.357238 0.347859 0.041945 0.305914 0.0226195 0.0408416 0.283294 0.099474 0.0873318 0.0365758 0.00506067 0.0315151 0.0110929 0.183821 0.0580324 1.99006 0.062393 0.0314628 1.92767 0.118104 0.0204222 0.109815 0.093802 0.0309087 1.80956 1.62199 0.602451 0.187576
internal_count=5623 1935 837 819 104 715 48 100 667 285 248 154 42 112 59 382 130 3688 123 80 3565 233 53 214 178 60 3332 2982 1098 350
is_linear=0
shrinkage=0.05


Tree=4
num_leaves=31
num_cat=0
split_feature=14 19 19 3 0 1 13 1 6 4 1 4 4 4 13 19 2 5 19 19 2 3 18 18 19 19 19 1 23 0
split_gain=569.606 1571.46 40061.9 14840.6 1206.88 1485.78 125.315 111.056 8.8716 113.992 190.986 1.81022e-13 6.73239e-13 1.83553e-12 1.00493e-12 9.15795e-14 1.54085e-13 3.88958e-13 4.11199e-14 2.72924e-13 3.97529e-13 1.38362e-14 1.11022e-14 3.25642e-14 1.02418e-14 2.22045e-15 5.38458e-15 2.0331e-15 9.71445e-16 3.05311e-16
threshold=1.0000000180025095e-35 4746.2400000000007 4275.1850000000004 420.94304592720977 15.500000000000002 9627.0400000000027 13.500000000000002 4340.8600000000015 337.79500000000002 207.69585667053079 5475.920000000001 207.69585667053079 375.53762727189957 302.07726160831987 7.5000000000000009 1935.4900000000002 2969.3850000000007 1011.9450000000001 1728.9600000000003 983.07000000000016 529.28000000000009 196.59030303030303 314.00000000000006 198.00000000000003 983.07000000000016 532.30500000000018 490.69000000000011 5845.2300000000005 149.34999999999999 9.5000000000000018
decision_type=10 2 2 2 2 2 2 2 2 2 2 2 2 2 2 2 2 2 2 2 2 2 8 10 2 2 2 2 8 2
left_child=1 2 4 -4 6 7 8 -6 11 18 -11 21 13 14 -13 16 17 -14 19 -10 -21 -1 23 -2 -18 26 28 -17 29 -24
right_child=22 -3 3 -5 5 -7 -8 -9 9 10 -12 12 15 -15 -16 27 24 -19 -20 20 -22 -23 25 -25 -26 -27 -28 -29 -30 -31
leaf_value=-0.050026269589476292 -0.050026269847963059 -0.050026269847368687 -27.252323708422246 -155.74713257676285 -0.05002623870906308 -34.619562081427816 -6.8552945588715053 -9.5681952272499888 -0.050026269847957452 -15.929012668897622 -0.05002612083560222 -0.050023983451102198 -0.050026226385343944 -0.050026252013749009 -0.050025720237985495 -0.050026269847958327 -0.050026269843648545 -0.05002566363967096 -0.050026269778774168 -0.050026269847943984 -0.050025443838565144 -0.050026212660361946 -0.05002626845887153 -0.050026187430549186 -0.050026196607463824 -0.050026269832030991 -0.050026230476353843 -0.050026244546123845 -0.050026242767181962 -0.050026259524829989
leaf_weight=0.090266048908233698 0.045133023522793914 0.57308445111431894 0.0036761600802037719 0.005780454249588729 0.0073560945627082321 0.005785440705953381 0.0073472489071901839 0.0052531111905978088 0.023091314360499424 0.0031488155946135521 0.0047504954081887263 0.0017271105939270504 0.0084109476420053397 0.0068271051216056144 0.001608616737939883 0.032537761144340038 0.012070461758412421 0.0048360421616889257 0.042509011691436172 0.0031488155946135512 0.0027103790811509737 0.012096894748765408 0.087646705110955847 0.016317814476479953 0.0078940398259419453 1.7281760072367189 0.01156313268802478 0.010506219527997018 0.0042027896697618408 0.011025223458091205
leaf_count=172 88 1099 11 32 23 21 27 17 62 20 29 34 24 27 8 63 28 37 81 6 37 32 174 39 25 3345 26 25 10 26
internal_value=-0.535553 -1.59038 -4.5005 -105.796 -1.24098 -13.6409 -0.413019 -4.01538 -0.236496 -0.680076 -6.37969 -0.0500262 -0.0500262 -0.0500258 -0.0500248 -0.0500262 -0.0500262 -0.050026 -0.0500262 -0.0500262 -0.0500259 -0.0500263 -0.0500263 -0.0500262 -0.0500262 -0.0500263 -0.0500263 -0.0500263 -0.0500263 -0.0500263
internal_weight=2.78049 0.876423 0.303339 0.00945661 0.293882 0.0183946 0.275487 0.0126092 0.26814 0.0793588 0.00789931 0.188781 0.0864183 0.0101628 0.00333573 0.0762555 0.0332115 0.013247 0.0714595 0.0289505 0.00585919 0.102363 1.90406 0.0614508 0.0199645 1.84261 0.114438 0.043044 0.102875 0.0986719
internal_count=5648 1940 841 43 798 61 737 40 710 235 49 475 271 69 42 202 114 61 186 105 43 204 3708 127 53 3581 236 88 210 200
is_linear=0
shrinkage=0.05


Tree=5
num_leaves=31
num_cat=0
split_feature=20 19 16 16 13 0 4 13 16 4 4 4 4 1 19 16 19 2 2 16 19 16 18 18 13 19 19 3 3 24
split_gain=541.063 1640.07 51090.6 46729.9 36067.9 2366.4 5548.1 113.029 216.728 1.66728e-13 6.3477e-13 2.21202e-12 3.21476e-12 1.24458e-13 6.61554e-14 1.54259e-13 3.07097e-13 4.86798e-14 1.27625e-13 2.79499e-14 1.68976e-13 2.03658e-13 6.88338e-15 2.23224e-14 3.07393e-15 2.66454e-15 4.3715e-15 1.11022e-15 7.48013e-15 5.06539e-16
threshold=inf 4746.2400000000007 4059.5600000000009 4159.9000000000005 4.5000000000000009 15.500000000000002 244.52686143361663 8.5000000000000018 1292.9950000000001 207.69585667053079 369.13216005932753 302.07726160831987 271.69078267022684 558.50000000000011 1935.4900000000002 1194.1200000000001 1283.365 2969.3850000000007 1232.2350000000004 1292.9950000000001 2087.1600000000003 1797.1900000000003 314.00000000000006 236.82000000000002 4.5000000000000009 532.30500000000018 490.69000000000011 227.99823333333336 340.49250000000006 1.1666666666666667
decision_type=8 2 2 2 2 2 2 2 2 2 2 2 2 2 2 2 2 2 2 2 2 2 8 10 2 2 2 2 2 10
left_child=22 2 5 -4 -5 7 -7 9 -9 19 11 12 -11 -10 15 17 -17 18 -12 -2 21 -21 23 29 -16 26 27 -24 -29 -1
right_child=1 -3 3 4 -6 6 -8 8 13 10 14 -13 -14 -15 24 16 -18 -19 -20 20 -22 -23 25 -25 -26 -27 -28 28 -30 -31
leaf_value=-0.050024972991837682 -0.050024985454803141 -0.050024986774399496 -0.050024986512366011 -400.67486186931427 -100.17847577618716 -0.050024942123634397 -100.17706287919664 -16.742726973163478 -0.050024977551246019 -0.050021319386321456 -0.050024986773016304 -0.05002497102425655 -0.050024808838636248 -0.050024502110865246 -0.050024986774353131 -0.050024986761352745 -0.050024242006717269 -0.05002498641709513 -0.050024661690569031 -0.050024511052850121 -0.050024986774963864 -0.050024984826812557 -0.050024986774974294 -0.050024906742081793 -0.050024953363167035 -0.05002498676433606 -0.050024948798805452 -0.050024930937543455 -0.050024986774963566 -0.050024986774777194
leaf_weight=0.0079919657143818768 0.10733804030463998 0.54165388316142149 0.0034945778339761343 0.0019968806882388894 0.0019974342797604862 0.0045011578434142677 0.0019974624656259798 0.0029953209516800847 0.00299642842176255 0.0011735037857224058 0.0074883029446937144 0.0069935254041464017 0.0015085276952833959 0.0025460808851475664 0.029453990012502707 0.0029953225748613468 0.0025733376060941282 0.016474268192623598 0.0050589110895908895 0.0045810212718038479 0.036443071498069912 0.0044929822906851768 0.053915777010843047 0.011520010619278764 0.0089980521707150041 1.6389404746300291 0.010999466368957656 0.0075052125887111734 0.029953209450468421 0.038939172576647252
leaf_count=18 243 1091 9 27 17 18 41 15 10 36 16 27 15 30 64 6 39 54 30 34 74 9 115 28 24 3333 27 20 60 80
internal_value=-0.530883 -1.61301 -4.89314 -133.581 -250.406 -1.04759 -30.8258 -0.25485 -5.90631 -0.0500249 -0.0500249 -0.0500245 -0.0500233 -0.0500248 -0.0500249 -0.0500249 -0.0500246 -0.0500249 -0.0500249 -0.050025 -0.0500249 -0.0500247 -0.050025 -0.050025 -0.050025 -0.050025 -0.050025 -0.050025 -0.050025 -0.050025
internal_weight=2.59952 0.799752 0.258098 0.00748889 0.00399431 0.250609 0.00649862 0.244111 0.00853783 0.235573 0.0827177 0.00967556 0.00268203 0.00554251 0.0730422 0.0345901 0.00556866 0.0290215 0.0125472 0.152855 0.0455171 0.009074 1.79977 0.0584511 0.038452 1.74131 0.102374 0.0913742 0.0374584 0.0469311
internal_count=5610 1929 838 53 44 785 59 726 55 671 311 78 51 40 233 145 45 100 46 360 117 43 3681 126 88 3555 222 195 80 98
is_linear=0
shrinkage=0.05


Tree=6
num_leaves=31
num_cat=0
split_feature=14 19 19 19 0 0 1 6 4 6 4 4 4 19 19 5 2 2 19 19 2 18 18 19 19 19 4 4 13 23
split_gain=623.7 1922.27 55269.5 82614.2 35096.3 1484.74 3160.53 47.5446 773.152 835.939 1.38861e-13 5.1123e-13 1.63842e-12 4.64212e-14 1.20265e-13 1.02424e-13 2.31308e-14 5.45657e-14 1.45162e-14 9.45667e-14 1.03542e-13 6.88338e-15 2.15938e-14 3.51108e-15 2.73045e-15 2.22045e-15 3.41394e-15 1.52552e-14 1.70003e-15 7.07767e-16
threshold=inf 4746.2400000000007 3898.2600000000007 4071.8350000000005 5.5000000000000009 13.500000000000002 3818.2250000000004 337.79500000000002 78.53406043304561 2026.5250000000003 207.69585667053079 369.13216005932753 295.23680550427861 1935.4900000000002 1185.6350000000002 2899.2750000000005 2969.3850000000007 1081.3950000000002 1728.9600000000003 983.07000000000016 529.28000000000009 314.00000000000006 198.00000000000003 1367.4000000000003 2466.2200000000007 560.59500000000014 265.94004898214973 510.11397868822843 4.5000000000000009 5.7250000000001089
decision_type=8 2 2 2 2 2 2 2 2 2 2 2 2 2 2 2 2 2 2 2 2 8 10 2 2 2 2 2 2 10
left_child=21 2 5 -4 -5 7 -7 10 18 -10 23 12 -12 14 16 -16 17 -13 19 -9 -21 22 -1 -2 -25 26 29 -28 -15 -23
right_child=1 -3 3 4 -6 6 -8 8 9 -11 11 13 -14 28 15 -17 -18 -19 -20 20 -22 25 -24 24 -26 -27 27 -29 -30 -31
leaf_value=-0.050023766775230655 -0.050023766518610915 -0.050023766774709669 -10.561701174282801 -526.49417286580251 -175.53141009559596 -0.050023671894973913 -78.971418069296092 -0.050023766626965227 -41.907505746737037 -0.050023690811515198 -0.050022241171528405 -0.050023766772911732 -0.050023749665032084 -0.050023766775247218 -0.050023263362553395 -0.050023657100683377 -0.050023766769979661 -0.050023559708987281 -0.050023766349641952 -0.050023766775231876 -0.050023357678181016 -0.050023766679219629 -0.050023695355640885 -0.050023714358049566 -0.050023759755758859 -0.050023766765127889 -0.050023675538744317 -0.050023766774971001 -0.050023742384755154 -0.050023754892244345
leaf_weight=0.040840039029717556 0.075982288806618295 0.51382468876178322 0.0047566147513755522 0.0014246525510503746 0.0014246525242931987 0.0038145541919635839 0.0019006253158566602 0.020895034114147407 0.0023890591341272421 0.0023821591348678339 0.0025401184699656576 0.0071232633199542761 0.0061779750534469713 0.022794440388679504 0.0029117172713242203 0.0038167681159393396 0.014246528399770753 0.0057493755666557234 0.029443346692801242 0.0028493050485849367 0.0033831907467175089 0.067908711568776536 0.014290528558376536 0.006187313679574577 0.0071253694810025081 1.5571458725479699 0.0061974854626214429 0.017570714670000598 0.010458232248424792 0.015679084022849565
leaf_count=88 173 1086 14 32 24 23 46 61 37 9 40 16 24 49 30 16 35 30 63 6 35 146 37 21 19 3330 28 38 30 35
internal_value=-0.575651 -1.77507 -5.47174 -138.1 -351.013 -1.12682 -26.2959 -0.491612 -1.68023 -21.009 -0.0500237 -0.0500237 -0.0500233 -0.0500237 -0.0500237 -0.0500235 -0.0500237 -0.0500237 -0.0500237 -0.0500237 -0.0500235 -0.0500238 -0.0500237 -0.0500238 -0.0500237 -0.0500238 -0.0500238 -0.0500237 -0.0500238 -0.0500238
internal_weight=2.47323 0.753601 0.239777 0.00760592 0.00284931 0.232171 0.00571518 0.226455 0.0613421 0.00477122 0.165113 0.0758184 0.00871809 0.0671003 0.0338477 0.00672849 0.0271192 0.0128726 0.0565709 0.0271275 0.0062325 1.71963 0.0551306 0.089295 0.0133127 1.6645 0.107356 0.0237682 0.0332527 0.0835878
internal_count=5621 1919 833 70 56 763 69 694 211 46 483 270 64 206 127 46 81 46 165 102 41 3702 125 213 40 3577 247 66 79 181
is_linear=0
shrinkage=0.05


Tree=7
num_leaves=31
num_cat=0
split_feature=14 19 19 19 0 1 0 6 6 16 6 4 4 4 19 2 5 19 16 16 2 3 18 18 19 3 3 16 3 19
split_gain=373.278 1085.45 29531.5 93271.2 424.999 1718.42 64.4062 135.945 27.1211 150.944 18.3419 9.03444e-14 1.35697e-13 2.10379e-13 5.32144e-14 7.62133e-14 2.7138e-13 2.04671e-14 1.85338e-14 1.29216e-13 1.62375e-13 8.39606e-15 6.21725e-15 2.04628e-14 2.22045e-15 2.27596e-15 4.71498e-14 1.11022e-15 1.11022e-16 5.55112e-17
threshold=1.0000000180025095e-35 4746.2400000000007 3604.4300000000003 3818.2250000000004 10.500000000000002 5163.5700000000006 7.5000000000000009 4.1950000000000012 337.79500000000002 405.79500000000002 346.75500000000005 207.69585667053079 429.40972944005608 320.44213032819556 1935.4900000000002 2969.3850000000007 1070.0250000000003 819.41000000000008 1683.95 988.92500000000007 529.28000000000009 196.59030303030303 314.00000000000006 198.00000000000003 600.22500000000014 227.99823333333336 294.32548245614038 2958.3200000000006 900.01285714285734 1283.365
decision_type=10 2 2 2 2 2 2 2 2 2 2 2 2 2 2 2 2 2 2 2 2 2 8 10 2 2 2 2 2 2
left_child=1 2 4 -4 6 17 8 -8 11 -10 -11 21 13 -13 15 16 -14 -6 19 -12 -21 29 23 -2 25 -24 -27 -20 -3 -1
right_child=22 28 3 -5 5 -7 7 -9 9 10 18 12 14 -15 -16 -17 -18 -19 27 20 -22 -23 24 -25 -26 26 -28 -29 -30 -31
leaf_value=-0.050022607406406877 -0.050022607406445388 -0.050022607404564448 -0.050022547173033116 -414.46956461833429 -0.050022607386476008 -55.263744432573652 -0.050022508176455753 -11.08825530394958 -9.2619170222778955 -1.6178777545311496 -0.0500226072290927 -0.050022078458072064 -0.050022606478662628 -0.050022542777047208 -0.050022606851586118 -0.050022583897371214 -0.050022086614195563 -0.050022427852182409 -0.050022607405134367 -0.050022607406419277 -0.050022011878403487 -0.050022558607381584 -0.050022607380292183 -0.050022534173705759 -0.050022607396973486 -0.05002243910057811 -0.05002260737569611 -0.050022584780908687 -0.05002260740644135 -0.050022603643568975
leaf_weight=0.057370217884413634 0.038397389871533516 0.13371327465033378 0.0054355293477783501 0.0018097602161729395 0.0031621407790185241 0.0018111439801486995 0.007260069494848434 0.0045297041444063296 0.0054276919416764843 0.030005413456819938 0.01581081400780706 0.0041645956859071021 0.00632427804521285 0.0058894449309718766 0.023038935502086133 0.012209445464804958 0.0041627420000551751 0.0031878279690961686 0.021683233178919181 0.0022586699924431759 0.0023206149844697309 0.010412634034054236 0.056918485264759844 0.012690669105211327 1.4798811990732978 0.0045514410620910431 0.048787273815833032 0.0072351045632785818 0.35732159280451015 0.0090361854971664421
leaf_count=132 87 303 15 76 19 40 30 21 32 4 51 34 21 22 53 39 33 30 59 5 40 31 139 36 3323 20 108 21 791 27
internal_value=-0.469511 -1.40547 -4.12714 -103.566 -1.09108 -12.3033 -0.691742 -4.29098 -0.496507 -1.19519 -0.643162 -0.0500226 -0.0500225 -0.0500224 -0.0500226 -0.0500225 -0.0500224 -0.0500225 -0.0500226 -0.0500225 -0.0500223 -0.0500226 -0.0500226 -0.0500226 -0.0500226 -0.0500226 -0.0500226 -0.0500226 -0.0500226 -0.0500226
internal_weight=2.37681 0.735581 0.244546 0.00724529 0.237301 0.00816111 0.22914 0.0117898 0.21735 0.0847415 0.0793139 0.132608 0.0557894 0.010054 0.0457354 0.0226965 0.010487 0.00634997 0.0493084 0.0203901 0.00457928 0.076819 1.64123 0.0510881 1.59014 0.110257 0.0533387 0.0289183 0.491035 0.0664064
internal_count=5642 1929 835 91 744 89 655 51 604 212 180 392 202 56 146 93 54 49 176 96 45 190 3713 123 3590 267 128 80 1094 159
is_linear=0
shrinkage=0.05


Tree=8
num_leaves=31
num_cat=0
split_feature=14 19 16 16 16 1 13 13 4 13 4 4 4 3 2 19 1 5 1 16 16 18 18 16 19 3 3 0 0 0
split_gain=544.129 979.68 39903.6 145517 188266 936.034 2489.14 10.0473 4.06036 2.92433 1.22898 1.06846e-12 9.61199e-13 1.97634e-13 7.48394e-13 4.81976e-14 7.90652e-14 2.90901e-13 3.54342e-13 2.47927e-14 1.00517e-13 4.21885e-15 1.28092e-14 3.0427e-15 1.77636e-15 2.58127e-15 3.97529e-14 2.22045e-16 1.11022e-16 5.55112e-17
threshold=inf 4746.2400000000007 3406.440000000001 3740.8200000000006 3800.6800000000007 7286.2150000000011 2.5000000000000004 13.500000000000002 207.69585667053079 1.5000000000000002 212.8524527809827 320.44213032819556 289.07332382405508 275.08968750000003 502.57500000000005 1935.4900000000002 1590.9950000000001 2552.4850000000006 2973.4550000000004 1683.95 988.92500000000007 314.00000000000006 198.00000000000003 2365.9050000000007 532.30500000000018 227.99823333333336 306.02575581395359 12.500000000000002 475.00000000000006 1299.0000000000002
decision_type=8 2 2 2 2 2 2 2 2 2 2 2 2 2 2 2 2 2 2 2 2 8 10 2 2 2 2 2 2 2
left_child=21 2 5 -4 -5 7 23 8 13 -10 -11 12 -12 -2 -15 16 -13 18 -18 20 -16 22 -1 -7 25 -23 -27 -26 -29 -3
right_child=1 29 3 4 -6 6 -8 -9 9 10 11 15 -14 14 19 -17 17 -19 -20 -21 -22 24 -24 -25 27 26 -28 28 -30 -31
leaf_value=-0.050021503863026222 -0.050021503907368606 -0.050021503862518801 -0.05002148633003245 -0.050021381745066922 -853.33479226560598 -0.050021433804414234 -58.134602253844484 -1.0828409606452152 -0.67830669052891579 -0.370554679587769 -0.050019522382398068 -0.050021475789076245 -0.050021405143465827 -0.050020959944041633 -0.050021503260723077 -0.050021503932528279 -0.050020282972538722 -0.050021487537462009 -0.050021437360302845 -0.05002150405745287 -0.050021218509867904 -0.050021504300574317 -0.050021446626082912 -0.05002150386153878 -0.050021503844902254 -0.050021344081981924 -0.050021504426632363 -0.050021503860792182 -0.05002150385980586 -0.050021503863002595
leaf_weight=0.036525512841762975 0.075629818127713341 0.46408887960450063 0.0090314286447039649 0.0012966137879573134 0.0012891358637716621 0.0025868729446445575 0.0025824409503164454 0.044201782817665125 0.06935481487852474 0.11672975433248212 0.0014223818856731732 0.011187640056050444 0.0012951588562941652 0.0088749585158396371 0.010743098845276453 0.018477620311060594 0.0013679533115915632 0.005160546475508454 0.001293153446707742 0.022345020581269637 0.0043556906435711648 0.049846582987811749 0.013357556507116897 0.003867407504003495 0.82590706560531557 0.0043295568825385536 0.036095802235649899 0.51221665639734315 0.070902476660816838 0.009023950231494382
leaf_count=87 188 1086 28 6 82 37 30 37 44 4 38 34 15 30 46 61 33 18 18 56 34 123 38 11 1947 20 84 1212 170 21
internal_value=-0.615288 -1.60343 -3.38254 -94.7374 -425.459 -0.739086 -16.649 -0.372728 -0.282594 -0.407928 -0.288438 -0.0500214 -0.0500204 -0.0500215 -0.0500214 -0.0500214 -0.0500214 -0.0500213 -0.0500208 -0.0500215 -0.0500214 -0.0500215 -0.0500215 -0.0500215 -0.0500215 -0.0500215 -0.0500215 -0.0500215 -0.0500215 -0.0500215
internal_weight=2.43539 0.886206 0.413093 0.0116172 0.00258575 0.401476 0.00903672 0.392439 0.348238 0.226289 0.156934 0.0402045 0.00271754 0.121949 0.0463188 0.0374869 0.0190093 0.00782165 0.00266111 0.0374438 0.0150988 1.54918 0.0498831 0.00645428 1.4993 0.0902719 0.0404254 1.40903 0.583119 0.473113
internal_count=5638 1957 850 116 88 734 78 656 619 265 221 217 53 354 166 164 103 69 51 136 80 3681 125 48 3556 227 104 3329 1382 1107
is_linear=0
shrinkage=0.05


Tree=9
num_leaves=31
num_cat=0
split_feature=14 19 16 16 16 2 5 4 19 6 13 3 13 16 6 6 6 6 6 6 16 16 21 3 19 4 3 23 19 1
split_gain=328.954 455.334 25764.1 53307.4 212645 407.34 1711.31 2.61877 0.870096 0.413407 0.0513546 3.47338e-12 2.70116e-12 4.65576e-12 1.59875e-12 5.81497e-13 3.46874e-13 4.46993e-13 1.02057e-13 2.87319e-13 1.77774e-14 6.05037e-14 5.10703e-15 1.58831e-14 1.11022e-15 1.09635e-15 1.83985e-14 9.85323e-16 9.78384e-16 2.22045e-16
threshold=inf 4746.2400000000007 3327.1500000000005 3613.3950000000004 3740.8200000000006 5488.8250000000007 3683.2450000000003 207.69585667053079 1062.7300000000002 337.79500000000002 13.500000000000002 2454.3246153846162 6.5000000000000009 1848.5700000000002 63.930000000000007 -6.919999999999999 1.8350000000000002 12.975000000000001 220.19500000000002 484.07000000000005 1625.0850000000003 988.92500000000007 273.22500000000008 220.13878757663051 560.59500000000014 265.94004898214973 301.26765151515156 97.865000000000052 2205.9350000000004 70687.835000000021
decision_type=8 2 2 2 2 2 2 2 2 2 2 2 2 2 2 2 2 2 2 2 2 2 8 2 2 2 2 8 2 2
left_child=22 2 5 -4 -5 7 -7 12 10 14 -9 -8 18 -14 15 -10 -17 -18 -2 -20 21 -21 23 -1 25 27 -27 -24 -13 -26
right_child=1 -3 3 4 -6 6 11 8 9 -11 -12 28 13 -15 -16 16 17 -19 19 20 -22 -23 24 -25 29 26 -28 -29 -30 -31
leaf_value=-0.050020455692678982 -0.05002045447551659 -0.05002045569419801 -0.050020454486067713 -0.05002041478976247 -770.27723635237601 -53.625310235346241 -0.050017849649457352 -0.36635185844417939 -0.050020436947546522 -0.27132188585851769 -0.41394460228926599 -0.050020412178448485 -0.050020455681568127 -0.05001792137942708 -0.050019089813951048 -0.050019313671401347 -0.050020386623513581 -0.050019691386238144 -0.050020099585802696 -0.050020454997837152 -0.050020455693400925 -0.050020231190693237 -0.05002045521199934 -0.050020379074063204 -0.050020455609326192 -0.05002031166091845 -0.050020455561885925 -0.050020435431341027 -0.050020455297659305 -0.050020455693142341
leaf_weight=0.026978358597262497 0.063361922220084049 0.44555164669873193 0.0089932460234898315 0.0032767640605015922 0.0012334022743516471 0.0018665320908439753 0.0016721273798339098 0.12156138573968012 0.0053187422357510025 0.15032275021076202 0.10619910061359406 0.0020481899813842297 0.0044963955382515616 0.0030357735518586398 0.0066311341719518238 0.0027215010571222673 0.0036913712415012762 0.0061867337032435188 0.0087717359474801596 0.008992949391450563 0.017985571757890301 0.0045463912151788933 0.067446129870930238 0.0090274882721246286 0.94833407372164635 0.0024698246709533569 0.022073201340390369 0.0069557752481159687 0.0036788669822271913 0.38914237573114008
leaf_count=66 161 1095 31 10 82 35 29 99 23 11 3 34 30 18 30 24 24 27 34 39 46 30 168 29 2363 20 54 19 13 960
internal_value=-0.522758 -1.23149 -2.2125 -70.4026 -210.685 -0.452187 -10.8425 -0.264819 -0.324138 -0.240254 -0.388543 -0.0500199 -0.0500203 -0.0500194 -0.0500198 -0.05002 -0.0500198 -0.05002 -0.0500204 -0.0500204 -0.0500204 -0.0500204 -0.0500205 -0.0500204 -0.0500205 -0.0500205 -0.0500204 -0.0500205 -0.0500204 -0.0500205
internal_weight=2.45457 0.982144 0.536593 0.0135034 0.00451017 0.523089 0.00926572 0.513823 0.402633 0.174872 0.22776 0.00739918 0.111191 0.00753217 0.0245495 0.0179183 0.0125996 0.0098781 0.103659 0.0402966 0.0315249 0.0135393 1.47243 0.0360058 1.43642 0.0989449 0.024543 0.0744019 0.00572706 1.33748
internal_count=5607 1928 833 123 92 710 111 599 241 139 102 76 358 48 128 98 75 51 310 149 115 69 3679 95 3584 261 74 187 47 3323
is_linear=0
shrinkage=0.05


Tree=10
num_leaves=31
num_cat=0
split_feature=20 1 19 16 6 16 19 4 19 6 3 13 13 0 6 5 16 16 21 18 6 1 3 3 0 0 19 3 0 16
split_gain=345.497 542.073 19549.8 146446 3155.49 66.2753 558.625 1.46147 0.329124 0.0117222 4.24223e-12 1.06193e-11 1.25955e-12 2.41092e-12 1.78135e-13 2.57079e-12 1.92762e-14 7.04437e-14 3.10862e-15 1.49533e-14 1.30625e-15 4.44089e-16 3.4972e-15 9.09342e-15 2.22045e-16 2.22045e-16 2.22045e-16 1.94289e-16 1.28803e-16 9.71445e-17
threshold=inf 3238.1150000000002 4746.2400000000007 3613.3950000000004 -1.0000000180025095e-35 4529.5200000000013 5711.8150000000014 207.69585667053079 1116.1950000000002 346.75500000000005 1588.4627272727275 2.5000000000000004 6.5000000000000009 5.5000000000000009 277.75500000000005 351.11500000000007 1292.9950000000001 2240.8050000000007 273.22500000000008 198.00000000000003 72.320000000000007 513.86500000000012 227.99823333333336 294.32548245614038 3855.5000000000005 1837.5000000000002 119.83000000000003 170.69995804715981 5.5000000000000009 566.15500000000009
decision_type=8 2 2 2 2 2 2 2 2 2 2 2 2 2 2 2 2 2 8 10 2 2 2 2 2 2 2 2 2 2
left_child=18 5 3 4 -3 7 -7 12 9 -9 11 -6 14 -14 27 -16 -17 -18 19 -1 -12 22 29 -24 25 26 -23 -2 -13 -20
right_child=1 2 -4 -5 10 6 -8 8 -10 -11 20 28 13 -15 15 16 17 -19 21 -21 -22 24 23 -25 -26 -27 -28 -29 -30 -31
leaf_value=-0.050019454700634985 -0.050019456912558796 -60.376880257558142 -0.050019453203542702 -462.9712776965643 -0.050015276331326665 -16.123677621859311 -0.050019453204040304 -0.2770474998034827 -0.20273491175036532 -0.29713542498457052 -0.050019411900624824 -0.050019456929271289 -0.050019455182627598 -0.050017557472418088 -0.050017659378655516 -0.050019456498525849 -0.050019236062455036 -0.05001945423643437 -0.050019456832542532 -0.050019376793519726 -0.050019454287075951 -0.050019443573534189 -0.050019381598239536 -0.050019455541970438 -0.050019453204034371 -0.050019453204037938 -0.050019453223889447 -0.050019448977578762 -0.050019438746681091 -0.050019453204039901
leaf_weight=0.029162621474825623 0.054825748165851201 0.0024864544786600542 0.3725038874597173 0.0019441751355770967 0.0025100122705059838 0.0062213591299951068 0.041216504236217588 0.15095342454940686 0.19480675120557472 0.1399574875831604 0.0023384486683730729 0.0019441764452494681 0.0042774975281988465 0.0027493909033517623 0.0021980984276339646 0.018664507126370505 0.0055065953105213504 0.011276213423116133 0.038494660664582514 0.0078097113766233397 0.0081665007954780378 0.0046692554485611151 0.0062446835364511335 0.012442718958482146 0.0077766989124939947 0.01555339782498788 1.2400014356178539 0.0089468952239188937 0.0019460034668195014 0.031106795649975538
leaf_count=75 145 38 964 68 27 19 107 83 117 5 16 7 20 31 13 65 32 34 100 27 69 14 26 32 22 41 3244 29 36 84
internal_value=-0.564124 -1.25589 -2.71608 -49.2631 -7.78533 -0.359568 -2.15804 -0.215978 -0.253031 -0.286712 -0.0500188 -0.0500178 -0.0500194 -0.0500187 -0.0500194 -0.0500193 -0.0500194 -0.0500194 -0.0500195 -0.0500194 -0.0500194 -0.0500195 -0.0500195 -0.0500194 -0.0500195 -0.0500195 -0.0500195 -0.0500195 -0.0500194 -0.0500195
internal_weight=2.4287 1.03544 0.39384 0.0213358 0.0193916 0.6416 0.0474379 0.594163 0.485718 0.290911 0.0169051 0.00640019 0.108445 0.00702689 0.101418 0.0376454 0.0354473 0.0167828 1.39326 0.0369723 0.0105049 1.35629 0.0882889 0.0186874 1.268 1.26022 1.24467 0.0637726 0.00389018 0.0696015
internal_count=5590 1925 1225 261 193 700 126 574 205 88 155 70 369 51 318 144 131 66 3665 102 85 3563 242 58 3321 3299 3258 174 43 184
is_linear=0
shrinkage=0.05


Tree=11
num_leaves=31
num_cat=0
split_feature=14 1 19 16 16 3 6 19 16 4 6 19 4 3 4 2 16 6 3 16 18 18 16 1 3 3 4 24 25 25
split_gain=417.986 638.774 15393.2 144252 215819 3251.15 503.37 25.1516 278.562 0.70072 0.116319 1.33469e-11 5.77225e-12 4.78671e-12 2.02421e-12 9.73558e-13 6.32883e-13 2.0306e-13 1.89579e-12 2.97644e-14 3.10862e-15 1.10328e-14 1.02522e-15 6.66134e-16 1.09635e-15 6.26582e-15 6.51822e-16 2.22045e-16 2.22045e-16 2.22045e-16
threshold=inf 1942.7500000000002 4746.2400000000007 3406.440000000001 3513.8450000000007 140.29012500000002 -10.119999999999999 3510.6700000000005 4746.4450000000006 207.69585667053079 346.75500000000005 951.99500000000012 2537.8526796534038 1427.2850000000001 714.85663784238284 3233.0600000000004 3613.3950000000004 220.19500000000002 349.44542857142864 1292.9950000000001 314.00000000000006 198.00000000000003 2052.0000000000005 684.5100000000001 227.99823333333336 275.08968750000003 2537.8526796534038 1.5000000000000002 0.57735026918960919 1.1547005383792452
decision_type=8 2 2 2 2 2 2 2 2 2 2 2 2 2 2 2 2 2 2 2 8 10 2 2 2 2 2 8 8 8
left_child=20 7 3 5 -5 -3 -7 9 -9 17 -11 12 -8 14 15 -13 -4 -2 -19 -20 21 -1 26 24 -22 -26 -15 -25 -29 -30
right_child=1 2 16 4 -6 6 11 8 -10 10 -12 13 -14 22 -16 -17 -18 18 19 -21 23 -23 -24 27 25 -27 -28 28 29 -31
leaf_value=-0.050018506695083009 -0.050018505766234594 -88.157372523237058 -0.050017552162265611 -0.05001792426139038 -941.26589143327112 -27.003867750180856 -0.050012350073489489 -15.555159491555102 -0.050018506695226776 -0.17784227052502988 -0.2336076464698203 -0.050017040788358835 -0.050017165756903993 -0.050018497301774746 -0.050016214949144357 -0.050018494926477433 -0.05001850669489754 -0.050017020477536867 -0.050018506872810453 -0.050018394966504148 -0.050018506943578671 -0.050018443562577501 -0.050018506691782864 -0.050018506730801354 -0.050018451305425628 -0.050018507041831452 -0.050018455357011229 -0.050018506746472069 -0.050018506721961356 -0.050018506643751008
leaf_weight=0.031069759075762704 0.064732568234775606 0.0011349789856466902 0.0017446881975047282 0.0014271612744778386 0.0010624555193317065 0.0018550224329030333 0.0016224295321110088 0.0032247367746833641 0.028480612264764019 0.21054747800984441 0.16822350025177002 0.0023893026090586727 0.0010093912845965392 0.0018504085161067116 0.004107119918327129 0.0022210033709404008 0.36396003856392078 0.0024661298728432179 0.017754528019068537 0.0089317400052095902 0.076194884459255152 0.0089082641266031715 0.011096344504039735 0.041056466725421847 0.0063070366416440029 0.025151710258796811 0.0018545589730365464 0.028480612032580899 0.054741955595090763 1.056005278707367
leaf_count=86 206 12 5 8 85 31 53 30 83 130 3 24 12 25 29 31 999 15 63 38 211 30 40 111 26 68 16 78 148 2904
internal_value=-0.614151 -1.44494 -2.9443 -36.4077 -401.718 -5.19748 -1.83538 -0.263748 -1.62704 -0.1723 -0.202609 -0.0500176 -0.0500142 -0.050018 -0.050017 -0.0500177 -0.0500185 -0.0500185 -0.0500183 -0.0500185 -0.0500185 -0.0500185 -0.0500185 -0.0500185 -0.0500185 -0.0500185 -0.0500185 -0.0500185 -0.0500185 -0.0500185
internal_weight=2.22961 0.901696 0.397335 0.0316302 0.00248962 0.0291406 0.0280056 0.504361 0.0317053 0.472656 0.378771 0.0261506 0.00263182 0.0235187 0.00871743 0.00461031 0.365705 0.093885 0.0291524 0.0266863 1.32792 0.039978 0.0148013 1.28794 0.107654 0.0314587 0.00370497 1.18028 1.13923 1.11075
internal_count=5600 1938 1370 366 93 273 261 568 113 455 133 230 65 165 84 55 1004 322 116 101 3662 116 81 3546 305 94 41 3241 3130 3052
is_linear=0
shrinkage=0.05


Tree=12
num_leaves=31
num_cat=0
split_feature=20 19 19 19 19 6 2 4 19 13 4 19 19 6 6 19 19 18 18 19 3 3 6 19 13 1 19 2 4 1
split_gain=235.325 453.116 31039.6 60176.5 92086 247.032 1714.75 0.604636 0.135263 0.0375158 4.4943e-11 8.54206e-12 3.31679e-13 9.20236e-14 8.60596e-13 8.20871e-15 4.43222e-14 3.33067e-15 9.62425e-15 1.55431e-15 8.46545e-16 1.41762e-14 1.38778e-16 2.77556e-17 1.73472e-17 1.38778e-17 1.38778e-17 6.93889e-18 6.93889e-18 3.46945e-18
threshold=inf 3994.2700000000004 5513.2700000000013 4987.2200000000012 4853.8950000000013 0.89500000000000013 2330.4150000000004 207.69585667053079 1116.1950000000002 13.500000000000002 207.69585667053079 1234.3250000000003 5825.7650000000012 220.19500000000002 398.34500000000008 1728.9600000000003 983.07000000000016 314.00000000000006 198.00000000000003 695.34500000000014 227.99823333333336 301.26765151515156 146.93500000000003 560.59500000000014 1.5000000000000002 631.19500000000005 403.76500000000004 2114.98 86.961198945425096 711.58500000000015
decision_type=8 2 2 2 2 2 2 2 2 2 2 2 2 2 2 2 2 8 10 2 2 2 2 2 2 2 2 2 2 2
left_child=17 5 3 4 -3 6 10 13 9 -9 -2 -12 -4 22 -15 16 -16 18 24 20 25 -22 28 26 -1 -19 -23 -17 -7 -28
right_child=1 2 12 -5 -6 7 -8 8 -10 -11 11 -13 -14 14 15 27 -18 19 -20 -21 21 23 -24 -25 -26 -27 29 -29 -30 -31
leaf_value=-0.050017603639912006 -0.050017602557043489 -511.63876390822156 -0.050017051798724059 -0.050017492983021307 -0.0500176064707911 -0.050017602293987995 -49.468503175738277 -0.19153733995672512 -0.15746948035465025 -0.22346787969158335 -0.050009134031830355 -0.050013390004825777 -0.050017606470707743 -0.050016815597583954 -0.050017605691690281 -0.050017604248054286 -0.050017410364968741 -0.050017605559945166 -0.050017550825845615 -0.050017606463890807 -0.050017508613487451 -0.050017602784725085 -0.050017594495402995 -0.050017606471169242 -0.050017606470853515 -0.050017604229561412 -0.050017605228872025 -0.050017605475701422 -0.050017602246096332 -0.050017603822453544
leaf_weight=0.0066850570729004568 0.0084444237346598915 0.0017592255625354172 0.002715160678184724 0.0066352571918987802 0.0017592254521079029 0.03131436856834853 0.0020235341761497888 0.19557524033026308 0.22638607424042168 0.17368361353874207 0.0020826474823252275 0.0027171292968031224 0.35958568441333072 0.0041004640629545 0.011259458540052978 0.0098516665010893109 0.0039137140028098942 0.038351115334080421 0.010939999195585415 1.1266084222561348 0.0042457696730622265 0.019351481489138678 0.0063361407519550985 0.0098516623256728053 0.022518085723277181 0.0084442826337181032 0.0070369022723752997 0.0087961285025812685 0.016185369423100671 0.0087961279496084899
leaf_count=19 33 74 10 27 6 105 83 88 153 4 19 23 1032 22 58 32 38 112 39 3247 21 55 19 28 66 34 20 36 58 25
internal_value=-0.512871 -1.05653 -2.46642 -88.6876 -255.844 -0.309213 -6.59978 -0.169495 -0.1879 -0.206556 -0.0500154 -0.0500115 -0.0500176 -0.0500176 -0.0500175 -0.0500176 -0.0500176 -0.0500176 -0.0500176 -0.0500176 -0.0500176 -0.0500176 -0.0500176 -0.0500176 -0.0500176 -0.0500176 -0.0500176 -0.0500176 -0.0500176 -0.0500176
internal_weight=2.33795 1.07512 0.372455 0.0101537 0.00351845 0.70267 0.0152677 0.687402 0.595645 0.369259 0.0132442 0.00479978 0.362301 0.0917573 0.0379214 0.033821 0.0151732 1.26283 0.0401431 1.22269 0.0960773 0.0492819 0.0538359 0.0450362 0.0292031 0.0467954 0.0351845 0.0186478 0.0474997 0.015833
internal_count=5586 1920 1149 107 80 771 158 613 245 92 75 42 1042 368 186 164 96 3666 124 3542 295 149 182 128 85 146 100 68 163 45
is_linear=0
shrinkage=0.05


Tree=13
num_leaves=31
num_cat=0
split_feature=14 1 19 16 2 3 3 1 1 4 19 4 16 1 16 6 2 16 3 3 5 4 10 5 18 18 16 4 3 28
split_gain=306.133 595.325 14942.4 263438 2448.32 26.5729 167.441 0.262766 0.0299239 7.33906e-11 3.95519e-11 2.16097e-11 1.10663e-11 2.68135e-12 3.85469e-13 2.316e-13 2.23013e-13 1.5241e-13 3.93366e-14 3.80692e-13 3.0519e-14 6.84869e-15 1.93248e-15 1.50401e-15 1.33227e-15 4.82253e-15 4.44089e-16 5.96745e-16 7.83054e-15 1.9082e-16
threshold=inf 1639.5350000000003 4853.8950000000013 3406.440000000001 19523.090000000004 80.76111519607845 61.230000000000011 1173.8700000000001 1219.6400000000001 265.94004898214973 2592.7200000000007 237.25210253854922 601.95000000000016 3238.1150000000002 4159.9000000000005 151.93000000000004 332.73500000000007 2427.2950000000005 227.99823333333336 349.44542857142864 5122.0300000000016 173.07852683103127 1.0000000180025095e-35 594.71500000000003 314.00000000000006 236.82000000000002 533.94500000000016 265.94004898214973 315.15500000000003 11.662579470388151
decision_type=8 2 2 2 2 2 2 2 2 2 2 2 2 2 2 2 2 2 2 2 2 2 2 2 8 10 2 2 2 10
left_child=24 5 3 4 11 6 16 9 -9 18 -11 -3 -13 17 -4 20 -2 -14 21 -20 -15 -7 -21 -24 25 29 27 -26 -29 -1
right_child=1 2 14 -5 -6 7 -8 8 -10 10 -12 12 13 15 -16 -17 -18 -19 19 22 -22 -23 23 -25 26 -27 -28 28 -30 -31
leaf_value=-0.050016734396300735 -0.050016743853019921 -0.050016743786761103 -0.050016031898268323 -775.97859253309161 -65.470339231008623 -0.050016743887297127 -10.009449439108316 -0.16906858967049496 -0.14310548086875682 -0.050008196988793108 -0.050015673151090283 -0.050008748582131252 -0.050012460036039541 -0.050015036285100969 -0.050016743629576976 -0.050014214149937897 -0.050016415784675021 -0.050013227949836814 -0.050016212981564313 -0.050016743829358702 -0.050014740695800267 -0.050016685096504136 -0.050016735916607928 -0.050016697689408633 -0.05001674293055558 -0.050016697566390933 -0.050016743646526633 -0.05001664735682744 -0.050016744465554611 -0.050016744889022781
leaf_weight=0.0053580342337934397 0.019412081190922553 0.012719182749420343 0.0019134001922794233 0.001159900570176591 0.0015285769619617353 0.027444937106387547 0.0050203662728830608 0.20925690791727905 0.23630585369340748 0.0041644189933478471 0.0030756675319192038 0.0010493280371974825 0.0012660186345317698 0.0033075093694239898 0.32967066015769969 0.0013628839701644857 0.0070658958519483469 0.0013196661635817009 0.0041784287345288619 0.013053054977198997 0.0011865276026128413 0.0060457779118910432 0.004688199293618335 0.0057059557854102667 0.05991545758145389 0.0073858533226029968 1.0981217078344645 0.0023567642892885479 0.017403933481546119 0.023093681869795546
leaf_count=18 66 88 6 96 31 95 17 12 77 36 16 46 47 60 999 24 36 13 27 42 14 29 19 23 183 26 3331 20 52 71
internal_value=-0.568519 -1.26624 -2.85519 -40.2113 -4.26237 -0.227697 -1.6374 -0.141295 -0.155299 -0.0500161 -0.0500114 -0.0500154 -0.0500136 -0.0500142 -0.0500167 -0.0500148 -0.0500167 -0.0500129 -0.0500167 -0.0500167 -0.050015 -0.0500167 -0.0500167 -0.0500167 -0.0500167 -0.0500167 -0.0500167 -0.0500167 -0.0500167 -0.0500167
internal_weight=2.11554 0.901901 0.356484 0.0248996 0.0237397 0.545418 0.0314983 0.513919 0.445563 0.0683564 0.00724009 0.0222111 0.00949193 0.00844261 0.331584 0.00585692 0.026478 0.00258568 0.0611164 0.0276256 0.00449404 0.0334907 0.0234472 0.0103942 1.21364 0.0358376 1.1778 0.0796762 0.0197607 0.0284517
internal_count=5620 1919 1424 419 323 495 119 376 89 287 52 292 204 158 1005 98 102 60 235 111 74 124 84 42 3701 115 3586 255 72 89
is_linear=0
shrinkage=0.05


Tree=14
num_leaves=31
num_cat=0
split_feature=14 1 19 16 5 16 19 4 13 6 0 1 1 6 1 1 1 5 4 16 18 18 6 16 3 3 0 1 28 0
split_gain=234.531 640.127 46163.9 87585.1 3147.09 210.264 3341.34 0.309039 0.0976849 0.0214412 2.3666e-12 9.28591e-13 2.95075e-12 6.90433e-13 2.28248e-13 9.96824e-13 1.13687e-13 4.11518e-13 6.89261e-13 3.91354e-15 1.9984e-15 7.09849e-15 1.13104e-15 8.88178e-16 6.80012e-16 1.68823e-14 5.55112e-17 1.38778e-17 1.04083e-17 6.93889e-18
threshold=inf 3903.0000000000005 4987.2200000000012 3973.6850000000004 4045.4300000000007 4529.5200000000013 6104.0150000000003 207.69585667053079 13.500000000000002 346.75500000000005 1.5000000000000002 1173.8700000000001 1639.5350000000003 111.13500000000002 1639.5350000000003 1081.3950000000002 332.73500000000007 351.11500000000007 86.961198945425096 1292.9950000000001 314.00000000000006 198.00000000000003 151.93000000000004 639.82000000000005 227.99823333333336 282.60500000000008 113.50000000000001 2825.1800000000003 20.018675847912807 1.5000000000000002
decision_type=8 2 2 2 2 2 2 2 2 2 2 2 2 2 2 2 2 2 2 2 8 10 2 2 2 2 2 2 10 2
left_child=20 5 3 4 -3 7 -7 11 9 -9 -6 16 -13 -12 15 -8 22 18 -18 -19 21 28 -2 24 29 -26 -4 -14 -1 -22
right_child=1 2 26 -5 10 6 14 8 -10 -11 13 12 27 -15 -16 -17 17 19 -20 -21 23 -23 -24 -25 25 -27 -28 -29 -30 -31
leaf_value=-0.050015927104842588 -0.050015928739202221 -98.93476195589345 -0.050015928933648285 -418.84599778469146 -0.050015924560921327 -59.604503537180555 -0.050015928910906449 -0.12995442148178121 -0.18178087204924065 -0.15135077680165532 -0.050012589664226698 -0.050014393612914133 -0.050015928921962771 -0.050014306039850548 -0.050015928933824477 -0.050015149051736818 -0.050015037760746332 -0.050015928674425496 -0.050015919509118413 -0.050015879399328327 -0.050015928933742126 -0.050015874219984116 -0.050015904722296715 -0.050015928926903055 -0.050015809698795245 -0.050015928932905795 -0.050015928930565862 -0.050015924958428964 -0.05001592893343957 -0.050015928933197652
leaf_weight=0.0063674602715775288 0.032792728419443903 0.0010112782946674051 0.25660864126984961 0.0019102380028925836 0.0015923022391035602 0.0025187018747551129 0.012734938341036894 0.24873947253029305 0.19955086794670873 0.22122173011302948 0.0012012504113272371 0.0046653644652656671 0.0066858379868790941 0.0011438265792094171 0.01751051502651535 0.0060414880863390854 0.0041335433616572067 0.015600531085457394 0.0047784444916478272 0.0054294534646173844 0.01114305507508051 0.0076679807877297881 0.0057394607521956678 1.0242063879911283 0.003207942155171394 0.039796627359464765 0.038204767877196844 0.0028657068665105222 0.021649364556651562 0.032474047329742461
leaf_count=20 126 82 810 55 21 26 41 209 14 14 46 30 48 28 56 20 31 60 22 24 36 31 21 3263 21 125 121 24 70 114
internal_value=-0.549569 -1.07373 -3.03339 -131.266 -20.2575 -0.326366 -3.91543 -0.141208 -0.152471 -0.140026 -0.0500144 -0.0500158 -0.0500154 -0.0500134 -0.0500158 -0.0500157 -0.0500159 -0.0500158 -0.0500155 -0.0500159 -0.0500159 -0.0500159 -0.0500159 -0.0500159 -0.0500159 -0.0500159 -0.0500159 -0.0500159 -0.0500159 -0.0500159
internal_weight=2.23919 1.09268 0.301672 0.0068589 0.00494866 0.791009 0.0388056 0.752203 0.669512 0.469961 0.00393738 0.0826911 0.0142169 0.00234508 0.0362869 0.0187764 0.0684742 0.029942 0.00891199 0.02103 1.14651 0.0356848 0.0385322 1.11083 0.0866217 0.0430046 0.294813 0.00955154 0.0280168 0.0436171
internal_count=5609 1929 1163 232 177 766 143 623 237 223 95 386 102 74 117 61 284 137 53 84 3680 121 147 3559 296 146 931 72 90 150
is_linear=0
shrinkage=0.05


Tree=15
num_leaves=31
num_cat=0
split_feature=14 1 19 16 1 3 6 1 2 6 6 3 1 0 16 16 5 1 3 6 3 5 18 18 33 6 19 3 3 0
split_gain=355.559 905.977 25277.8 237581 3464.8 36.523 194.932 0.137058 0.0101462 1.61419e-11 8.99805e-12 4.88005e-11 2.2514e-12 3.47179e-12 1.54215e-12 1.37107e-12 5.4181e-13 9.99105e-13 2.51374e-13 1.68355e-13 6.50521e-14 2.99542e-13 1.33227e-15 4.59355e-15 1.25941e-15 5.56846e-16 4.44089e-16 6.80012e-16 1.44815e-14 5.55112e-17
threshold=1.0000000180025095e-35 1639.5350000000003 4987.2200000000012 3207.7700000000004 9627.0400000000027 80.76111519607845 36.455000000000005 1173.8700000000001 1232.2350000000004 1249.3900000000001 86.995000000000019 256.27879351950475 3420.4950000000003 6.5000000000000009 2427.2950000000005 3613.3950000000004 338.53000000000003 743.05000000000007 1760.3500000000001 -1338.6349999999998 364.06231441048038 209.81000000000003 314.00000000000006 198.00000000000003 500.50000000000006 16.990000000000006 560.59500000000014 227.99823333333336 294.32548245614038 1275.0000000000002
decision_type=10 2 2 2 2 2 2 2 2 2 2 2 2 2 2 2 2 2 2 2 2 2 8 10 2 2 2 2 2 2
left_child=1 5 3 4 9 6 19 10 -9 12 11 16 13 14 -3 -4 25 -18 -14 -1 21 -12 23 -2 -22 -7 27 -24 -29 -17
right_child=22 2 15 -5 -6 7 -8 8 -10 -11 20 -13 18 -15 -16 29 17 -19 -20 -21 24 -23 26 -25 -26 -27 -28 28 -30 -31
leaf_value=-0.050014672923494374 -0.050015151249050815 -0.050009073543456253 -0.05001369005732266 -660.44191860256717 -92.718323339482239 -0.050015129842041074 -11.842491942577155 -0.1365805639752998 -0.12207526105308764 -0.050015151596686541 -0.050015153046776333 -0.050008920221271305 -0.050012526057644627 -0.05001359413160416 -0.050011349075598177 -0.050015150204410511 -0.050013763815250037 -0.050015109433015549 -0.050013507769224322 -0.050015153201385089 -0.050015126710610897 -0.05001472191710097 -0.050015151224238712 -0.050015110416606716 -0.050015151298238518 -0.050015152729990367 -0.050015150128380294 -0.050015037659168031 -0.050015151878298927 -0.050015150118785406
leaf_weight=0.0020283331396058158 0.025742280820850394 0.0014080207947611023 0.0016164888511411837 0.0015142523625399909 0.001079117555597974 0.0039432390747783019 0.0042399913857043134 0.23311397998679695 0.24968093208042058 0.0087832444080177072 0.012416866142302748 0.0041237730709892595 0.0012593355036187859 0.0010715712799228461 0.0015801333356648684 0.28861639118986204 0.0023495091283456488 0.003341100931898832 0.0013522324243240291 0.018171166134824935 0.0087972049905953031 0.0059639084892307839 0.038159146031830127 0.0094140730744385337 0.01271978128934494 0.008177375366710463 1.0003151499492418 0.0030515350999138482 0.030587887449655682 0.0060570071218535295
leaf_count=10 87 49 6 126 55 20 22 11 75 61 42 36 71 41 12 971 17 25 18 88 38 33 137 38 46 35 3353 21 101 20
internal_value=-0.646884 -1.39501 -3.54944 -60.9989 -6.09828 -0.204956 -2.09588 -0.120103 -0.129079 -0.0500137 -0.0500146 -0.0500138 -0.0500119 -0.0500112 -0.0500103 -0.0500151 -0.050015 -0.0500146 -0.050013 -0.0500151 -0.0500151 -0.050015 -0.0500151 -0.0500151 -0.0500151 -0.0500151 -0.0500151 -0.0500151 -0.0500151 -0.0500152
internal_weight=1.99068 0.883405 0.314338 0.0180479 0.0165337 0.569067 0.0244395 0.544628 0.482795 0.0154545 0.0618328 0.021935 0.00667129 0.00405973 0.00298815 0.29629 0.0178112 0.00569061 0.00261157 0.0201995 0.0398978 0.0183808 1.10727 0.0351564 0.021517 0.0121206 1.07211 0.0717986 0.0336394 0.294673
internal_count=5665 1928 1430 433 307 498 120 378 86 252 292 133 191 102 61 997 97 42 89 98 159 75 3737 125 84 55 3612 259 122 991
is_linear=0
shrinkage=0.05


Tree=16
num_leaves=31
num_cat=0
split_feature=14 16 19 16 6 2 10 2 3 13 12 16 4 4 4 2 1 3 19 1 2 1 1 3 16 16 6 18 18 5
split_gain=220.389 784.557 15040.9 201113 1699.63 1863.34 27.903 350.528 561.587 0.0866286 0.0127026 0.0433715 4.36546e-11 3.00138e-11 2.22225e-11 1.4346e-11 5.51927e-12 1.36774e-12 1.15331e-12 8.53702e-13 5.54834e-13 1.06686e-12 3.85178e-13 4.47538e-13 2.26069e-13 2.20546e-13 1.03795e-13 1.33227e-15 4.10783e-15 5.55112e-16
threshold=inf 1517.9650000000004 4987.2200000000012 3207.7700000000004 1.2250000000000003 866.23000000000013 1.0000000180025095e-35 1232.2350000000004 412.16833333333335 13.500000000000002 1.0000000180025095e-35 1421.0350000000003 226.51812181920459 207.69585667053079 184.55275798236423 3750.1050000000005 2059.0500000000006 1803.574166666667 951.99500000000012 3238.1150000000002 1637.1350000000004 956.69500000000016 1639.5350000000003 682.10241176470595 601.95000000000016 4159.9000000000005 337.79500000000002 314.00000000000006 236.82000000000002 248.32500000000002
decision_type=8 2 2 2 2 2 2 2 2 2 2 2 2 2 2 2 2 2 2 2 2 2 2 2 2 2 2 8 10 2
left_child=27 6 3 4 5 -3 9 14 -9 10 -2 12 24 22 26 18 -15 -17 -14 -18 21 -4 23 -6 -12 -22 29 28 -1 -8
right_child=1 2 20 -5 13 -7 7 8 -10 -11 11 -13 15 16 -16 17 19 -19 -20 -21 25 -23 -24 -25 -26 -27 -28 -29 -30 -31
leaf_value=-0.05001441045626831 -0.12544754535413979 -0.05001358967976538 -0.050014412416749213 -603.4097164190033 -0.050014273230372747 -93.454456087868707 -0.050014412197822905 -0.050011078025930904 -47.262997291402321 -0.15466007243625268 -0.050014411972582176 -0.11635952248335257 -0.050005695307341919 -0.050007621724961149 -0.050009601142492602 -0.050010788810171493 -0.050010207173829049 -0.050013342751828109 -0.050007858352207661 -0.050011929393154492 -0.050013695893082494 -0.050013483722296193 -0.050014411887877586 -0.050013526704929735 -0.050014075491863021 -0.050014411296416629 -0.050014172287542735 -0.050014411038564605 -0.050014367033601903 -0.050014392742374986
leaf_weight=0.025353985352609909 0.24109322135960476 0.001065184595063262 0.008642549745701833 0.0014916475107579338 0.0042816499145861796 0.0010706128578092944 0.01469236591865981 0.0015541712683249098 0.0010590306433711889 0.21877345491708933 0.015268736260963279 0.24506401270515621 0.0016009212127077168 0.0019514642851593952 0.0027225977193389801 0.0010330436485801453 0.0014425742214969617 0.001064339216100052 0.0010019140217991662 0.0014356990724309071 0.0010810427629621691 0.004815483756829054 0.0080665210009840532 0.0037800197865180962 0.007416499810333964 0.28635582828707129 0.0061778702637305108 1.0109098669898195 0.0069359174856344899 0.0049039115217240871
leaf_count=92 14 4 37 140 24 52 70 33 53 7 75 9 37 33 30 27 16 26 20 40 4 19 40 18 38 1011 31 3577 29 26
internal_value=-0.569378 -1.06694 -3.1224 -40.7246 -4.38019 -46.8709 -0.190616 -1.65722 -19.1836 -0.128312 -0.117088 -0.109691 -0.0500134 -0.0500131 -0.0500139 -0.050009 -0.0500097 -0.0500121 -0.0500065 -0.0500111 -0.0500144 -0.0500141 -0.0500142 -0.0500139 -0.0500143 -0.0500144 -0.0500144 -0.0500144 -0.0500144 -0.0500144
internal_weight=2.13211 1.08891 0.32548 0.0245854 0.0230937 0.0021358 0.763426 0.0311099 0.0026132 0.732316 0.513543 0.272449 0.0273855 0.0209579 0.0284967 0.00470022 0.00482974 0.00209738 0.00260284 0.00287827 0.300895 0.013458 0.0161282 0.00806167 0.0226852 0.287437 0.0257741 1.0432 0.0322899 0.0195963
internal_count=5632 1934 1438 367 227 56 496 243 86 253 246 232 223 171 157 110 89 53 57 56 1071 56 82 42 113 1015 127 3698 121 96
is_linear=0
shrinkage=0.05


Tree=17
num_leaves=31
num_cat=0
split_feature=14 1 19 16 0 3 6 1 16 4 16 4 3 16 16 19 4 19 6 4 3 16 19 19 3 3 27 27 2 19
split_gain=321.233 963.87 33057.8 263526 3619.34 53.7597 307.243 0.0734055 0.00439067 4.26038e-11 2.58047e-11 1.01397e-11 2.09271e-12 1.88212e-12 1.02424e-12 7.21228e-13 7.71709e-14 6.70575e-14 2.00302e-13 2.87201e-14 3.48506e-15 2.57433e-15 1.1666e-14 8.88178e-16 9.99201e-16 1.96371e-14 3.33067e-16 2.33147e-15 7.63278e-17 9.02056e-17
threshold=1.0000000180025095e-35 1639.5350000000003 4987.2200000000012 2879.6150000000002 6.5000000000000009 80.76111519607845 21.130000000000006 1173.8700000000001 513.86500000000012 265.94004898214973 6807.670000000001 255.35700583455142 1588.4627272727275 988.92500000000007 3613.3950000000004 2157.3100000000004 30.493920976168848 730.45000000000016 337.79500000000002 154.64417522167125 126.97655655095186 1237.2300000000002 2936.2750000000001 532.30500000000018 227.99823333333336 282.60500000000008 2135.7666666665214 1995.9950000000006 246.94500000000002 671.24500000000012
decision_type=10 2 2 2 2 2 2 2 2 2 2 2 2 2 2 2 2 2 2 2 2 2 2 2 2 2 8 8 2 2
left_child=1 5 3 4 11 6 16 9 -9 17 13 -3 15 -11 -4 -13 -1 18 19 20 -7 -19 -23 24 -2 -26 27 28 -25 -30
right_child=23 2 14 -5 -6 7 -8 8 -10 10 -12 12 -14 -15 -16 -17 -18 21 -20 -21 -22 22 -24 26 25 -27 -28 -29 29 -31
leaf_value=-0.050013460224049344 -0.050013709612819694 -0.050013709088960884 -0.050012384130038147 -783.72040418027905 -99.20843971078726 -0.050013710099256842 -18.295280625168751 -0.11674943232317417 -0.10738893372088476 -0.050005607670394463 -0.050013709306746812 -0.050008659740612027 -0.050011944977783565 -0.050007912960522774 -0.050013710859680073 -0.050010459777295881 -0.050013709740484316 -0.050013708987760488 -0.05001329323733858 -0.050013550703021915 -0.050013658168196112 -0.050013612476929564 -0.05001371070273463 -0.050013702811219023 -0.050013554806790275 -0.05001370954485939 -0.050013710862335796 -0.050013667914423937 -0.050013704096073322 -0.050013710884574125
leaf_weight=0.0044623148337485817 0.046860507078235969 0.0068513186473779727 0.0014626965275965622 0.0012122443440603101 0.0010084871542231999 0.0073990274686366476 0.0027404367516903555 0.2457491678999606 0.25555241403638407 0.0021641175865206711 0.0019182750547770411 0.0011971950173208512 0.001430768403224647 0.0014984382069009321 0.26883131592291365 0.0010398024541586892 0.010139512182752542 0.010413614266912299 0.0050844587566984947 0.0054286562411523459 0.0057375030400805827 0.0046927242232703186 0.0084952932340982557 0.003838812621552389 0.0022175456888362524 0.027129767666338012 0.85609518950063268 0.0035741941528613088 0.0052090032936575872 0.043846093125072816
leaf_count=20 180 72 6 138 101 27 34 14 74 28 7 56 47 24 1000 16 64 41 28 26 24 33 46 16 20 99 3165 15 22 164
internal_value=-0.663628 -1.37365 -3.75982 -82.4688 -8.72487 -0.191861 -2.93314 -0.10607 -0.111978 -0.0500131 -0.050009 -0.0500126 -0.0500105 -0.0500066 -0.0500137 -0.0500095 -0.0500136 -0.0500136 -0.0500136 -0.0500136 -0.0500137 -0.0500137 -0.0500137 -0.0500137 -0.0500137 -0.0500137 -0.0500137 -0.0500137 -0.0500137 -0.0500137
internal_weight=1.84328 0.85451 0.283034 0.0127398 0.0115276 0.571476 0.0173423 0.554134 0.501302 0.0528321 0.00558083 0.0105191 0.00366777 0.00366256 0.270294 0.002237 0.0146018 0.0472513 0.0236496 0.0185652 0.0131365 0.0236016 0.013188 0.988771 0.0762078 0.0293473 0.912563 0.0564681 0.0528939 0.0490551
internal_count=5607 1926 1436 430 292 490 118 372 88 284 59 191 119 52 1006 72 84 225 105 77 51 120 79 3681 299 119 3382 217 202 186
is_linear=0
shrinkage=0.05


Tree=18
num_leaves=31
num_cat=0
split_feature=17 1 19 16 3 3 6 12 1 4 16 0 1 16 16 16 13 19 16 5 3 16 16 19 3 3 0 18 4 18
split_gain=427.254 657.565 33165.2 257828 863.405 64.649 317.023 572.614 0.0496922 5.82058e-11 2.11646e-11 6.15074e-12 4.30341e-12 1.52973e-12 8.83904e-13 4.44673e-13 6.95121e-14 6.07708e-14 2.11633e-13 2.86368e-14 2.96811e-15 2.75127e-15 1.13295e-14 1.9984e-15 1.08247e-15 2.82829e-14 1.11022e-16 2.22045e-16 1.04083e-16 5.89806e-17
threshold=inf 1639.5350000000003 4987.2200000000012 2540.3750000000005 802.76125000000013 84.879047619047626 5.8400000000000007 1.0000000180025095e-35 1420.0250000000003 265.94004898214973 8193.6550000000007 2.5000000000000004 1124.2850000000001 1120.1150000000002 3613.3950000000004 1898.0700000000004 8.5000000000000018 730.45000000000016 533.94500000000016 319.73500000000007 134.99331250000003 1237.2300000000002 2818.0750000000003 695.34500000000014 227.99823333333336 268.54296875000006 722.00000000000011 337.99000000000007 78.53406043304561 198.00000000000003
decision_type=8 2 2 2 2 2 2 2 2 2 2 2 2 2 2 2 2 2 2 2 2 2 2 2 2 2 2 8 2 8
left_child=23 5 3 4 -3 6 16 -8 9 12 13 15 17 -11 -4 -6 -2 18 19 20 -7 -19 -23 24 -1 -26 27 29 -24 -25
right_child=1 2 14 -5 11 8 7 -9 -10 10 -12 -13 -14 -15 -16 -17 -18 21 -20 -21 -22 22 28 26 25 -27 -28 -29 -30 -31
leaf_value=-0.050013042958237525 -0.050013040343596209 -48.567426397017208 -0.050011782189784609 -811.81437341839057 -0.050012055145229842 -0.050013040406766379 -0.050012891802600323 -48.001398519741784 -0.10246500933861147 -0.050005239041054743 -0.050011853650876341 -0.050009208801524596 -0.050011376106496835 -0.050007038719914555 -0.050013045854774001 -0.050013042532624431 -0.05001275151851578 -0.05001304020313263 -0.050012572754363507 -0.050012879670652148 -0.050012990583654743 -0.050012932169675783 -0.0500130426331057 -0.050013042911001851 -0.050012841267107845 -0.050013041429404673 -0.05001304598904241 -0.050013045920657077 -0.050013030357745597 -0.050013035666788358
leaf_weight=0.051353262970224134 0.0091237212121315081 0.00103055773734526 0.0013913763395976267 0.0011086961209421107 0.0014402662675197207 0.0070382650883401895 0.0015451769866179545 0.0010427227388722848 0.2525986576902306 0.0026287683756450299 0.0023385766253340989 0.0014056953875751788 0.0047474073669668956 0.0021436313138977845 0.25572358828375297 0.0054742064967285842 0.0026996008805997189 0.010166541717742171 0.0039655798019566637 0.0052531458876837024 0.0051969101753286395 0.0036803934097241536 0.0052135323348920836 0.0075596169626805931 0.0018533829258302595 0.037016059388406575 0.030499148937987108 0.80236241648856588 0.0026089017748063227 0.0046943477157128655
leaf_count=214 48 118 6 161 59 27 26 25 38 39 10 60 35 31 999 27 23 42 19 36 23 29 26 30 23 142 122 3116 22 19
internal_value=-0.714481 -1.76865 -3.60043 -90.8772 -5.39719 -0.246444 -3.51953 -19.3707 -0.0930888 -0.0500122 -0.050008 -0.0500122 -0.0500128 -0.050006 -0.050013 -0.0500128 -0.050013 -0.050013 -0.0500129 -0.050013 -0.050013 -0.050013 -0.050013 -0.050013 -0.050013 -0.050013 -0.050013 -0.050013 -0.050013 -0.050013
internal_weight=1.5249 0.589566 0.267574 0.0104594 0.00935073 0.321992 0.0144112 0.0025879 0.30758 0.0549817 0.00711098 0.00832017 0.0478707 0.0047724 0.257115 0.00691447 0.0118233 0.0431233 0.0214539 0.0174883 0.0122352 0.0216694 0.0115028 0.935338 0.0902227 0.0388694 0.845116 0.814616 0.00782243 0.012254
internal_count=5595 1929 1430 425 264 499 122 51 377 339 80 146 259 70 1005 86 71 224 105 86 50 119 77 3666 379 165 3287 3165 48 49
is_linear=0
shrinkage=0.05


Tree=19
num_leaves=31
num_cat=0
split_feature=17 3 3 16 1 0 19 1 16 4 6 19 1 5 1 1 16 16 1 6 2 2 12 3 18 18 16 3 3 3
split_gain=73.1717 258.932 416.171 1089.78 1872.16 80.4011 2402.48 17939.9 0.083663 2.03684e-11 1.34849e-11 1.35505e-11 1.07231e-11 2.46296e-12 1.0458e-12 5.0197e-12 5.78482e-13 2.79443e-13 2.72976e-13 1.59282e-13 1.55818e-13 7.51829e-15 2.79984e-15 2.37484e-15 1.33227e-15 3.0774e-15 4.44089e-16 3.33067e-16 3.79557e-15 4.51028e-15
threshold=inf 110.30344082293112 77.004082191780839 5972.4150000000009 196.95500000000001 2.5000000000000004 4987.2200000000012 1639.5350000000003 350.45000000000005 202.25766410811056 68.895000000000024 3510.6700000000005 488.75500000000005 677.54000000000008 1639.5350000000003 1124.2850000000001 1797.1900000000003 4856.6750000000011 1693.7550000000003 346.75500000000005 235.23500000000004 58.360000000000007 1.0000000180025095e-35 53.14522471910113 314.00000000000006 198.00000000000003 639.82000000000005 262.75940602836886 166.02854862151977 174.97030303030306
decision_type=8 2 2 2 2 2 2 2 2 2 2 2 2 2 2 2 2 2 2 2 2 2 2 2 8 10 2 2 2 2
left_child=24 2 21 4 -4 8 7 9 -3 -7 11 12 -10 -11 15 19 -16 -8 -19 20 -12 -2 -21 -23 25 -1 27 28 -26 -30
right_child=1 5 3 -5 -6 6 17 -9 10 13 14 -13 -14 -15 16 -17 -18 18 -20 22 -22 23 -24 -25 26 -27 -28 -29 29 -31
leaf_value=-0.050012405011423046 -0.050012284906338557 -0.10473295973407651 -0.050012405377794091 -0.050012406026055584 -61.81310722924875 -0.0500121657873321 -0.050011740986797074 -204.78851262406849 -0.0500112478244851 -0.050008465609717757 -0.050012405436475338 -0.050012050189631285 -0.050005780435171315 -0.050005217437740473 -0.050011260246582062 -0.050010318600591457 -0.050012405977504441 -0.050011755323567192 -0.050012405992753931 -0.050012361622875534 -0.050011906064686265 -0.050012405759129054 -0.05001240430943063 -0.050012351776064203 -0.050012405662404183 -0.050012367840499145 -0.050012406008383498 -0.050012405573455467 -0.050012406026092596 -0.050012310840759057
leaf_weight=0.020085260970518104 0.0017177550791991842 0.25812992898766751 0.0024796740624655226 0.0071910191909410059 0.0024286347683954565 0.0062952548103437601 0.0016229475149884811 0.0012210695830390259 0.0014823790314339794 0.0010800908588983792 0.0024796623329166314 0.0043071783584431797 0.0022702860116048384 0.001269623148751009 0.0011220626503458944 0.0037633760962307852 0.060751717042876408 0.0016267244063783428 0.17704785796306677 0.0076789708546076696 0.0042214651277987514 0.011158483547385837 0.0076869595213793218 0.0024909392361363693 0.028020178520819172 0.0077100654258828163 0.79944316205886956 0.032235606340691447 0.0024796617799438527 0.0024985156229320182
leaf_count=82 21 67 12 29 29 36 7 271 13 22 12 27 37 32 38 31 310 8 726 37 28 75 32 38 117 39 3269 130 11 29
internal_value=-0.332885 -0.77461 -5.51121 -12.4474 -30.6104 -0.535485 -1.36467 -25.3895 -0.0899254 -0.0500107 -0.0500121 -0.0500101 -0.0500079 -0.0500067 -0.0500123 -0.050012 -0.0500124 -0.0500124 -0.0500124 -0.0500123 -0.0500121 -0.0500124 -0.0500124 -0.0500124 -0.0500124 -0.0500124 -0.0500124 -0.0500124 -0.0500124 -0.0500124
internal_weight=1.464 0.571524 0.0274665 0.0120993 0.00490831 0.544058 0.190164 0.00986604 0.353894 0.00864497 0.0957641 0.00805984 0.00375267 0.00234971 0.0877042 0.0258304 0.0618738 0.180298 0.178675 0.0220671 0.00670113 0.0153672 0.0153659 0.0136494 0.892472 0.0277953 0.864677 0.065234 0.0329984 0.00497818
internal_count=5615 1938 204 70 41 1734 1102 361 632 90 565 77 50 54 488 140 348 741 734 109 40 134 69 113 3677 121 3556 287 157 40
is_linear=0
shrinkage=0.05


Tree=20
num_leaves=31
num_cat=0
split_feature=17 0 19 2 13 19 6 16 2 4 16 2 19 2 16 16 6 19 6 6 2 16 16 18 18 6 16 16 2 5
split_gain=1.07404e+07 4.62845e+07 1.60108e+09 7.77931e+09 44.7476 412.444 489.764 0.0736472 7.01407e-12 2.70439e-11 1.31412e-11 4.50952e-12 7.50315e-13 3.54342e-13 1.6584e-13 1.27245e-13 6.95311e-13 9.49588e-14 1.12065e-13 8.48835e-14 3.71647e-14 1.89779e-15 5.44356e-15 1.22125e-15 2.5431e-15 1.10155e-15 7.77156e-16 9.71445e-17 1.31839e-16 3.60822e-16
threshold=inf 4.5000000000000009 4987.2200000000012 1175.8650000000002 6.5000000000000009 5112.9400000000014 36.455000000000005 350.45000000000005 1794.2800000000002 265.94004898214973 6807.670000000001 1175.8650000000002 1116.1950000000002 1637.1350000000004 5748.0400000000009 5411.1850000000004 462.29500000000002 770.31500000000017 346.75500000000005 1.2250000000000003 2054.9900000000002 1237.2300000000002 2958.3200000000006 314.00000000000006 198.00000000000003 8.1400000000000023 740.55500000000018 211.47000000000003 502.57500000000005 234.30000000000004
decision_type=8 2 2 2 2 2 2 2 2 2 2 2 2 2 2 2 2 2 2 2 2 2 2 8 10 2 2 2 2 2
left_child=23 4 3 19 7 6 -6 -2 9 11 12 17 -11 -7 -4 16 -10 18 -9 -3 -16 -19 -23 24 -1 -26 27 -25 29 -29
right_child=1 2 14 -5 5 13 -8 8 15 10 -12 -13 -14 -15 20 -17 -18 21 -20 -21 -22 22 -24 26 25 -27 -28 28 -30 -31
leaf_value=-0.05001180016943936 -0.098393133700597254 -0.050011361060480625 -0.050011365870893269 151764.69986946922 -0.050009989765107232 -0.050011232085820034 -47.587783406194639 -0.05001141677276616 -0.050010510278956234 -0.050004823330009975 -0.050011035462137303 -0.050009859822186913 -0.050006344679489445 -0.050011801715434012 -0.050011617095782848 -0.050011801792923929 -0.050011798354678588 -0.05001179921514029 -0.050011759551732073 -0.050011789273791935 -0.050011801893672318 -0.050011722644810845 -0.050011800074019321 -0.050011799406080248 -0.050011790707735183 -0.050011751304979903 -0.050011801873688026 -0.050011799478560041 -0.050011797645677973 -0.050011784242555181
leaf_weight=0.019577667539124155 0.2639390360187619 0.0019565753618685081 0.002251437006539291 0.0010251062922930765 0.0011174406525418811 0.0033328450717403394 0.0010517951562221341 0.0048393537586104533 0.0012539790453933745 0.0014637787818294603 0.0017458929651184008 0.003738766883998333 0.001815802207715933 0.01509603405429516 0.0027738224453059948 0.06863977228931617 0.0063688925552227819 0.0082558013590406931 0.0047004106626289399 0.0028329467462843015 0.14058180556514044 0.0040364443415228587 0.0051892667397623882 0.026182182584307379 0.002832471079500464 0.0047375320194902315 0.75291492930147808 0.0077838921133661643 0.029724242209795193 0.007793976451964113
leaf_count=85 142 22 13 225 24 19 19 32 79 28 8 35 36 65 13 296 121 41 21 33 603 30 32 113 13 27 3233 34 138 40
internal_value=111.066 283.728 1027.38 26755.7 -0.208287 -2.47742 -23.0996 -0.0839749 -0.0500115 -0.0500109 -0.0500075 -0.0500115 -0.0500057 -0.0500117 -0.0500118 -0.0500118 -0.0500116 -0.0500117 -0.0500116 -0.0500116 -0.0500118 -0.0500118 -0.0500118 -0.0500118 -0.0500118 -0.0500118 -0.0500118 -0.0500118 -0.0500118 -0.0500118
internal_weight=1.39955 0.548007 0.151422 0.00581463 0.396585 0.0205981 0.00216924 0.375987 0.112048 0.0357855 0.00502547 0.03076 0.00327958 0.0184289 0.145607 0.0762626 0.00762287 0.0270213 0.00953976 0.00478952 0.143356 0.0174815 0.00922571 0.851547 0.0271477 0.00757 0.824399 0.0714843 0.0453021 0.0155779
internal_count=5620 1937 909 280 1028 127 43 901 759 263 72 191 64 84 629 496 200 156 53 55 616 103 62 3683 125 40 3558 325 212 74
is_linear=0
shrinkage=0.05


Tree=21
num_leaves=31
num_cat=0
split_feature=0 19 14 2 3 16 16 3 19 14 4 16 16 2 14 1 3 3 16 1 19 5 19 14 14 1 3 4 4 21
split_gain=37952.9 318276 8.09971e+06 2.92571e+07 30.8804 223.079 1360.64 0.139865 0.00266743 9.57498e-12 3.04236e-11 1.47087e-12 1.20966e-12 9.52904e-13 2.59485e-12 7.40229e-12 2.83603e-13 2.39749e-13 9.4813e-14 7.92443e-14 6.19262e-14 3.86358e-14 1.77636e-14 1.67685e-13 2.47523e-13 1.19887e-14 1.11577e-14 4.28477e-15 3.44343e-15 2.01228e-15
threshold=4.5000000000000009 4987.2200000000012 352.00000000000006 897.73000000000013 428.40083333333342 4529.5200000000013 6397.2600000000011 607.72267543859664 426.43500000000006 1.0000000180025095e-35 207.69585667053079 1120.1150000000002 350.45000000000005 1637.1350000000004 1.0000000180025095e-35 1173.8700000000001 110.30344082293112 262.75940602836886 3740.8200000000006 275.35000000000008 10825.51 302.38000000000005 1830.4700000000003 8.5000000000000018 8.5000000000000018 214.34500000000006 802.76125000000013 17.272895469524155 141.62231641364403 273.22500000000008
decision_type=2 2 8 2 2 2 2 2 2 10 2 2 2 2 10 2 2 2 2 2 2 2 2 8 10 2 2 2 2 8
left_child=4 2 29 19 5 9 -7 8 -6 10 12 -12 16 14 15 -9 27 28 -3 -4 -8 -20 23 -15 -25 -18 -24 -1 -14 -2
right_child=1 18 3 -5 7 6 20 13 -10 -11 11 -13 17 22 -16 -17 25 -19 21 -21 -22 -23 26 24 -26 -27 -28 -29 -30 -31
leaf_value=-0.050010589588292409 -0.05001118493816558 -0.05001095542899623 -0.05001122357326826 -9160.2796616036794 -0.095930933830392848 -40.566727541534362 -0.050010978583486812 -0.050011214127324836 -0.088823437454858795 -0.050011221955369514 -0.050004244020169009 -0.050006513074279405 -0.050011220243680057 -0.050011225330115996 -0.050011225911726548 -0.05000841289288685 -0.050010085477459769 -0.050010652588042485 -0.050011015843191065 -0.050010765842853536 -0.050011225097497385 -0.050011226450485884 -0.050011157427015743 -0.050010190346979302 -0.050011224333851759 -0.050010213846307827 -0.050011226364127019 -0.050010693574174751 -0.050011147886061286 -0.05001122536824041
leaf_weight=0.0014809449956397812 0.0031526857221706997 0.0032635261282473174 0.0022437433780340106 0.001124425957981979 0.25168586902124446 0.0024681170907570058 0.0034913196868728855 0.0071860944384045666 0.27761477747640129 0.06710722324534979 0.0016026640375925282 0.0012883375037628349 0.0062845034331156374 0.019969307395513149 0.024905540791223757 0.0035103855943816598 0.0034261392574990168 0.0025982689183816641 0.0021898196428082875 0.0016342758383259613 0.0094237254816107452 0.53603009763132903 0.0060115486412541932 0.0010153150937348898 0.0013462454808177426 0.0038767462432716115 0.24838228663429618 0.0029929639782027553 0.0022274526272667572 0.10254464417978992
leaf_count=23 16 16 14 222 19 18 17 39 158 322 41 32 58 89 111 39 17 18 10 31 45 2420 34 98 6 23 1207 26 10 489
internal_value=-6.55552 -15.8431 -93.0945 -2059.04 -0.178796 -0.973641 -6.55063 -0.0765457 -0.0922031 -0.0500109 -0.0500101 -0.0500053 -0.0500107 -0.0500112 -0.0500109 -0.0500103 -0.0500103 -0.0500111 -0.0500112 -0.050011 -0.0500112 -0.0500112 -0.0500112 -0.0500112 -0.0500108 -0.0500102 -0.0500112 -0.0500107 -0.0500112 -0.0500112
internal_weight=1.60208 0.652183 0.1107 0.00500245 0.949896 0.108268 0.0153832 0.841627 0.529301 0.0928852 0.025778 0.002891 0.022887 0.312327 0.035602 0.0106965 0.0117768 0.0111102 0.541483 0.00387802 0.012915 0.53822 0.276725 0.0223309 0.00236156 0.00730289 0.254394 0.00447391 0.00851196 0.105697
internal_count=5668 3218 772 267 2450 650 80 1800 177 570 248 73 175 1623 189 78 89 86 2446 45 62 2430 1434 193 104 40 1241 49 68 505
is_linear=0
shrinkage=0.05


Tree=22
num_leaves=31
num_cat=0
split_feature=0 19 14 2 5 16 16 5 19 1 14 6 16 14 4 5 16 6 6 5 6 6 16 6 16 23 14 26 5 4
split_gain=42984.9 364149 1.41563e+07 2.76525e+07 31.7882 298.819 1250.2 0.115712 0.00135877 4.15495e-12 9.9647e-12 1.05087e-11 3.3639e-12 3.30146e-12 7.1857e-12 3.20936e-12 9.82239e-13 3.03165e-13 2.91364e-13 1.82576e-13 2.61208e-13 1.39626e-13 8.13793e-14 7.7393e-14 4.23273e-14 1.60996e-13 2.01951e-13 3.84293e-14 3.69704e-14 3.30604e-14
threshold=4.5000000000000009 4987.2200000000012 352.00000000000006 651.17500000000007 632.63000000000011 4529.5200000000013 8568.8650000000016 874.2650000000001 426.43500000000006 1590.9950000000001 1.0000000180025095e-35 210.24000000000004 2818.0750000000003 40.500000000000007 196.79640758532631 471.93000000000006 350.45000000000005 337.79500000000002 433.00000000000006 1533.5250000000003 -1.0000000180025095e-35 20.010000000000002 3613.3950000000004 346.75500000000005 1797.1900000000003 1.0000000180025095e-35 2.5000000000000004 0.33651215806154516 302.38000000000005 532.43489273346756
decision_type=2 2 8 2 2 2 2 2 2 2 10 2 2 8 2 2 2 2 2 2 2 2 2 2 2 8 8 8 2 2
left_child=4 2 -2 -4 5 13 -7 8 -6 10 11 12 -9 18 16 -16 21 -18 -1 20 -11 -15 -3 27 25 -21 -27 -22 -24 -12
right_child=1 22 3 -5 7 6 -8 9 -10 19 29 -13 -14 14 15 -17 17 -19 -20 24 23 -23 28 -25 -26 26 -28 -29 -30 -31
leaf_value=-0.050010662889257256 -0.050010675244967398 -0.050010419422365164 -0.050010413623865158 -10010.895192971035 -0.09195166520586559 -39.72317569378972 -0.050010640737576745 -0.050004415557098281 -0.086810177851636985 -0.050009832407031996 -0.05001066999981453 -0.050009826022921845 -0.050007967762407124 -0.050010064714242013 -0.050009132665327444 -0.050005224165761676 -0.050010634013314292 -0.050010162622415692 -0.050010296576728008 -0.050010666638736823 -0.050010293198048908 -0.050009694211089542 -0.050010453884603658 -0.050010676899049367 -0.050010676610535765 -0.050010562893963634 -0.05000975853307929 -0.050010523811720137 -0.05001067698929923 -0.050010537606583486
leaf_weight=0.059935010606047376 0.098836014179292372 0.0031043944181874386 0.0019969433884325892 0.001053857072774683 0.24886225576978305 0.002520595458918252 0.0093585987924598157 0.0015062339151354909 0.26569467501487765 0.0013316996773937708 0.011944163125008345 0.0052425869823604643 0.0011954367582802661 0.00422328377266812 0.0010450158264260273 0.0010559058951108008 0.0097974813077552833 0.0052323987033489052 0.0059688341425498939 0.016204714163904992 0.0024689571291673937 0.0063909048509120658 0.0018696090513333754 0.0076836119988001874 0.22921962995314971 0.0023219513095682465 0.0011753340543388022 0.006732325705911534 0.50455719382314879 0.0077914619614602989
leaf_count=300 499 15 28 241 11 25 46 27 121 8 56 37 14 27 24 21 77 32 29 76 12 65 10 48 1173 11 84 51 2392 38
internal_value=-7.04082 -17.305 -103.596 -3458.16 -0.181407 -0.997626 -8.46809 -0.0749867 -0.0892968 -0.0500106 -0.05001 -0.0500085 -0.050006 -0.0500104 -0.05001 -0.0500072 -0.0500102 -0.0500105 -0.0500106 -0.0500107 -0.0500105 -0.0500098 -0.0500107 -0.0500106 -0.0500107 -0.0500106 -0.0500103 -0.0500105 -0.0500107 -0.0500106
internal_weight=1.52632 0.611418 0.101887 0.0030508 0.914903 0.105528 0.0118792 0.809375 0.514557 0.294818 0.0276799 0.00794426 0.00270167 0.0936488 0.027745 0.00210092 0.0256441 0.0150299 0.0659038 0.267138 0.0182166 0.0106142 0.509531 0.0168849 0.248922 0.019702 0.00349729 0.00920128 0.506427 0.0197356
internal_count=5598 3185 768 269 2413 646 71 1767 132 1635 172 78 41 575 246 45 201 109 329 1463 119 92 2417 111 1344 171 95 63 2402 94
is_linear=0
shrinkage=0.05


Tree=23
num_leaves=31
num_cat=0
split_feature=0 16 14 5 3 5 5 2 2 3 17 16 14 4 16 2 14 1 3 6 14 16 16 5 3 6 5 6 4 3
split_gain=50898.8 399412 1.68212e+07 2.6078e+07 37.6719 269.13 0.0747932 0.0392501 0.000449238 3.30613e-12 9.12934e-12 5.03864e-12 2.703e-12 1.02071e-11 9.66997e-13 6.89948e-13 1.58185e-12 3.5227e-12 6.10276e-13 3.00454e-13 1.11536e-13 1.22499e-13 1.11449e-13 9.53473e-14 9.52381e-14 3.82749e-14 3.60822e-14 2.69715e-14 9.1923e-15 9.15934e-15
threshold=4.5000000000000009 4997.5000000000009 352.00000000000006 143.54500000000004 80.76111519607845 125.41500000000001 874.2650000000001 1175.8650000000002 1232.2350000000004 626.53273823740165 47091.195000000007 3140.9100000000003 1.0000000180025095e-35 265.94004898214973 350.45000000000005 1637.1350000000004 1.0000000180025095e-35 1173.8700000000001 428.40083333333342 337.79500000000002 1.0000000180025095e-35 405.79500000000002 701.35000000000002 575.49000000000012 449.1541666666667 484.07000000000005 302.38000000000005 124.93000000000002 136.83941685298649 752.79196969696989
decision_type=2 2 8 2 2 2 2 2 2 2 8 2 10 2 2 2 10 2 2 2 10 2 2 2 2 2 2 2 2 2
left_child=4 2 -2 -4 5 20 7 12 -9 10 24 -12 13 14 27 16 17 -11 23 28 21 -1 -21 -14 -8 -20 -3 -6 -16 -17
right_child=1 26 3 -5 6 -7 9 8 -10 15 11 -13 18 -15 19 29 -18 -19 25 22 -22 -23 -24 -25 -26 -27 -28 -29 -30 -31
leaf_value=-0.050009622024151934 -0.050010155315329964 -0.050009916691510163 -0.050009876569383195 -9815.2746744134784 -0.05000933577168562 -15.487503926346836 -0.050010069514355375 -0.08834712138141726 -0.085339293816025896 -0.050010147401422095 -0.050004221381643614 -0.050008980074158854 -0.050010149387513261 -0.050006140451085992 -0.050010143431883536 -0.050010082292933723 -0.050010155765748313 -0.050007679048260784 -0.050009602835131131 -0.050009441880831555 -0.050010154242833393 -0.050010154541816842 -0.050009822049831933 -0.050009885171929891 -0.050009782027494877 -0.050009793687459475 -0.050010156331389548 -0.050009154710688869 -0.050010040515761314 -0.050010153315733899
leaf_weight=0.0023072484271428788 0.098068536481190571 0.0015754182386444873 0.00169652045910605 0.0011258020450111853 0.0050346868408154763 0.0032388676974539612 0.0046295964566524656 0.24586370633915067 0.25074294376659623 0.0036572315792060541 0.0012050725119179687 0.0010331693410989828 0.037781859477240776 0.0021771957518972309 0.0058949187086909669 0.0046274813939817241 0.012587639692355879 0.0023900697456156195 0.003454832185525448 0.0028633165616476219 0.017663301070570014 0.002030266477959267 0.0059002914731536293 0.0037538430333370334 0.0076266429823590443 0.01096368909929879 0.47426978467654024 0.003476992478574914 0.0034337577469269525 0.2423378214159202
leaf_count=36 517 8 19 261 32 26 23 4 54 21 35 10 218 38 46 34 62 29 19 18 89 28 36 22 39 59 2367 28 31 1375
internal_value=-7.64752 -19.2096 -109.574 -3915.27 -0.127022 -2.03102 -0.0712353 -0.0814618 -0.0868284 -0.0500101 -0.0500094 -0.0500064 -0.0500098 -0.0500094 -0.0500097 -0.0500101 -0.0500098 -0.0500092 -0.05001 -0.0500099 -0.0500101 -0.0500099 -0.0500097 -0.0500101 -0.0500099 -0.0500097 -0.0500102 -0.0500093 -0.0500101 -0.0500102
internal_weight=1.46341 0.576736 0.100891 0.00282232 0.886676 0.0252397 0.861437 0.581342 0.496607 0.280095 0.0144945 0.00223824 0.0847354 0.0287812 0.026604 0.2656 0.0186349 0.0060473 0.0559542 0.0180923 0.0220008 0.00433751 0.00876361 0.0415357 0.0122562 0.0144185 0.475845 0.00851168 0.00932868 0.246965
internal_count=5584 3172 797 280 2412 179 2233 605 58 1628 107 45 547 229 191 1521 112 50 318 131 153 64 54 240 62 78 2375 60 77 1409
is_linear=0
shrinkage=0.05


Tree=24
num_leaves=31
num_cat=0
split_feature=0 19 20 2 3 5 23 13 5 6 5 2 2 3 23 4 20 14 16 1 2 14 1 3 5 1 20 14 16 5
split_gain=53419.9 452241 2.17286e+07 2.49469e+07 41.49 356.997 481.164 20.8671 120.391 332.279 0.0579214 0.0281842 0.000306491 3.87407e-12 1.23379e-11 2.97093e-12 5.54711e-12 6.47177e-13 6.68628e-13 6.43444e-13 4.47614e-13 1.12235e-12 1.81369e-12 4.00978e-13 2.50227e-13 1.50102e-13 8.05493e-14 7.66158e-14 1.00679e-13 6.83412e-14
threshold=4.5000000000000009 4987.2200000000012 76336.435000000012 274.52500000000003 80.76111519607845 99.500000000000014 -993.28999999999985 6.5000000000000009 632.63000000000011 157.58000000000001 874.2650000000001 1175.8650000000002 1232.2350000000004 626.53273823740165 -11869.484999999999 295.23680550427861 11517.505000000003 1.0000000180025095e-35 350.45000000000005 1590.9950000000001 1637.1350000000004 1.0000000180025095e-35 1124.2850000000001 428.40083333333342 319.73500000000007 488.75500000000005 4748.2500000000009 64.500000000000014 405.79500000000002 1300.3800000000003
decision_type=2 2 8 2 2 2 10 2 2 2 2 2 2 2 10 2 8 10 2 2 2 10 2 2 2 2 8 8 2 2
left_child=4 2 -2 -4 5 27 -7 10 9 26 11 15 -13 14 -12 17 -17 18 -6 -10 21 22 -15 -19 -20 -26 -9 -1 -29 -21
right_child=1 -3 3 -5 7 6 -8 8 19 -11 13 12 -14 20 -16 16 -18 23 24 29 -22 -23 -24 -25 25 -27 -28 28 -30 -31
leaf_value=-0.05000965984781866 -0.050009658222005683 -0.050009659017094726 -0.050009659747613802 -10682.525416423974 -0.050008812139521346 -44.242769528703263 -0.050009659752489159 -0.050009659754814952 -0.050008968111237707 -23.825645215522123 -0.05000483837471862 -0.085106544314783622 -0.082601249515816266 -0.050009651460512519 -0.050009411821966138 -0.050009360404688841 -0.050006297111762604 -0.050009651550060021 -0.050009633478055274 -0.050009391602522706 -0.050009655333550285 -0.0500096598144174 -0.050007822897519455 -0.05000929950990305 -0.050008929385389402 -0.050009353578450988 -0.050009251014465822 -0.050009142321689126 -0.050009660120167831 -0.050009657521572583
leaf_weight=0.015643254053429478 0.088080410556686625 0.45978803228976217 0.001158760463984547 0.0010344044408063446 0.0070414335097374594 0.001131407042631173 0.0013518864667290686 0.0027037722902605804 0.0040497974423554369 0.0021029931958764791 0.0017625099851557033 0.24254638237471227 0.24579013185930254 0.0028994991539548201 0.0090296403795946389 0.0043010244775700803 0.0022514595463398734 0.028207406982545535 0.0065574731484048234 0.0026267225621268145 0.20691957901528824 0.012166975575382821 0.0025475347978272112 0.011340529628796503 0.0028356505582642919 0.0078829686915171115 0.0021748549248414486 0.0018267247673175958 0.0019312681979500104 0.030120400726445951
leaf_count=81 491 2416 10 269 52 25 19 18 33 18 39 3 47 17 48 26 30 172 42 15 1260 63 28 65 22 55 25 32 27 162
internal_value=-7.97063 -20.1387 -122.456 -5038.43 -0.185542 -2.33473 -20.1846 -0.129406 -1.19212 -7.21167 -0.0708177 -0.0795813 -0.0838456 -0.0500096 -0.0500087 -0.0500093 -0.0500083 -0.0500094 -0.0500092 -0.0500096 -0.0500096 -0.0500094 -0.0500088 -0.0500096 -0.0500094 -0.0500092 -0.0500095 -0.0500096 -0.0500094 -0.0500096
internal_weight=1.4098 0.550062 0.0902736 0.00219316 0.859743 0.0218845 0.00248329 0.837859 0.0437785 0.00698162 0.79408 0.558754 0.488337 0.235326 0.0107922 0.0704179 0.00655248 0.0638655 0.0243175 0.0367969 0.224534 0.017614 0.00544703 0.0395479 0.0172761 0.0107186 0.00487863 0.0194012 0.00375799 0.0327471
internal_count=5610 3186 770 279 2424 184 44 2240 271 61 1969 514 50 1455 87 464 56 408 171 210 1368 108 45 237 119 77 43 140 59 177
is_linear=0
shrinkage=0.05


Tree=25
num_leaves=31
num_cat=0
split_feature=0 19 14 3 16 13 3 22 3 1 0 14 4 16 2 14 1 16 3 1 6 3 14 6 3 4 3 16 4 6
split_gain=52632.5 454690 2.19095e+07 46.8408 367.613 23.0026 152.97 525.593 0.0468879 0.0220771 0.000343615 3.33407e-12 1.07354e-11 3.45519e-12 9.90819e-13 9.63014e-13 3.03855e-12 6.32557e-13 4.13267e-13 2.88047e-13 2.20567e-13 1.40967e-13 8.3919e-14 8.1395e-14 8.07965e-14 6.7518e-14 6.21378e-14 4.69993e-14 2.85397e-14 1.75979e-14
threshold=4.5000000000000009 4987.2200000000012 109.50000000000001 80.76111519607845 4635.8550000000005 6.5000000000000009 428.40083333333342 -2.4999999999999996 607.72267543859664 1173.8700000000001 2.5000000000000004 1.0000000180025095e-35 265.94004898214973 1120.1150000000002 1637.1350000000004 8.5000000000000018 1173.8700000000001 350.45000000000005 428.40083333333342 1463.4950000000001 323.29500000000002 875.1527360139861 1.0000000180025095e-35 650.56000000000006 802.76125000000013 676.27239893647197 739.90000000000009 301.29500000000002 265.94004898214973 124.93000000000002
decision_type=2 2 8 2 2 2 2 10 2 2 2 10 2 2 2 8 2 2 2 2 2 2 10 2 2 2 2 2 2 2
left_child=3 2 -2 4 22 8 7 -7 9 11 -11 12 17 -14 15 21 -17 29 28 -8 -19 23 27 -10 25 -16 -21 -1 -13 -5
right_child=1 -3 -4 5 -6 6 19 -9 14 10 -12 18 13 -15 24 16 -18 20 -20 26 -22 -23 -24 -25 -26 -27 -28 -29 -30 -31
leaf_value=-0.050008681376355883 -0.050009187306167852 -0.050009187847158049 -5270.2288707107964 -0.05000844121103995 -20.98607562776732 -35.226134979045085 -0.050008632450759517 -0.050009132254165534 -0.05000908894758789 -0.082204365930114667 -0.079539947724002094 -0.050009184591758897 -0.050003648887586453 -0.050007230208645927 -0.050008819202685052 -0.050009039669504124 -0.050006897111400245 -0.050009134064707375 -0.05000879036765972 -0.050008944207605412 -0.05000869619048634 -0.050009188784158103 -0.050009188941838457 -0.050008779060641245 -0.05000918506609478 -0.050009188874118475 -0.050009188571694452 -0.050009119694659869 -0.050009065854519578 -0.050008284936538722
leaf_weight=0.0013875768657218403 0.081763109541713133 0.4388375829896578 0.0020208042800502887 0.004214795408188309 0.0023882232197304743 0.0014214185800953596 0.0027430074114988467 0.0041987767618115327 0.003631035186117515 0.23883231305808295 0.24527833162743029 0.028119978073810614 0.0013984177018322433 0.0012991585434747321 0.002809087047353386 0.005429947274096846 0.0023801340405498195 0.0073409451620493615 0.0094879816315369681 0.0028590660804184145 0.0047284112481733587 0.0091854688944295049 0.014696751422475909 0.0050886597018688917 0.19299130762205596 0.0022045131190679967 0.028842372514191084 0.0010935843165498556 0.0061704955872627911 0.0031461183540670845
leaf_count=36 484 2426 274 29 25 32 23 34 20 6 87 173 26 16 28 37 33 63 58 19 32 50 88 29 1225 17 164 29 44 25
internal_value=-7.98881 -20.428 -127.163 -0.187922 -2.60544 -0.129798 -1.29799 -8.9465 -0.0693083 -0.0771583 -0.0808544 -0.0500088 -0.0500083 -0.0500054 -0.0500091 -0.0500089 -0.0500084 -0.0500087 -0.0500091 -0.0500091 -0.050009 -0.0500091 -0.0500091 -0.0500089 -0.0500092 -0.050009 -0.0500092 -0.0500089 -0.0500092 -0.0500084
internal_weight=1.35599 0.522621 0.0837839 0.833368 0.0195661 0.813802 0.0400646 0.0056202 0.773737 0.550017 0.484111 0.0659063 0.0221278 0.00269758 0.22372 0.0257152 0.00781008 0.0194303 0.0437785 0.0344444 0.0120694 0.0179052 0.0171779 0.00871969 0.198005 0.0050136 0.0317014 0.00248116 0.0342905 0.00736091
internal_count=5632 3184 758 2448 178 2270 272 66 1998 559 93 466 191 42 1439 169 70 149 275 206 95 99 153 49 1270 45 183 65 217 54
is_linear=0
shrinkage=0.05


Tree=26
num_leaves=31
num_cat=0
split_feature=0 19 20 19 3 16 13 13 1 5 16 2 1 3 17 6 4 20 14 16 1 14 1 3 6 5 22 1 14 16
split_gain=57706 497436 2.53707e+07 2071.26 55.0411 512.946 17.6697 102.8 462.295 0.0387844 0.0349522 0.0189436 0.000158956 3.84337e-12 5.90558e-12 2.25342e-12 2.18989e-12 5.72344e-12 5.04666e-13 5.52038e-13 3.39395e-13 8.98406e-13 1.18186e-12 3.09794e-13 1.69481e-13 1.40447e-13 1.61141e-13 8.98257e-14 7.78891e-14 4.41496e-14
threshold=4.5000000000000009 4853.8950000000013 102.72500000000001 4987.2200000000012 80.76111519607845 2172.3400000000006 6.5000000000000009 7.5000000000000009 3063.5550000000003 874.2650000000001 566.15500000000009 1175.8650000000002 1219.6400000000001 626.53273823740165 5883.1450000000004 23.315000000000005 265.94004898214973 17027.975000000002 1.0000000180025095e-35 350.45000000000005 1639.5350000000003 1.0000000180025095e-35 1124.2850000000001 428.40083333333342 323.29500000000002 1300.3800000000003 -6.4999999999999991 1639.5350000000003 22.500000000000004 701.35000000000002
decision_type=2 2 10 2 2 2 2 2 2 2 2 2 2 2 8 2 2 8 10 2 2 10 2 2 2 2 10 2 8 2
left_child=4 2 -2 -3 5 28 9 8 -8 11 -9 16 -13 14 27 -16 18 -18 19 -6 21 22 -15 -20 -21 26 -12 -11 -1 -26
right_child=1 3 -4 -5 6 -7 7 10 -10 13 25 12 -14 20 15 -17 17 -19 23 24 -22 -23 -24 -25 29 -27 -28 -29 -30 -31
leaf_value=-0.050008739579704024 -6094.4249145128642 -52.071994449444958 -0.050008741577170203 -0.050008742835758971 -0.050007950052817163 -28.662091038560444 -29.279920731674949 0.050000408794688748 -0.050008743236308967 -0.050008538337506396 -0.050008006833606025 -0.079700504119584681 -0.077860058220991346 -0.050008731071169321 -0.050003755630799264 -0.050006931106877851 -0.050008495553587287 -0.050005343284923245 -0.050008735069727889 -0.050008686274960315 -0.050008738246270105 -0.050008742517582021 -0.050007139419077008 -0.050008412170387428 -0.050008194598563607 -0.050008740492072629 -0.050008603304733883 -0.050008196582534664 -0.05000841684167974 -0.050008442098395403
leaf_weight=0.012931596874966101 0.0017475131026002946 0.0019222641858505076 0.074980133755737199 0.41376908774055726 0.0063538365855845816 0.0017475134971977084 0.0017105764709578614 0.012758009135723104 0.0064657989132683724 0.0039256065792869776 0.0014257792790965465 0.23396521710674278 0.23531665987241457 0.0022741348852548518 0.0010428008754388429 0.0012034118080919143 0.0051005828121972732 0.0020063907120224656 0.026916998038970519 0.0069847677788425488 0.18668983216292334 0.011009331894456409 0.0023941314852891082 0.010259307600790635 0.0029754974595075367 0.02078875458391849 0.0055012173231778093 0.0037683870177716017 0.0021854216922134037 0.0045681322180826101
leaf_count=83 283 13 469 2400 54 36 19 4 38 23 40 3 44 15 26 19 39 33 174 64 1258 63 30 64 21 124 45 23 63 31
internal_value=-8.37554 -21.881 -138.853 -0.290572 -0.188171 -3.01481 -0.128239 -1.05153 -6.16519 -0.0680879 -0.0184841 -0.0752698 -0.0787776 -0.0500087 -0.0500077 -0.0500055 -0.0500084 -0.0500076 -0.0500085 -0.0500083 -0.0500087 -0.0500085 -0.0500079 -0.0500086 -0.0500085 -0.0500087 -0.0500085 -0.0500084 -0.0500087 -0.0500083
internal_weight=1.30469 0.492419 0.0767276 0.415691 0.81227 0.0168645 0.795405 0.0486501 0.00817638 0.746755 0.0404738 0.534447 0.469282 0.212308 0.00994021 0.00224621 0.0651655 0.00710697 0.0580585 0.0208822 0.202367 0.0156776 0.00466827 0.0371763 0.0145284 0.0277158 0.006927 0.00769399 0.015117 0.00754363
internal_count=5601 3165 752 2413 2436 182 2254 270 57 1984 213 527 47 1457 91 45 480 72 408 170 1366 108 45 238 116 209 85 46 146 52
is_linear=0
shrinkage=0.05


Tree=27
num_leaves=31
num_cat=0
split_feature=3 17 2 16 1 19 17 16 1 3 13 14 19 4 5 1 16 3 2 3 3 5 3 1 5 5 3 5 3 13
split_gain=34864 178143 283153 9.77136e+06 7295.87 117283 5.50956e+06 434.231 56.5076 487.602 0.0278332 0.0111691 0.000450603 9.22446e-12 7.48665e-13 7.32312e-13 4.95217e-13 3.05971e-13 9.84247e-14 8.81153e-14 5.13548e-14 3.46268e-14 2.19547e-14 9.26412e-14 9.64628e-14 1.20633e-14 9.40394e-15 7.67442e-15 7.13665e-15 6.76369e-15
threshold=437.36287981859419 2901931.3900000006 1175.8650000000002 6397.2600000000011 3151.2250000000004 4987.2200000000012 327549.96000000002 4635.8550000000005 2453.7800000000007 507.32166666666677 11.500000000000002 1.0000000180025095e-35 403.76500000000004 207.69585667053079 848.08500000000015 1173.8700000000001 350.45000000000005 607.72267543859664 2330.4150000000004 110.30344082293112 268.54296875000006 1134.47 306.02575581395359 1801.0000000000002 609.7700000000001 975.09500000000014 543.79000000000008 1011.9450000000001 494.71940476190485 5.5000000000000009
decision_type=2 8 2 2 2 2 8 2 2 2 2 10 2 2 2 2 2 2 2 2 2 2 2 2 2 2 2 2 2 2
left_child=1 22 7 -4 8 6 27 10 11 -10 13 12 -2 16 15 26 19 28 -5 -3 -18 -11 -1 24 -24 -19 -13 -6 -16 -23
right_child=4 2 3 18 5 -7 -8 -9 9 21 -12 14 -14 -15 17 -17 20 25 -20 -21 -22 29 23 -25 -26 -27 -28 -29 -30 -31
leaf_value=-0.050008312023822346 -0.077442325940868459 -0.050007885531338427 -4514.3380849404493 -0.050007883476959392 -0.050008184505511505 -0.050008316334879357 -3357.9167857996504 -23.316713000773159 -27.394386497410057 -0.050008040663360037 0.050000391383000692 -0.050007920221571446 -0.074351775066846842 -0.050003586095197221 -0.050007970397505236 -0.050007090131364111 -0.050008293153999253 -0.050008212951249242 -0.050008316152716809 -0.050007521120973245 -0.050007995910552397 -0.050008314878603521 -0.050008281726275305 -0.050008316278927413 -0.050007976176063 -0.050008315487210755 -0.05000801706561965 -0.050008315530344273 -0.050007864088781509 -0.050008223253193901
leaf_weight=0.12666880600585198 0.22878856146062079 0.0023642269680531208 0.0012626575664853581 0.0013967276390758334 0.001142976645496673 0.43718476615322288 0.0012507941135666547 0.0021489936189027494 0.0018285294208908219 0.0014424934197450048 0.012135798111557961 0.0041159455140587012 0.24342669033666423 0.0013506024910331918 0.003025168552994755 0.0029695413832087703 0.004976312129997649 0.0032825722300913523 0.022274817929035517 0.0055602475265734697 0.002052417292391695 0.011137496753121924 0.0056274126545991674 0.027926631446462125 0.0047747873904958162 0.022773506731027772 0.0064105408382602036 0.051198825109167956 0.0033010676561389118 0.0024589555105195794
leaf_count=905 17 61 151 12 7 2636 231 30 12 15 25 26 189 46 20 24 76 21 142 43 19 93 40 170 33 138 43 321 21 22
internal_value=-8.08284 -26.1192 -103.589 -228.652 -4.20526 -8.60786 -78.419 -1.64493 -0.166283 -3.01429 -0.00733198 -0.0735609 -0.0758491 -0.0500075 -0.0500081 -0.0500078 -0.0500079 -0.0500082 -0.0500083 -0.0500076 -0.0500082 -0.0500083 -0.0500083 -0.0500083 -0.0500081 -0.0500083 -0.050008 -0.0500083 -0.0500079 -0.0500083
internal_weight=1.24626 0.22052 0.0555228 0.0249342 1.02574 0.490777 0.0535926 0.0305886 0.534961 0.0168675 0.0284396 0.518094 0.472215 0.0163038 0.0458783 0.013496 0.0149532 0.0323823 0.0236715 0.00792447 0.00702873 0.0150389 0.164998 0.0383288 0.0104022 0.0260561 0.0105265 0.0523418 0.00632624 0.0135965
internal_count=5589 1753 605 305 3836 3195 559 300 641 142 270 499 206 245 293 93 199 200 154 104 95 130 1148 243 73 159 69 328 41 115
is_linear=0
shrinkage=0.05


Tree=28
num_leaves=31
num_cat=0
split_feature=0 19 20 3 19 13 5 16 2 2 3 20 14 4 3 2 22 2 16 3 6 20 3 5 16 5 6 6 19 2
split_gain=66091.3 614442 2.85135e+07 70.448 560.105 0.0384902 0.0275509 0.0229772 0.0128993 9.08495e-05 1.74816e-12 2.70713e-12 1.65292e-12 4.23989e-12 1.24867e-12 3.20688e-13 9.17516e-13 8.99556e-13 2.85365e-13 2.83391e-13 2.46544e-13 6.17336e-14 4.9797e-14 3.67744e-14 3.9252e-14 3.16032e-14 1.77462e-14 1.66976e-14 1.5609e-14 1.19627e-14
threshold=4.5000000000000009 4987.2200000000012 26490.265000000003 88.083244047619061 671.24500000000012 11.500000000000002 874.2650000000001 1292.9950000000001 1175.8650000000002 1232.2350000000004 626.53273823740165 9386.6400000000012 34.500000000000007 196.79640758532631 268.54296875000006 1637.1350000000004 -7.4999999999999991 1124.2850000000001 350.45000000000005 428.40083333333342 337.79500000000002 4411.5650000000014 449.1541666666667 1268.7500000000002 10684.070000000002 560.96500000000003 484.07000000000005 124.93000000000002 671.24500000000012 2458.6200000000003
decision_type=2 2 8 2 2 2 2 2 2 2 2 8 8 2 2 2 10 2 2 2 2 8 2 2 2 2 2 2 2 2
left_child=3 2 -2 4 21 6 8 -7 12 -10 11 22 19 18 -15 16 17 -12 27 25 -20 -1 -8 24 -9 -5 -21 -14 -22 -17
right_child=1 -3 -4 5 -6 7 10 23 9 -11 15 -13 13 14 -16 29 -18 -19 20 26 28 -23 -24 -25 -26 -27 -28 -29 -30 -31
leaf_value=-0.050007907473178272 -0.050007906220181503 -0.050007909842044618 -6798.5088082901339 -0.050007903258436973 -31.67074168704049 0.050000371111303822 -0.050007754998307036 -0.050007858253138075 -0.075382792956793884 -0.07395822142232733 -0.050007718358443171 -0.050005488310286589 -0.050007276829792571 -0.050006390160742466 -0.050003956575977684 -0.050007859663212507 -0.050007908695093709 -0.050006228612808727 -0.050007885324735935 -0.050007469620361789 -0.050007328187736538 -0.050007611214093597 -0.050007502224916595 -0.050007895245768721 -0.05000750834951985 -0.05000774109997877 -0.050007620513646489 -0.050007104272441961 -0.050007487194438573 -0.050007904709536824
leaf_weight=0.010119941499440489 0.062629157382629766 0.37412157409646973 0.0015812407364137323 0.025626343337488547 0.0015812409777912822 0.011543932370841557 0.0030991551757324478 0.0017276370490510264 0.22350902925245464 0.22415781457565143 0.0021605328870260001 0.0018634638599905875 0.0033425993602805128 0.0010157708108290415 0.0010956525475558187 0.016187940491363434 0.010119941754965169 0.0019083528241026215 0.0053703984251533953 0.0025386297784351928 0.0023112587301383769 0.0021281410026629697 0.0052475131378742238 0.0082072458753827959 0.0014951454941253485 0.0034037055884255712 0.0083801542641595006 0.0024146773369393415 0.0046464579329494882 0.16378382017506976
leaf_count=67 464 2415 291 198 64 3 20 28 4 49 16 51 27 30 28 134 66 30 56 19 18 51 36 55 13 27 59 25 35 1205
