tree
version=v4
num_class=1
num_tree_per_iteration=1
label_index=0
max_feature_idx=34
objective=binary sigmoid:1
feature_names=tx_count spend_sum spend_abs_sum spend_mean spend_std spend_max spend_min unique_companies unique_categories is_preferred is_managed is_noncompliant_t is_unmanaged_t tx_count_lag1 tx_count_lag2 tx_count_lag3 spend_sum_lag1 spend_sum_lag2 spend_sum_lag3 spend_abs_sum_lag1 spend_abs_sum_lag2 spend_abs_sum_lag3 tx_count_delta_1m spend_sum_delta_1m tx_count_mean_3m tx_count_std_3m tx_count_cv_3m spend_sum_mean_3m spend_sum_std_3m spend_sum_cv_3m spend_abs_sum_mean_3m spend_abs_sum_std_3m spend_abs_sum_cv_3m months_since_noncompliant noncompliant_last_3m
feature_infos=[1:14206] [-852566.72999999998:13944811.26] [0.02:14384364.959999999] [-16296:2263611.0833333335] [0:3012954.0974787814] [-16296:5692663.3300000001] [-1242172.8:1133333] [1:11] [1:4] none [0:1] [0:1] [0:1] [1:14206] [1:14206] [1:10971] [-21479.66:13944811.26] [-13630.339999999998:13655841.84] [-8266:9202592.9900000002] [3.7999999999999998:14384364.959999999] [3.7999999999999998:14384364.959999999] [3.7999999999999998:12163184.57] [-2736:4411] [-3283692.21:5315037.8300000001] [1:12354] [0:2730.6183060496264] [0:1.6533212254067065] [-8619.876666666667:12267748.696666665] [0:3086814.8861190816] [-5.9607281863418464:3.4993403348802654] [29.960000000000001:13568733.390000001] [0:2902953.7391185551] [0:1.7237966602230186] [0:999] [0:3]
tree_sizes=552 1091 785 784 774 1099 778 777 878 768 671 778 784 874 783 676 677 881 777 882 1092 672 887 671 676 675 674 881 466 782 985 675 880 675 880 883 784 676 881 1095 881 976 990 780 1093 991 780 678 673 882 780 675 1088 989 780 784 571 878 979 677 781 881 882 978 991 1094 981 777 971 976 977 1083 872

Tree=0
num_leaves=4
num_cat=0
split_feature=19 14 4
split_gain=588643 148175 63675.5
threshold=1984.2600000000002 352.00000000000006 207.69585667053079
decision_type=2 8 2
left_child=1 -1 -3
right_child=-2 2 -4
leaf_value=-7.3540409381208232 -7.361979170806709 -7.3524588460171456 9.8624296882052516
leaf_weight=0.49863785412162576 2.7534038834273815 0.19740418903529677 3.1416426268406212
leaf_count=778 4296 308 230
internal_value=4.73078 8.50434 9.45423
internal_weight=6.59109 3.83768 3.33905
internal_count=5612 1316 538
is_linear=0
shrinkage=1


Tree=1
num_leaves=9
num_cat=0
split_feature=3 3 19 14 4 4 19 14
split_gain=165866 58741 1859.63 351.099 104.967 14.7408 4.26494 0.500506
threshold=220.13878757663051 214.02840277777781 1984.2600000000002 58.500000000000007 226.51812181920459 212.8524527809827 1984.2600000000002 14.500000000000002
decision_type=2 2 2 8 2 2 2 8
left_child=1 5 3 -2 -5 -1 7 -7
right_child=2 -3 -4 4 -6 6 -8 -9
leaf_value=-0.0020792462105456806 -0.0016672316060727258 7.7749937188410003 -0.0095629196311152152 -0.00048405052905591179 -1.112616157393935 -0.00010706814652396348 -0.00091897800832562771 -0.19176065752858243
leaf_weight=0.54646166856400635 0.29402395710349116 1.0009641052674851 2.3374217505333945 0.081944733858108521 0.17234040820039809 0.017897110432386398 0.15789962449343875 0.0067803462734445921
leaf_count=731 460 23 3686 128 194 28 249 40
internal_value=4.14365 6.7876 -0.740107 -1.03926 -1.09573 -0.17052 -0.186274 -0.191185
internal_weight=4.61573 1.73 2.88573 0.548309 0.254285 0.729039 0.182577 0.0246775
internal_count=5539 1071 4468 782 322 1048 317 68
is_linear=0
shrinkage=0.03


Tree=2
num_leaves=6
num_cat=0
split_feature=16 4 14 4 6
split_gain=7543.08 2692.38 406.848 55.296 0.331405
threshold=1943.5850000000003 207.69585667053079 1.0000000180025095e-35 262.01339511508132 251.99500000000003
decision_type=2 2 10 2 2
left_child=1 -1 -3 -2 -5
right_child=3 2 -4 4 -6
leaf_value=-0.021534052347697213 0.048820251844267845 -1.3394872177120383 -0.00128232453368615 -0.034364460759388045 -0.0015466484323830567
leaf_weight=2.3831244531902764 374.77645578020019 0.038657720211261792 0.22311554261250421 3.6592711887424221 0.7920873169787227
leaf_count=743 1031 235 351 2402 869
internal_value=0.0292586 -0.904512 -1.28396 0.0474569 -0.0324323
internal_weight=381.873 2.6449 0.261773 379.228 4.45136
internal_count=5631 1329 586 4302 3271
is_linear=0
shrinkage=0.03


Tree=3
num_leaves=6
num_cat=0
split_feature=16 4 14 4 13
split_gain=6159.12 1990.77 256.185 51.7558 0.374021
threshold=1943.5850000000003 212.8524527809827 1.0000000180025095e-35 262.01339511508132 3.5000000000000004
decision_type=2 2 10 2 2
left_child=1 -1 -3 -2 -5
right_child=3 2 -4 4 -6
leaf_value=-0.023166004376438957 0.047950474507270607 -1.0783258734514918 -0.0012514484495004094 -0.0008225915651929015 -0.031744264929092957
leaf_weight=2.7015096717223055 370.66009636165109 1.0632617080219686 0.2175099542364477 0.64923547970829432 4.0003805399755947
leaf_count=760 1030 229 343 652 2609
internal_value=0.028623 -0.748486 -1.04202 0.0466008 -0.0300901
internal_weight=379.292 3.98228 1.28077 375.31 4.64962
internal_count=5623 1332 572 4291 3261
is_linear=0
shrinkage=0.03


Tree=4
num_leaves=6
num_cat=0
split_feature=19 4 6 14 2
split_gain=4631.88 1006.74 1334.98 213.831 51.0275
threshold=1984.2600000000002 212.8524527809827 500.12000000000006 162.00000000000003 2189.1250000000005
decision_type=2 2 2 8 2
left_child=1 -1 3 -3 -2
right_child=4 2 -4 -5 -6
leaf_value=-0.022905677354201594 0.047229656119758642 -0.0011403250700129676 -0.066084401276132521 -1.0351706584127944 -0.027841470439492314
leaf_weight=2.7054006192046804 365.85108920157654 0.19743358931737054 2.8160121152177453 0.54839111849065603 5.2626460485917042
leaf_count=757 458 312 51 193 3877
internal_value=0.02821 -0.571788 -0.731849 -1.00063 0.0458091
internal_weight=377.381 6.26724 3.56184 0.745825 371.114
internal_count=5648 1313 556 505 4335
is_linear=0
shrinkage=0.03


Tree=5
num_leaves=9
num_cat=0
split_feature=16 6 14 4 0 4 4 13
split_gain=5075.56 948.042 626.304 100.265 67.3995 48.6899 7.24253 1.82372
threshold=1943.5850000000003 157.58000000000001 1.0000000180025095e-35 212.8524527809827 5.5000000000000009 262.01339511508132 226.51812181920459 3.5000000000000004
decision_type=2 2 10 2 2 2 2 2
left_child=1 2 3 -1 6 -2 -3 -7
right_child=5 4 -4 -5 -6 7 -8 -9
leaf_value=-0.00061478790069056054 0.046156323088943185 -0.0043080011332171722 -0.0077117677081908354 -0.96785071625770924 -0.0080214200126908133 0.0015009067630913494 -0.19209038512446602 -0.03358017451988872
leaf_weight=0.10454454843420424 362.24576663668267 0.43532455601962272 0.80080923257628456 0.83244366620624533 3.936911357963254 1.0882527902722348 0.14321701891094563 3.6991343967092689
leaf_count=175 1012 324 516 197 19 651 95 2621
internal_value=0.0261491 -0.602126 -0.844906 -0.951336 -0.113822 0.0448017 -0.181298 -0.0289128
internal_weight=373.286 6.25325 1.7378 0.936988 4.51545 367.033 0.578542 4.78739
internal_count=5610 1326 888 372 438 4284 419 3272
is_linear=0
shrinkage=0.03


Tree=6
num_leaves=6
num_cat=0
split_feature=19 4 14 4 13
split_gain=5212.82 1385.21 158.439 63.6984 2.62842
threshold=1935.4900000000002 212.8524527809827 162.00000000000003 262.01339511508132 3.5000000000000004
decision_type=2 2 8 2 2
left_child=1 -1 -3 -2 -5
right_child=3 2 -4 4 -6
leaf_value=-0.022570591837785394 0.045450187366809218 -0.0011611091346082456 -0.88413916497473255 0.0014946758302806689 -0.041604593809724602
leaf_weight=2.6986893765279083 357.3876138930209 0.20118146471213583 2.1862229718722119 1.0874682520661725 4.1852640794531908
leaf_count=737 1040 331 214 656 2643
internal_value=0.0256585 -0.647766 -0.860879 0.0437837 -0.0363146
internal_weight=367.746 5.08609 2.3874 362.66 5.27273
internal_count=5621 1282 545 4339 3299
is_linear=0
shrinkage=0.03


Tree=7
num_leaves=6
num_cat=0
split_feature=16 6 4 4 13
split_gain=2705.4 901.795 577.342 45.5618 1.76846
threshold=1943.5850000000003 500.12000000000006 219.62500184650614 262.01339511508132 3.5000000000000004
decision_type=2 2 2 2 2
left_child=1 2 -1 -2 -5
right_child=3 -3 -4 4 -6
leaf_value=-0.0222263908234024 0.044630946861824457 -0.028648005213048992 -0.56776300841580774 0.0015324663129218578 -0.032953471858205859
leaf_weight=2.6128892165143025 352.76839577307692 7.3921796049289696 5.2499965622891978 1.0782014766009513 3.6177714578370797
leaf_count=579 1031 248 520 636 2628
internal_value=0.0247514 -0.313195 -0.465586 0.0432949 -0.0283283
internal_weight=372.719 15.2551 7.86289 357.464 4.69597
internal_count=5642 1347 1099 4295 3264
is_linear=0
shrinkage=0.03


Tree=8
num_leaves=7
num_cat=0
split_feature=16 1 4 1 4 13
split_gain=2327.35 421.156 291.845 137.287 44.2114 1.7353
threshold=1943.5850000000003 7641.3450000000012 212.8524527809827 8179.2500000000009 262.01339511508132 3.5000000000000004
decision_type=2 2 2 2 2 2
left_child=1 2 -1 -3 -2 -6
right_child=4 3 -4 -5 5 -7
leaf_value=-0.020489155452767326 0.043932959517433534 0.017940610286444225 -0.42293590681015547 -0.16177054437563787 0.0015031959153638348 -0.032681761377566905
leaf_weight=2.4701632101059676 347.77032952447189 7.3680725538579264 7.5712711414225851 1.4143041347997494 1.0818219539942209 3.5756097963167122
leaf_count=746 1043 10 448 130 643 2618
internal_value=0.0237646 -0.263839 -0.363655 -0.0591882 0.042602 -0.0280741
internal_weight=371.252 18.8238 10.0414 8.78238 352.428 4.65743
internal_count=5638 1334 1194 140 4304 3261
is_linear=0
shrinkage=0.03


Tree=9
num_leaves=6
num_cat=0
split_feature=19 6 4 2 16
split_gain=2025.42 345.188 158.004 44.5405 32.2449
threshold=1984.2600000000002 500.12000000000006 212.8524527809827 2189.1250000000005 1943.5850000000003
decision_type=2 2 2 2 2
left_child=1 2 -1 -2 -4
right_child=3 -3 4 -5 -6
leaf_value=-0.021722725637082503 0.043557856186066335 -0.028078055733761428 -0.32840808722697096 -0.02695786219728194 -0.01216001548419538
leaf_weight=2.6030675548099707 341.68586522413898 7.4968005106784394 12.260707591478418 5.1095961984838132 0.69621101827942844
leaf_count=539 467 234 500 3858 9
internal_value=0.0228743 -0.2229 -0.28711 0.0421505 -0.319533
internal_weight=369.852 23.0568 15.56 346.795 12.9569
internal_count=5607 1282 1048 4325 509
is_linear=0
shrinkage=0.03


Tree=10
num_leaves=5
num_cat=0
split_feature=16 6 4 6
split_gain=1774.59 244.061 97.482 40.9207
threshold=1943.5850000000003 500.12000000000006 212.8524527809827 4.7700000000000005
decision_type=2 2 2 2
left_child=1 2 -1 -2
right_child=3 -3 -4 -5
leaf_value=-0.021493576197709752 -0.029610991587388544 -0.027127154787765038 -0.26358361143048897 0.042587210136493428
leaf_weight=2.622693163197261 3.9073135132639427 7.7056115459054118 16.294878804771997 338.18355203914689
leaf_count=561 1839 247 529 2414
internal_value=0.0220222 -0.193576 -0.24153 0.0413479
internal_weight=368.714 26.6232 18.9176 342.091
internal_count=5590 1337 1090 4253
is_linear=0
shrinkage=0.03


Tree=11
num_leaves=6
num_cat=0
split_feature=16 6 14 19 4
split_gain=1583.44 157.968 59.8848 27.5232 21.0696
threshold=3406.440000000001 484.07000000000005 352.00000000000006 4746.2400000000007 212.8524527809827
decision_type=2 2 8 2 2
left_child=1 2 -1 -2 -4
right_child=3 -3 4 -5 -6
leaf_value=-0.024609236989571657 0.042484491332663951 -0.028513045716335027 -0.0070143896072823808 -0.020054186159366012 -0.22138475932388654
leaf_weight=3.0313741047866669 330.53383043713984 8.0337034865115147 0.75910972472047689 3.7246335473901118 19.736496026374425
leaf_count=854 280 390 262 3509 305
internal_value=0.0215578 -0.166462 -0.200313 0.0415023 -0.216378
internal_weight=365.819 31.5607 23.527 334.258 20.4956
internal_count=5600 1811 1421 3789 567
is_linear=0
shrinkage=0.03


Tree=12
num_leaves=6
num_cat=0
split_feature=19 6 14 19 19
split_gain=1360.45 119.792 30.6892 29.3294 5.60679
threshold=3604.4300000000003 484.07000000000005 1.0000000180025095e-35 4746.2400000000007 1935.4900000000002
decision_type=2 2 10 2 2
left_child=1 2 4 -2 -1
right_child=3 -3 -4 -5 -6
leaf_value=-0.18192940208188405 0.041938509907933859 -0.023053829355657571 -0.024336638538340477 -0.021103127084143906 -0.017180053236590151
leaf_weight=23.906100168938799 324.96195861693514 8.2421199578384385 3.0397761824715408 3.9493623204857604 1.3033225657654828
leaf_count=427 243 396 854 3530 136
internal_value=0.0210073 -0.14143 -0.167307 0.0408769 -0.177665
internal_weight=365.403 36.4913 28.2492 328.911 25.2094
internal_count=5586 1813 1417 3773 563
is_linear=0
shrinkage=0.03


Tree=13
num_leaves=7
num_cat=0
split_feature=16 6 19 16 4 4
split_gain=1229.22 128.932 28.6062 22.3669 15.5216 1.7831
threshold=3406.440000000001 500.12000000000006 4746.2400000000007 1943.5850000000003 207.69585667053079 1622.326301066005
decision_type=2 2 2 2 2 2
left_child=1 3 -2 4 -1 -5
right_child=2 -3 -4 5 -6 -7
leaf_value=-0.015609442350654479 0.041410138265525455 -0.013479253598395927 -0.02092995030463304 -0.024968537472478899 -0.16591435379872854 0.004245647253092912
leaf_weight=1.756628411822027 319.36788956917007 8.3747719326929637 3.9266400066553606 1.636783456167904 26.64641894371016 0.87359922839095805
leaf_count=561 272 377 3545 292 528 45
internal_value=0.020589 -0.128186 0.0403457 -0.153058 -0.160347 -0.0187439
internal_weight=362.583 39.2882 323.295 30.9134 28.403 2.51038
internal_count=5620 1803 3817 1426 1089 337
is_linear=0
shrinkage=0.03


Tree=14
num_leaves=6
num_cat=0
split_feature=16 6 4 14 16
split_gain=1156.24 67.2699 15.9606 15.4194 14.7964
threshold=3406.440000000001 500.12000000000006 212.8524527809827 1.0000000180025095e-35 1943.5850000000003
decision_type=2 2 2 10 2
left_child=1 2 -1 -2 -4
right_child=3 -3 4 -5 -6
leaf_value=-0.021398425214168317 0.040717404143225014 -0.024069282629135796 -0.14660651114409215 -0.014083769448134383 -0.016462754739763726
leaf_weight=3.0707214861758976 314.40922262173262 8.5269446739439427 29.489176751345898 2.4239552505896418 2.1980103077366939
leaf_count=653 1189 384 522 2618 243
internal_value=0.0197959 -0.117493 -0.134502 0.0400859 -0.141053
internal_weight=360.118 43.2849 34.7579 316.833 31.6872
internal_count=5609 1802 1418 3807 765
is_linear=0
shrinkage=0.03


Tree=15
num_leaves=5
num_cat=0
split_feature=19 6 19 14
split_gain=1010.39 60.1976 27.5475 4.9128
threshold=3396.7850000000003 500.12000000000006 4746.2400000000007 1.0000000180025095e-35
decision_type=2 2 2 10
left_child=1 3 -2 -1
right_child=2 -3 -4 -5
leaf_value=-0.12782660163441137 0.040440893632968371 -0.021124157090032684 -0.020758988941657848 -0.023607519804347152
leaf_weight=32.374379420235528 308.02223764322071 8.7128825286345073 3.9016165423565772 3.016699826650437
leaf_count=553 297 383 3586 846
internal_value=0.0199922 -0.107046 0.03936 -0.122965
internal_weight=356.028 44.104 311.924 35.3911
internal_count=5665 1782 3883 1399
is_linear=0
shrinkage=0.03


Tree=16
num_leaves=5
num_cat=0
split_feature=16 6 14 4
split_gain=998.15 42.1195 19.1408 1.81345
threshold=3406.440000000001 500.12000000000006 1.0000000180025095e-35 207.69585667053079
decision_type=2 2 10 2
left_child=1 3 -2 -1
right_child=2 -3 -4 -5
leaf_value=-0.020393040907524664 0.03988363318583029 -0.024704296084919822 -0.016835009928313244 -0.11773081600445195
leaf_weight=2.5369456140615503 302.75717563717626 8.9035428764691442 2.8888001579907714 36.707568532014648
leaf_count=651 1189 383 2634 775
internal_value=0.018769 -0.101743 0.0390852 -0.114454
internal_weight=353.794 48.1481 305.646 39.2445
internal_count=5632 1809 3823 1426
is_linear=0
shrinkage=0.03


Tree=17
num_leaves=7
num_cat=0
split_feature=16 6 0 19 4 0
split_gain=934.313 39.6885 57.1449 24.1137 6.18524 0.865293
threshold=4635.8550000000005 500.12000000000006 5.5000000000000009 4746.2400000000007 219.62500184650614 1.5000000000000002
decision_type=2 2 2 2 2 2
left_child=1 4 5 -2 -1 -3
right_child=3 2 -4 -5 -6 -7
leaf_value=-0.019769162217904094 0.039615739512817917 -0.0010776210500410127 0.01698812197773095 -0.019371362534801723 -0.10918328012898924 -0.10234879846488616
leaf_weight=3.2473111802537451 296.32290115096839 0.18616179368109165 8.7454150930279866 3.5819790113600893 39.717764384557086 0.2487224795986549
leaf_count=689 22 301 12 3514 919 150
internal_value=0.0179698 -0.0937041 -0.0218106 0.0386051 -0.105191 -0.0998713
internal_weight=352.05 52.1454 9.1803 299.905 42.9651 0.434884
internal_count=5607 2071 463 3536 1608 451
is_linear=0
shrinkage=0.03


Tree=18
num_leaves=6
num_cat=0
split_feature=16 1 1 19 4
split_gain=867.553 33.1084 56.0581 25.7253 8.15321
threshold=4635.8550000000005 6537.3250000000007 8179.2500000000009 4746.2400000000007 212.8524527809827
decision_type=2 2 2 2 2
left_child=1 4 -3 -2 -1
right_child=3 2 -4 -5 -6
leaf_value=-0.016722921772596846 0.039209819104518588 0.0071469721317309557 -0.086659208197627277 -0.020351598982783478 -0.10810592042668588
leaf_weight=2.9760824650875284 290.54862820787821 11.263711945677644 5.3866074081279285 3.7943903712439342 34.521863436576268
leaf_count=1019 20 63 268 3503 722
internal_value=0.0175949 -0.087742 -0.0362054 0.0381149 -0.103674
internal_weight=348.491 54.1483 16.6503 294.343 37.4979
internal_count=5595 2072 331 3523 1741
is_linear=0
shrinkage=0.03


Tree=19
num_leaves=7
num_cat=0
split_feature=16 1 1 6 4 4
split_gain=781.08 28.7991 52.2592 15.5075 10.7667 1.07266
threshold=4635.8550000000005 6537.3250000000007 8179.2500000000009 4.7700000000000005 212.8524527809827 207.69585667053079
decision_type=2 2 2 2 2 2
left_child=1 4 -3 -2 5 -1
right_child=3 2 -4 -5 -6 -7
leaf_value=-0.018753560126871838 -0.016054134811994504 0.0084189726823593394 -0.081844561870745999 0.038570365754835592 -0.10198808876873022 0.0036583375536668491
leaf_weight=2.5098290368041485 2.2166901182208667 10.976830618099486 5.5133175923674562 285.84627748921048 33.982203894080385 0.70431805317639362
leaf_count=1008 1617 65 262 1941 713 9
internal_value=0.0181127 -0.0821592 -0.0337806 0.0378833 -0.0970626 -0.014605
internal_weight=341.749 53.6865 16.4901 288.063 37.1964 3.21415
internal_count=5615 2057 327 3558 1730 1017
is_linear=0
shrinkage=0.03


Tree=20
num_leaves=9
num_cat=0
split_feature=16 19 6 0 4 16 4 0
split_gain=765.675 22.8004 21.2223 50.8721 6.41478 6.09634 0.900256 0.641097
threshold=4635.8550000000005 4746.2400000000007 500.12000000000006 5.5000000000000009 212.8524527809827 1943.5850000000003 207.69585667053079 1.5000000000000002
decision_type=2 2 2 2 2 2 2 2
left_child=2 -2 4 7 6 -6 -1 -4
right_child=1 -3 3 -5 5 -7 -8 -9
leaf_value=-0.016349827828655801 0.038455221961437094 -0.018986254956933079 -0.0010068790690817321 0.016718113061244384 -0.091569344532654126 -0.010868118963075648 0.0036533537469601424 -0.095853891864456323
leaf_weight=2.0670807057176712 279.06581457349239 3.5544042054680167 0.17352373796165643 8.4689381653734017 43.65177702921028 2.3339401065168195 0.70060990500496689 0.27306263149512233
leaf_count=679 21 3524 297 12 527 409 8 143
internal_value=0.0169321 0.0374153 -0.0784266 -0.020515 -0.0861236 -0.0889409 -0.012194 -0.0937565
internal_weight=340.289 282.62 57.6689 8.91552 48.7534 45.9857 2.76769 0.446586
internal_count=5620 3545 2075 452 1623 936 687 440
is_linear=0
shrinkage=0.03


Tree=21
num_leaves=5
num_cat=0
split_feature=16 1 1 19
split_gain=709.913 25.3885 41.737 22.3318
threshold=4635.8550000000005 6537.3250000000007 8179.2500000000009 4746.2400000000007
decision_type=2 2 2 2
left_child=1 -1 -3 -2
right_child=3 2 -4 -5
leaf_value=-0.087162184507298263 0.038101918754949816 0.0083122580344556253 -0.073755293574794364 -0.018840467872541605
leaf_weight=41.808770835108362 273.33703752112342 10.808442331122931 4.8651369070998944 3.532752738450653
leaf_count=1767 20 59 272 3550
internal_value=0.0169979 -0.0748396 -0.0288388 0.037054
internal_weight=334.352 57.4824 15.6736 276.87
internal_count=5668 2098 331 3570
is_linear=0
shrinkage=0.03


Tree=22
num_leaves=7
num_cat=0
split_feature=16 19 6 0 16 0
split_gain=666.255 23.7259 19.6429 41.161 2.92741 0.346308
threshold=4635.8550000000005 4746.2400000000007 500.12000000000006 5.5000000000000009 1943.5850000000003 1.5000000000000002
decision_type=2 2 2 2 2 2
left_child=2 -2 4 5 -1 -4
right_child=1 -3 3 -5 -6 -7
leaf_value=-0.080096952693807302 0.037763331119650884 -0.019751627414898464 -0.00090109620481895454 0.016505142610983223 -0.011429134873430934 -0.084545267329542956
leaf_weight=47.621491686235572 267.64293851424009 3.7174710379622402 0.1547358828247497 8.2629212228930555 2.4067258218565248 0.26524821673228871
leaf_count=1101 23 3501 284 13 533 143
internal_value=0.016693 0.0366323 -0.0711079 -0.0168744 -0.0781322 -0.0829886
internal_weight=330.072 271.36 58.7111 8.68291 50.0282 0.419984
internal_count=5598 3524 2074 440 1634 427
is_linear=0
shrinkage=0.03


Tree=23
num_leaves=5
num_cat=0
split_feature=16 16 1 1
split_gain=652.809 23.2259 15.4614 40.5686
threshold=4635.8550000000005 4746.4450000000006 6537.3250000000007 8179.2500000000009
decision_type=2 2 2 2
left_child=2 -2 -1 -4
right_child=1 -3 3 -5
leaf_value=-0.080979205613120095 0.03744053612070438 -0.019586106984174435 0.0068315765129626496 -0.072299030499885023
leaf_weight=42.196082641588305 261.9826111405855 3.69106362570892 10.871177131586593 5.9066967851431391
leaf_count=1729 22 3503 64 266
internal_value=0.0161498 0.0363011 -0.0703727 -0.0312298
internal_weight=324.648 265.674 58.974 16.7779
internal_count=5584 3525 2059 330
is_linear=0
shrinkage=0.03


Tree=24
num_leaves=5
num_cat=0
split_feature=16 19 1 1
split_gain=626.274 22.7352 12.5446 41.3569
threshold=4635.8550000000005 4746.2400000000007 6537.3250000000007 8179.2500000000009
decision_type=2 2 2 2
left_child=2 -2 -1 -4
right_child=1 -3 3 -5
leaf_value=-0.077585653184062423 0.037130569653481389 -0.019420085520024541 0.0080805097739607076 -0.071332002087053509
leaf_weight=43.381730946569633 256.37055819923989 3.6630922780313986 10.580140421196122 6.2075582946345085
leaf_count=1727 21 3523 64 275
internal_value=0.0157111 0.0359826 -0.0679351 -0.0309148
internal_weight=320.203 260.034 60.1694 16.7877
internal_count=5610 3544 2066 339
is_linear=0
shrinkage=0.03


Tree=25
num_leaves=5
num_cat=0
split_feature=16 19 4 4
split_gain=679.348 22.2781 4.31285 0.19925
threshold=4635.8550000000005 4746.2400000000007 212.8524527809827 207.69585667053079
decision_type=2 2 2 2
left_child=2 -2 3 -1
right_child=1 -3 -4 -5
leaf_value=-0.015799240457685604 0.036834226925867845 -0.019259864540437259 -0.080576002491244664 -0.0002034771505105668
leaf_weight=2.3478989341238043 250.80643190437695 3.638659932970767 49.691078529094739 0.966234693158185
leaf_count=1042 19 3532 1028 11
internal_value=0.0151447 0.0356763 -0.0779946 -0.0141091
internal_weight=307.45 254.445 53.0052 3.31413
internal_count=5632 3551 2081 1053
is_linear=0
shrinkage=0.03


Tree=26
num_leaves=5
num_cat=0
split_feature=16 19 1 2
split_gain=563.377 16.0771 13.5086 42.8604
threshold=4635.8550000000005 4746.2400000000007 6537.3250000000007 7909.0000000000009
decision_type=2 2 2 2
left_child=2 -2 -1 -4
right_child=1 -3 3 -5
leaf_value=-0.071297628567926055 0.036548815016732128 -0.015616102115338704 0.010515218851970657 -0.067518176968177579
leaf_weight=44.884598907336226 245.30270744208246 2.8463104481634209 11.069256036407753 6.947874109813255
leaf_count=1745 21 3505 53 277
internal_value=0.0152867 0.0356539 -0.0617713 -0.0277066
internal_weight=311.051 248.149 62.9017 18.0171
internal_count=5601 3526 2075 330
is_linear=0
shrinkage=0.03


Tree=27
num_leaves=7
num_cat=0
split_feature=16 19 1 2 4 4
split_gain=516.537 19.3094 13.2871 34.5879 2.71762 0.256568
threshold=4635.8550000000005 4746.2400000000007 6537.3250000000007 7909.0000000000009 212.8524527809827 207.69585667053079
decision_type=2 2 2 2 2 2
left_child=2 -2 4 -4 5 -1
right_child=1 -3 3 -5 -6 -7
leaf_value=-0.015063245335388118 0.036275470621073141 -0.017748975293570241 0.0077286616754515276 -0.063015530718755305 -0.071391385539488469 0.00015685986706392529
leaf_weight=2.2736478123842963 239.85722775058821 3.3073607464320949 11.421320708184796 6.5523592343229202 40.024682973968766 1.0367990720260425
leaf_count=999 20 3493 58 287 723 9
internal_value=0.0155451 0.0351979 -0.0591785 -0.0261631 -0.068749 -0.01307
internal_weight=304.473 243.165 61.3088 17.9737 43.3351 3.31045
internal_count=5589 3513 2076 345 1731 1008
is_linear=0
shrinkage=0.03


Tree=28
num_leaves=3
num_cat=0
split_feature=2 2
split_gain=9.09324 45.5967
threshold=7568.005000000001 7909.0000000000009
decision_type=2 2
left_child=-1 -2
right_child=1 -3
leaf_value=-0.065254711235694887 0.018933141615779744 -0.059272932517145764
leaf_weight=48.748808369033497 8.5236179737839866 10.513457790576693
leaf_count=2419 43 3122
internal_value=-0.057303 -0.0276025
internal_weight=67.7859 19.0371
internal_count=5584 3165
is_linear=0
shrinkage=0.03


Tree=29
num_leaves=6
num_cat=0
split_feature=16 19 4 13 4
split_gain=588.871 20.4016 3.27273 1.01196 0.204278
threshold=4635.8550000000005 4746.2400000000007 212.8524527809827 11.500000000000002 207.69585667053079
decision_type=2 2 2 2 2
left_child=2 -2 3 -1 -5
right_child=1 -3 -4 4 -6
leaf_value=-0.018132577756829974 0.036491374959900534 -0.018269382991543223 -0.070309642624056853 -0.0030491135398744104 0.0054240381602786627
leaf_weight=2.1781052757578432 244.17353578633629 3.4469117791450108 53.182404255071219 0.29564116090477877 1.1025713682174683
leaf_count=934 21 3519 1038 122 1
internal_value=0.0153028 0.0353826 -0.0680712 -0.0131996 0.00264974
internal_weight=304.379 247.62 56.7587 3.57632 1.39821
internal_count=5635 3540 2095 1057 123
is_linear=0
shrinkage=0.03


Tree=30
num_leaves=8
num_cat=0
split_feature=16 19 1 5 2 13 13
split_gain=455.696 19.9031 15.9921 32.1793 9.10285 3.62976 0.839352
threshold=4635.8550000000005 4746.2400000000007 6341.9050000000007 1963.4950000000001 6691.3200000000006 11.500000000000002 12.500000000000002
decision_type=2 2 2 2 2 2 2
left_child=2 -2 5 -4 -5 -1 -7
right_child=1 -3 3 4 -6 6 -8
leaf_value=-0.065287341562944329 0.036219996225808605 -0.018088531415701072 0.014549131833090027 0.0038454424494428455 -0.059998023822293065 0.0030253379873609251 -0.01509650192077245
leaf_weight=40.789864802728459 238.7422394923633 3.4011713395884717 9.6319201084188553 1.7119631016594192 7.4488625316701018 1.349832648744836 1.8834050257701163
leaf_count=1540 21 3482 36 8 300 22 163
internal_value=0.0164343 0.0351067 -0.0528257 -0.0213601 -0.0509219 -0.0627093 -0.0102882
internal_weight=304.959 242.143 62.8158 18.7927 9.16083 44.0231 3.23324
internal_count=5572 3503 2069 344 308 1725 185
is_linear=0
shrinkage=0.03


Tree=31
num_leaves=5
num_cat=0
split_feature=1 2 1 2
split_gain=10.3658 31.5005 7.09735 2.01748
threshold=6537.3250000000007 7909.0000000000009 7802.1200000000008 6691.3200000000006
decision_type=2 2 2 2
left_child=-1 2 3 -2
right_child=1 -3 -4 -5
leaf_value=-0.060622787326499034 0.0038034815948375664 -0.055170042482937248 0.019231295030492479 -0.024351232849683328
leaf_weight=44.382012226428003 1.7092720136897708 9.6200107916247344 8.8283451381212217 1.6742860161430142
leaf_count=2311 14 3111 18 142
internal_value=-0.0515536 -0.0252557 0.00749066 -0.0163425
internal_weight=66.2139 21.8319 12.2119 3.38356
internal_count=5596 3285 174 156
is_linear=0
shrinkage=0.03


Tree=32
num_leaves=7
num_cat=0
split_feature=16 16 1 1 4 4
split_gain=445.604 19.1554 11.9176 33.7718 2.22438 0.367283
threshold=4635.8550000000005 4746.4450000000006 6537.3250000000007 7941.1600000000008 212.8524527809827 207.69585667053079
decision_type=2 2 2 2 2 2
left_child=2 -2 4 -4 5 -1
right_child=1 -3 3 -5 -6 -7
leaf_value=-0.01443407421737024 0.036400201053503251 -0.017520753817029073 0.010997099851709241 -0.056640022215991841 -0.062643438970720403 0.0007816228078470959
leaf_weight=2.3402510155719929 242.37293347978266 3.3050340744666746 11.272636471909211 7.5842025186968831 40.672792496121815 1.1649524715758164
leaf_count=997 24 3549 57 280 717 10
internal_value=0.0170948 0.0353398 -0.0513862 -0.0223759 -0.0602349 -0.0118905
internal_weight=308.713 245.678 63.0348 18.8568 44.178 3.5052
internal_count=5634 3573 2061 337 1724 1007
is_linear=0
shrinkage=0.03


Tree=33
num_leaves=5
num_cat=0
split_feature=16 19 1 2
split_gain=437.485 17.0339 9.51668 34.6474
threshold=4635.8550000000005 4746.2400000000007 6537.3250000000007 7909.0000000000009
decision_type=2 2 2 2
left_child=2 -2 -1 -4
right_child=1 -3 3 -5
leaf_value=-0.058022194845269479 0.036133404771394532 -0.016343841523953552 0.011158261207304598 -0.057670710397961247
leaf_weight=46.092207022953005 236.95924677164294 3.0230904568452379 11.237300018892713 7.3842975596508031
leaf_count=1753 19 3515 57 277
internal_value=0.0165135 0.0351523 -0.0501696 -0.0225654
internal_weight=304.696 239.982 64.7138 18.6216
internal_count=5621 3534 2087 334
is_linear=0
shrinkage=0.03


Tree=34
num_leaves=7
num_cat=0
split_feature=16 16 1 2 4 4
split_gain=414.727 16.6822 10.4912 29.7156 2.55316 0.316326
threshold=4635.8550000000005 4746.4450000000006 6537.3250000000007 7909.0000000000009 219.62500184650614 207.69585667053079
decision_type=2 2 2 2 2 2
left_child=2 -2 4 -4 5 -1
right_child=1 -3 3 -5 -6 -7
leaf_value=-0.011819172194196816 0.035875099146653856 -0.01620453411725991 0.010694687641874239 -0.053474094668592854 -0.05843836666751407 0.0010969905566963424
leaf_weight=1.8335638389253281 231.61927913306863 2.994523866014787 11.044577485437914 7.1702527578242998 43.21080171549238 1.2344422123278491
leaf_count=1007 24 3505 52 277 728 19
internal_value=0.0164044 0.0348861 -0.0485007 -0.020642 -0.0563837 -0.0091631
internal_weight=299.107 234.614 64.4936 18.2148 46.2788 3.06801
internal_count=5612 3529 2083 329 1754 1026
is_linear=0
shrinkage=0.03


Tree=35
num_leaves=7
num_cat=0
split_feature=16 19 1 2 4 4
split_gain=405.864 16.3691 9.65074 34.3413 1.92386 0.357512
threshold=4635.8550000000005 4746.2400000000007 7471.4750000000013 7909.0000000000009 219.62500184650614 207.69585667053079
decision_type=2 2 2 2 2 2
left_child=2 -2 4 -4 5 -1
right_child=1 -3 3 -5 -6 -7
leaf_value=-0.012794207459748871 0.035628264977995268 -0.016076831335193022 0.018859730799103271 -0.053114417105183998 -0.056664086125557282 0.0010913899546762737
leaf_weight=2.0477946178434641 226.34384592768038 2.972149471519514 8.3866669225462811 6.6305616526158238 45.966906496906972 1.2329636080830826
leaf_count=1003 20 3513 18 278 757 21
internal_value=0.0160009 0.0346294 -0.0481722 -0.0182484 -0.054774 -0.0100677
internal_weight=293.581 229.316 64.2649 15.0172 49.2477 3.28076
internal_count=5610 3533 2077 296 1781 1024
is_linear=0
shrinkage=0.03


Tree=36
num_leaves=6
num_cat=0
split_feature=16 19 6 6 1
split_gain=387.199 15.5088 10.3378 47.2216 0.212195
threshold=4635.8550000000005 4746.2400000000007 523.70000000000016 500.12000000000006 1851.6000000000001
decision_type=2 2 2 2 2
left_child=2 -2 3 -1 -4
right_child=1 -3 4 -5 -6
leaf_value=-0.049141842766743264 0.035389641415716787 -0.015371036169810809 -0.00027800483954043748 0.018743711484919223 -0.10084329927901103
leaf_weight=53.432536606775386 221.1453606520663 2.9337796328763934 0.046752654707232888 8.2268643110292015 0.75799278018439509
leaf_count=1642 21 3494 168 15 273
internal_value=0.0160375 0.0344041 -0.0475159 -0.0393577 -0.100273
internal_weight=286.543 224.079 62.4641 61.6594 0.804745
internal_count=5613 3515 2098 1657 441
is_linear=0
shrinkage=0.03


Tree=37
num_leaves=5
num_cat=0
split_feature=16 19 13 13
split_gain=416.593 17.3681 3.39068 1.31224
threshold=4635.8550000000005 4746.2400000000007 11.500000000000002 12.500000000000002
decision_type=2 2 2 2
left_child=2 -2 -1 -4
right_child=1 -3 3 -5
leaf_value=-0.059629641075931814 0.035159374142360506 -0.016825295407860933 0.0042086078735300656 -0.017082253294145991
leaf_weight=47.604893104356279 216.02418669190956 3.1738424317736635 1.5271207964805165 2.4725813469212881
leaf_count=1842 22 3537 28 203
internal_value=0.0159409 0.0340482 -0.057186 -0.0111313
internal_weight=270.803 219.198 51.6046 3.9997
internal_count=5632 3559 2073 231
is_linear=0
shrinkage=0.03


Tree=38
num_leaves=7
num_cat=0
split_feature=16 19 1 2 13 4
split_gain=341.786 17.0201 10.0765 27.4812 3.49822 1.34974
threshold=4635.8550000000005 4746.2400000000007 6537.3250000000007 7909.0000000000009 11.500000000000002 219.62500184650614
decision_type=2 2 2 2 2 2
left_child=2 -2 4 -4 -1 -6
right_child=1 -3 3 -5 5 -7
leaf_value=-0.055390349664991151 0.034939076114334416 -0.016677573292515752 0.010210474120718382 -0.050576949590715452 0.0059435333973543517 -0.01463646328552762
leaf_weight=38.191466388854906 210.97563692514086 3.1437436221749513 11.671207040548326 7.3492550681125968 1.3165719431126484 1.9721790956405696
leaf_count=1537 20 3523 59 285 109 81
internal_value=0.0160894 0.033818 -0.0444463 -0.0189158 -0.052859 -0.00778227
internal_weight=274.62 214.119 60.5007 19.0205 41.4802 3.28875
internal_count=5614 3543 2071 344 1727 190
is_linear=0
shrinkage=0.03


Tree=39
num_leaves=9
num_cat=0
split_feature=16 19 6 6 4 13 4 4
split_gain=329.5 16.6805 12.694 44.033 0.678241 1.01564 0.384104 0.201228
threshold=4635.8550000000005 4746.2400000000007 523.70000000000016 500.12000000000006 212.8524527809827 11.500000000000002 249.74854893102932 207.69585667053079
decision_type=2 2 2 2 2 2 2 2
left_child=2 -2 3 4 5 -1 -4 -7
right_child=1 -3 6 -5 -6 7 -8 -9
leaf_value=-0.01523773201606907 0.034724023007044719 -0.016530931423407759 -0.00055100501097499362 0.018962905215596109 -0.047386665077968702 -0.0026562276028773623 -0.098226781602832908 0.0061039777619196281
leaf_weight=1.7541573252528899 206.01559341076063 3.1137003724870729 0.093523588686365566 8.4798220520242449 46.158618673061937 0.27916175902646467 0.84288524472231074 1.2758816480636597
leaf_count=576 23 3519 358 15 897 113 87 1
internal_value=0.0160036 0.0335927 -0.0442049 -0.0357003 -0.0459513 -0.00946335 -0.0971521 0.00370481
internal_weight=268.013 209.129 58.8841 57.9476 49.4678 3.3092 0.936409 1.55504
internal_count=5589 3542 2047 1602 1587 690 445 114
is_linear=0
shrinkage=0.03


Tree=40
num_leaves=7
num_cat=0
split_feature=19 19 1 2 2 2
split_gain=309.703 16.4127 7.87883 25.2295 1.26826 0.936841
threshold=4652.2700000000013 4746.2400000000007 6537.3250000000007 7909.0000000000009 502.57500000000005 484.73000000000002
decision_type=2 2 2 2 2 2
left_child=2 -2 4 -4 5 -1
right_child=1 -3 3 -5 -6 -7
leaf_value=-0.015842392490886398 0.03451893777131064 -0.016409564385862031 0.010085706978015758 -0.048940748751310985 -0.050821313387770142 0.0028278865671787965
leaf_weight=2.1357293345408825 201.12919391713882 3.0980998048881352 11.500050316612034 6.8180717001778239 38.664782141050182 1.7044386587595002
leaf_count=439 23 3570 53 270 1256 22
internal_value=0.0157649 0.0333727 -0.0414013 -0.0176674 -0.0486936 -0.0106432
internal_weight=265.05 204.227 60.8231 18.3181 42.505 3.84017
internal_count=5633 3593 2040 323 1717 461
is_linear=0
shrinkage=0.03


Tree=41
num_leaves=8
num_cat=0
split_feature=19 19 0 3 13 4 3
split_gain=313.175 14.162 11.2322 28.6125 9.20504 3.51826 2.13681
threshold=4652.2700000000013 4746.2400000000007 4.5000000000000009 1287.2345634920637 11.500000000000002 961.12171300591899 1364.900166666667
decision_type=2 2 2 2 2 2 2
left_child=2 -2 4 -4 -1 -5 -7
right_child=1 -3 3 5 -6 6 -8
leaf_value=-0.059390974687932613 0.034319059686435345 -0.014762113027537745 -0.042540678727253291 0.01876727522619577 0.0042590864068837381 0.0076640389542475739 -0.017415113413053986
leaf_weight=27.850497393550572 196.3315146939442 2.8275200506675437 19.011395572940248 8.2368588976023585 1.495669118268778 1.7159208235316321 1.7204910730488334
leaf_count=1253 25 3579 637 2 36 4 87
internal_value=0.0152617 0.0332778 -0.0424716 -0.0235005 -0.0559992 0.0109668 -0.00777191
internal_weight=259.19 199.159 60.0308 30.6847 29.3462 11.6733 3.43641
internal_count=5623 3604 2019 730 1289 93 91
is_linear=0
shrinkage=0.03


Tree=42
num_leaves=8
num_cat=0
split_feature=19 19 6 6 4 4 4
split_gain=301.419 14.3826 10.2906 39.0815 0.941133 0.259692 0.257926
threshold=4652.2700000000013 4746.2400000000007 523.70000000000016 500.12000000000006 212.8524527809827 249.74854893102932 207.69585667053079
decision_type=2 2 2 2 2 2 2
left_child=2 -2 3 4 6 -4 -1
right_child=1 -3 5 -5 -6 -7 -8
leaf_value=-0.0098144413267078102 0.034127704124639745 -0.015188164335102748 -0.00049910343005705646 0.018625436596686779 -0.04446296091752841 -0.09084533922590779 0.0012456581442552544
leaf_weight=1.5390618371893643 191.61226412700836 2.8118291377728601 0.084567503341530736 8.0874837949086196 47.479417109846992 0.9472752454385045 1.2617098370974418
leaf_count=678 23 3557 359 13 890 88 9
internal_value=0.0150776 0.0330516 -0.0417523 -0.033866 -0.0432301 -0.0899924 -0.00722714
internal_weight=253.824 194.424 59.3995 58.3677 50.2802 1.03184 2.80077
internal_count=5617 3580 2037 1590 1577 447 687
is_linear=0
shrinkage=0.03


Tree=43
num_leaves=6
num_cat=0
split_feature=19 19 0 6 13
split_gain=296.197 10.8374 7.17328 24.2014 8.44308
threshold=4652.2700000000013 4746.2400000000007 4.5000000000000009 251.99500000000003 11.500000000000002
decision_type=2 2 2 2 2
left_child=2 -2 4 -4 -1
right_child=1 -3 3 -5 -6
leaf_value=-0.056382819951733207 0.03394035753490128 -0.012373896251354289 -0.040466354373063056 0.0098118646425965749 0.0042732002406527811
leaf_weight=27.197064210666216 186.98485182627388 2.3003938453782089 20.429323885634602 10.544507054416501 1.4860010747815966
leaf_count=1268 24 3541 685 42 38
internal_value=0.0148126 0.0330735 -0.0412045 -0.0243653 -0.0530725
internal_weight=248.942 189.285 59.6569 30.9738 28.6831
internal_count=5598 3565 2033 727 1306
is_linear=0
shrinkage=0.03


Tree=44
num_leaves=9
num_cat=0
split_feature=16 19 6 6 4 16 4 4
split_gain=276.149 13.8926 10.8962 35.5981 3.21209 2.36748 0.820246 0.211906
threshold=4635.8550000000005 4746.2400000000007 568.3900000000001 500.12000000000006 212.8524527809827 1943.5850000000003 207.69585667053079 249.74854893102932
decision_type=2 2 2 2 2 2 2 2
left_child=2 -2 3 4 6 -6 -1 -4
right_child=1 -3 7 -5 5 -7 -8 -9
leaf_value=-0.0095156747360139494 0.033758956928513432 -0.01495985645542164 -0.00045776202815776763 0.018408410416594492 -0.044337436349759674 -0.0038522493009406516 0.0060056660082154828 -0.088246195425331089
leaf_weight=1.5055259245127663 182.4431487317197 2.7659003072913029 0.077455347091016757 7.8665981975536843 43.785171073719198 2.366672536933037 1.2536389483575476 1.0731363031086401
leaf_count=697 23 3514 346 33 525 407 7 88
internal_value=0.0148892 0.0326573 -0.0400001 -0.0320323 -0.0410999 -0.0428408 -0.00313786 -0.0875128
internal_weight=243.137 185.209 57.9282 56.7776 48.911 46.1518 2.75916 1.15059
internal_count=5640 3537 2103 1669 1636 932 704 434
is_linear=0
shrinkage=0.03


Tree=45
num_leaves=8
num_cat=0
split_feature=16 19 6 6 13 13 0
split_gain=275.39 15.062 12.3181 35.0835 0.308102 1.17745 0.196667
threshold=4635.8550000000005 4746.2400000000007 523.70000000000016 500.12000000000006 11.500000000000002 12.500000000000002 1.5000000000000002
decision_type=2 2 2 2 2 2 2
left_child=2 -2 3 4 -1 -6 -4
right_child=1 -3 6 -5 5 -7 -8
leaf_value=-0.04260721901526069 0.033584356913320151 -0.01579885899810347 -0.00039152890043057833 0.018286473365223644 0.004343388067092808 -0.015604530416832619 -0.090043783340222686
leaf_weight=44.740182276302761 177.9842272347305 2.9841143309022291 0.066100001262383468 7.7218053912001769 1.4613062701181427 2.3433762324120835 1.2340164985712361
leaf_count=1398 22 3540 287 16 27 198 157
internal_value=0.0143009 0.0323672 -0.0405406 -0.0322064 -0.0411957 -0.00982727 -0.0894139
internal_weight=238.535 180.968 57.5668 56.2667 48.5449 3.80468 1.30012
internal_count=5645 3562 2083 1639 1623 225 444
is_linear=0
shrinkage=0.03


Tree=46
num_leaves=6
num_cat=0
split_feature=16 19 6 6 0
split_gain=271.882 14.8073 11.552 34.0361 0.179639
threshold=4635.8550000000005 4746.2400000000007 523.70000000000016 500.12000000000006 1.5000000000000002
decision_type=2 2 2 2 2
left_child=2 -2 3 -1 -4
right_child=1 -3 4 -5 -6
leaf_value=-0.040686407089646368 0.033416800358398169 -0.015672453879803518 -0.00039022256199653022 0.018154776472299218 -0.08812657495587771
leaf_weight=49.331510180091414 173.60683204233646 2.9616941502172258 0.065876453372765265 7.5831687202116873 1.3306058460084385
leaf_count=1617 19 3547 285 15 154
internal_value=0.013764 0.0321845 -0.0401506 -0.0320136 -0.087528
internal_weight=234.88 176.569 58.3112 56.9147 1.39648
internal_count=5637 3566 2071 1632 439
is_linear=0
shrinkage=0.03


Tree=47
num_leaves=5
num_cat=0
split_feature=16 19 4 4
split_gain=312.469 12.6592 5.82665 0.994401
threshold=4635.8550000000005 4746.2400000000007 212.8524527809827 207.69585667053079
decision_type=2 2 2 2
left_child=2 -2 3 -1
right_child=1 -3 -4 -5
leaf_value=-0.010903492157366015 0.033250182130205294 -0.014024237449609638 -0.054367759183215923 0.0061509439263112116
leaf_weight=1.8869628706597714 169.32715425489005 2.6688088732335009 43.664335314217283 1.2924732989777112
leaf_count=1036 22 3495 1034 10
internal_value=0.0134324 0.0321412 -0.0517354 -0.00444863
internal_weight=218.84 171.996 46.8438 3.17944
internal_count=5597 3517 2080 1046
is_linear=0
shrinkage=0.03


Tree=48
num_leaves=5
num_cat=0
split_feature=16 19 1 2
split_gain=250.68 12.4974 11.3846 19.2138
threshold=4635.8550000000005 4746.2400000000007 6537.3250000000007 7909.0000000000009
decision_type=2 2 2 2
left_child=2 -2 -1 -4
right_child=1 -3 3 -5
leaf_value=-0.047704377272216859 0.033091951471257527 -0.013940494359942407 0.0096712107170777335 -0.041718133948083116
leaf_weight=38.037144987854845 165.12415197154041 2.6592450476164222 11.634244613022021 6.6516269026351429
leaf_count=1752 19 3529 55 274
internal_value=0.0137259 0.0319647 -0.0387827 -0.013966
internal_weight=224.106 167.783 56.323 18.2859
internal_count=5629 3548 2081 329
is_linear=0
shrinkage=0.03


Tree=49
num_leaves=7
num_cat=0
split_feature=16 19 1 2 13 2
split_gain=228.033 12.2761 12.0536 18.7394 2.40723 1.48608
threshold=4635.8550000000005 4746.2400000000007 6537.3250000000007 7909.0000000000009 11.500000000000002 502.57500000000005
decision_type=2 2 2 2 2 2
left_child=2 -2 4 -4 -1 -6
right_child=1 -3 3 -5 5 -7
leaf_value=-0.047845421077103469 0.032936310341115389 -0.013824179781079707 0.011294088427825593 -0.039132499646692402 0.0063274531346900033 -0.014907882361423508
leaf_weight=33.733648285865996 161.01236364222132 2.6338205314532379 11.503053575292144 6.7260278223918695 1.3522723681035125 2.408033512609336
leaf_count=1551 21 3510 55 281 30 164
internal_value=0.0141122 0.0317962 -0.0361634 -0.0117302 -0.0452646 -0.00801849
internal_weight=219.369 163.646 55.723 18.2291 37.494 3.76031
internal_count=5612 3531 2081 336 1745 194
is_linear=0
shrinkage=0.03


Tree=50
num_leaves=6
num_cat=0
split_feature=16 19 0 6 13
split_gain=232.472 12.5632 9.50729 21.5015 8.49438
threshold=4635.8550000000005 4746.2400000000007 5.5000000000000009 500.12000000000006 11.500000000000002
decision_type=2 2 2 2 2
left_child=2 -2 4 -4 -1
right_child=1 -3 3 -5 -6
leaf_value=-0.053932367525899708 0.032785997022268747 -0.014271152752204046 -0.035080702788822103 0.015956293257191102 0.0048043232696748737
leaf_weight=26.427332408603153 156.98368014744483 2.6381236434681332 16.625219815703336 7.7375572729288242 1.5475202750894812
leaf_count=1367 20 3517 660 13 41
internal_value=0.0137487 0.0315984 -0.0386985 -0.0189145 -0.0504474
internal_weight=211.959 159.622 52.3376 24.3628 27.9749
internal_count=5618 3537 2081 673 1408
is_linear=0
shrinkage=0.03


Tree=51
num_leaves=5
num_cat=0
split_feature=16 19 0 6
split_gain=220.514 13.6292 9.75753 20.2124
threshold=4635.8550000000005 4746.2400000000007 4.5000000000000009 251.99500000000003
decision_type=2 2 2 2
left_child=2 -2 -1 -4
right_child=1 -3 3 -5
leaf_value=-0.051522338255923825 0.032635759821399019 -0.015081183855713231 -0.035983125536758191 0.010200169364053135
leaf_weight=23.256982378024986 153.05031442211475 2.8480346159922183 18.452867839517385 10.569907200680516
leaf_count=1272 23 3534 724 39
internal_value=0.0135979 0.0313225 -0.0373772 -0.0201363
internal_weight=208.178 155.898 52.2798 29.0228
internal_count=5592 3557 2035 763
is_linear=0
shrinkage=0.03


Tree=52
num_leaves=9
num_cat=0
split_feature=16 19 6 6 4 6 6 13
split_gain=213.011 10.9403 9.41072 29.7231 1.29866 3.39029 2.1796 0.827857
threshold=4635.8550000000005 4746.2400000000007 523.70000000000016 500.12000000000006 212.8524527809827 251.99500000000003 264.63500000000005 11.500000000000002
decision_type=2 2 2 2 2 2 2 2
left_child=2 -2 3 4 7 -6 -7 -1
right_child=1 -3 -4 -5 5 6 -8 -9
leaf_value=-0.011454522341803493 0.032492353259255161 -0.013087241763902642 -0.077596394884220557 0.018076914982790383 -0.041283544429482157 0.0088107336601564827 -0.015360305495528368 0.0046367460925110134
leaf_weight=1.0549280528648517 149.19436609675176 2.3730587418249334 1.6775858607602447 7.501401583893311 36.421573345763932 2.0754962952455567 1.8695988553823779 1.6527234987879635
leaf_count=569 23 3519 436 15 872 3 57 114
internal_value=0.0135511 0.0313836 -0.0363977 -0.0281729 -0.0372697 -0.0386453 -0.00482709 -0.00499625
internal_weight=203.821 151.567 52.2533 50.5757 43.0743 40.3667 3.9451 2.70765
internal_count=5608 3542 2066 1630 1615 932 60 683
is_linear=0
shrinkage=0.03


Tree=53
num_leaves=8
num_cat=0
split_feature=16 19 1 5 19 13 2
split_gain=205.214 10.3239 8.60006 16.6849 9.14299 2.71265 1.41929
threshold=4635.8550000000005 4746.2400000000007 6537.3250000000007 1963.4950000000001 1935.4900000000002 11.500000000000002 502.57500000000005
decision_type=2 2 2 2 2 2 2
left_child=2 -2 5 -4 -5 -1 -7
right_child=1 -3 3 4 -6 6 -8
leaf_value=-0.046161586537654065 0.032355206650913085 -0.012432951657137356 0.014947195013763537 -0.043639170383972838 0.0086613695239787063 0.0065105130009016658 -0.013961958664886434
leaf_weight=31.641323940391771 145.41614721622318 2.331839273494551 7.8680507176450218 7.3208543227947285 2.0746127853485632 1.4008337172854219 2.3044966427033273
leaf_count=1553 20 3528 30 142 161 28 175
internal_value=0.0133416 0.0312645 -0.0353373 -0.0127588 -0.0330935 -0.0434171 -0.00692821
internal_weight=200.358 147.748 52.6102 17.2635 9.39547 35.3467 3.70533
internal_count=5637 3548 2089 333 303 1756 203
is_linear=0
shrinkage=0.03


Tree=54
num_leaves=6
num_cat=0
split_feature=16 19 0 6 13
split_gain=194.843 12.9597 9.02337 20.8447 8.12235
threshold=4635.8550000000005 4746.2400000000007 4.5000000000000009 251.99500000000003 11.500000000000002
decision_type=2 2 2 2 2
left_child=2 -2 4 -4 -1
right_child=1 -3 3 -5 -6
leaf_value=-0.051168102804049521 0.032220501273591121 -0.014727866937036848 -0.034198667469930069 0.013216146282690475 0.0050946635051991405
leaf_weight=22.962304423833363 141.72350680397358 2.7727874784613951 17.317092583359287 9.9113835648985269 1.5853812941193712
leaf_count=1290 19 3475 726 40 38
internal_value=0.0131645 0.0308571 -0.0345809 -0.0175666 -0.0472872
internal_weight=196.272 144.496 51.7762 27.2285 24.5477
internal_count=5588 3494 2094 766 1328
is_linear=0
shrinkage=0.03


Tree=55
num_leaves=6
num_cat=0
split_feature=0 3 1 4 3
split_gain=5.42856 18.062 7.9774 3.8863 0.746055
threshold=4.5000000000000009 1287.2345634920637 7941.1600000000008 212.8524527809827 162.09764436105903
decision_type=2 2 2 2 2
left_child=3 -2 -3 4 -1
right_child=1 2 -4 -5 -6
leaf_value=0.0062111282393276538 -0.035517486306326937 0.019485970671419078 -0.019835684720903246 -0.048253859067296768 -0.0088463129219325618
leaf_weight=1.4271018139697869 17.166983853112587 9.1784775365085789 2.2650556019535761 21.593144594844091 0.57208073978472374
leaf_count=325 1733 11 1413 1194 926
internal_value=-0.0340496 -0.0194922 0.00803806 -0.0452077 -0.00133913
internal_weight=52.2028 28.6105 11.4435 23.5923 1.99918
internal_count=5602 3157 1424 2445 1251
is_linear=0
shrinkage=0.03


Tree=56
num_leaves=4
num_cat=0
split_feature=6 6 6
split_gain=6.96488 26.576 0.175401
threshold=523.70000000000016 500.12000000000006 4102.5000000000009
decision_type=2 2 2
left_child=1 -1 -2
right_child=2 -3 -4
leaf_value=-0.035588467033260386 -0.071414748703027428 0.01759170661288911 -0.0011386889133478831
leaf_weight=44.519033761968203 2.141742779801461 7.0300874891363483 0.19714499407200481
leaf_count=4180 903 21 566
internal_value=-0.0350941 -0.0274218 -0.0703027
internal_weight=53.888 51.5491 2.33889
internal_count=5670 4201 1469
is_linear=0
shrinkage=0.03


Tree=57
num_leaves=7
num_cat=0
split_feature=16 19 6 6 13 2
split_gain=179.805 12.2885 7.31537 23.9964 1.33743 1.26078
threshold=4635.8550000000005 4746.2400000000007 523.70000000000016 500.12000000000006 11.500000000000002 502.57500000000005
decision_type=2 2 2 2 2 2
left_child=2 -2 3 4 -1 -6
right_child=1 -3 -4 -5 5 -7
leaf_value=-0.03525305985926476 0.032382387227610866 -0.014086727138243847 -0.068429466958433188 0.01746819265867312 0.006604312847025358 -0.012501351727962693
leaf_weight=36.080833880076227 146.1704206984723 2.6632811449526335 1.9544713005948313 6.9072048233101659 1.4253757480437337 2.0313119026352524
leaf_count=1396 21 3508 440 16 28 196
internal_value=0.0149616 0.03112 -0.032989 -0.0249917 -0.0335378 -0.0053763
internal_weight=197.233 148.834 48.3992 46.4447 39.5375 3.45669
internal_count=5605 3529 2076 1636 1620 224
is_linear=0
shrinkage=0.03


Tree=58
num_leaves=8
num_cat=0
split_feature=16 19 0 3 13 4 3
split_gain=182.203 12.1268 6.51389 18.9447 8.32641 1.98704 2.22975
threshold=4635.8550000000005 4746.2400000000007 4.5000000000000009 1287.2345634920637 11.500000000000002 961.12171300591899 1364.900166666667
decision_type=2 2 2 2 2 2 2
left_child=2 -2 4 -4 -1 -5 -7
right_child=1 -3 3 5 -6 6 -8
leaf_value=-0.049658542606625493 0.03224440746854762 -0.013995604026321176 -0.034628363553288175 0.017349005968537959 0.0065723987127197549 0.0089366981602093942 -0.016082350287328337
leaf_weight=20.950679229849886 142.46725488558877 2.6513459284760748 15.938881081206221 6.7863211990968448 1.4156694607040083 2.1192973475917829 1.1363544320083745
leaf_count=1278 22 3536 661 3 33 4 88
internal_value=0.0143387 0.0309616 -0.0337819 -0.0179357 -0.0455489 0.0112629 -0.00424727
internal_weight=193.466 145.119 48.3472 25.9809 22.3663 10.042 3.25565
internal_count=5625 3558 2067 756 1311 95 92
is_linear=0
shrinkage=0.03


Tree=59
num_leaves=5
num_cat=0
split_feature=1 2 13 2
split_gain=4.96915 18.1707 2.54502 1.30202
threshold=7802.1200000000008 7909.0000000000009 11.500000000000002 502.57500000000005
decision_type=2 2 2 2
left_child=2 -2 -1 -4
right_child=1 -3 3 -5
leaf_value=-0.043571696027092759 0.017205921788908916 -0.035253225347658741 0.0065122228014934547 -0.012997526752796902
leaf_weight=29.090271938022596 6.6743240883079116 8.2253453022849481 1.411077003764148 2.1102339772855885
leaf_count=2050 16 3101 40 376
internal_value=-0.0343051 -0.0133353 -0.0408394 -0.00594569
internal_weight=47.5113 14.8997 32.6116 3.52131
internal_count=5583 3117 2466 416
is_linear=0
shrinkage=0.03


Tree=60
num_leaves=6
num_cat=0
split_feature=16 19 13 16 2
split_gain=205.671 10.1266 3.32252 2.7313 1.19958
threshold=4635.8550000000005 4746.2400000000007 11.500000000000002 1943.5850000000003 502.57500000000005
decision_type=2 2 2 2 2
left_child=2 -2 3 -1 -4
right_child=1 -3 4 -5 -6
leaf_value=-0.046824943475841582 0.032164113686142179 -0.012251951989635241 0.0065009651479806824 -0.0040461089678908591 -0.012112822941549967
leaf_weight=34.20609244893609 140.29711541440338 2.3352783149457528 1.398123022786421 2.4253589195341183 2.0905648288147063
leaf_count=1265 22 3546 30 596 199
internal_value=0.0142385 0.0310466 -0.042335 -0.0448187 -0.00521786
internal_weight=182.753 142.632 40.1201 36.6315 3.48869
internal_count=5658 3568 2090 1861 229
is_linear=0
shrinkage=0.03


Tree=61
num_leaves=7
num_cat=0
split_feature=16 19 1 2 13 2
split_gain=170.528 10.3034 7.91521 16.2403 3.01089 1.17003
threshold=4635.8550000000005 4746.2400000000007 7802.1200000000008 7909.0000000000009 11.500000000000002 502.57500000000005
decision_type=2 2 2 2 2 2
left_child=2 -2 4 -4 -1 -6
right_child=1 -3 3 -5 5 -7
leaf_value=-0.044022370046351483 0.032032040495328457 -0.0125916295029331 0.0174359265013007 -0.034124199082682209 0.0064677227949743151 -0.011964698321158113
leaf_weight=28.589409194853776 136.72371132008266 2.3304080359957871 6.8702233412877813 5.6550212277140872 1.3891313959693428 1.9641173609714142
leaf_count=1607 22 3482 6 281 31 164
internal_value=0.0146937 0.0308731 -0.0339071 -0.00893715 -0.0411634 -0.00502804
internal_weight=183.522 139.054 44.4679 12.5252 31.9427 3.35325
internal_count=5593 3504 2089 287 1802 195
is_linear=0
shrinkage=0.03


Tree=62
num_leaves=7
num_cat=0
split_feature=16 16 1 2 13 2
split_gain=174.382 10.267 7.39171 16.6219 3.47311 1.07704
threshold=4635.8550000000005 4746.4450000000006 7802.1200000000008 7909.0000000000009 11.500000000000002 502.57500000000005
decision_type=2 2 2 2 2 2
left_child=2 -2 4 -4 -1 -6
right_child=1 -3 3 -5 5 -7
leaf_value=-0.044646028828378745 0.031904724387540655 -0.01260700444380459 0.017308849893709313 -0.035474086656274426 0.0064338186832032596 -0.011191139804802325
leaf_weight=29.349613776379243 133.22755860936013 2.3325681969872667 6.7521710723303823 5.3231006504489642 1.3804102337098805 1.8795328591849623
leaf_count=1610 21 3524 5 273 31 169
internal_value=0.0139565 0.0307176 -0.0348658 -0.00953344 -0.0417318 -0.00435105
internal_weight=180.245 135.56 44.6848 12.0753 32.6096 3.25994
internal_count=5633 3545 2088 278 1810 200
is_linear=0
shrinkage=0.03


Tree=63
num_leaves=8
num_cat=0
split_feature=19 19 1 2 13 1 2
split_gain=154.05 10.1258 6.97022 18.0815 2.92053 1.2898 1.06285
threshold=4652.2700000000013 4746.2400000000007 6537.3250000000007 7909.0000000000009 11.500000000000002 7802.1200000000008 502.57500000000005
decision_type=2 2 2 2 2 2 2
left_child=2 -2 4 5 -1 -4 -6
right_child=1 -3 3 -5 6 -7 -8
leaf_value=-0.042231205192772354 0.031780120409561241 -0.012521449001429964 -0.0011922257169532996 -0.039670595869570953 0.0064061019532562049 0.017179836129729276 -0.011113063265755377
leaf_weight=25.791737950448383 129.81180991073998 2.3178909264343579 4.0136904077962772 5.388232738543592 1.3707607370242834 6.6375933737872401 1.8679739355693525
leaf_count=1517 23 3562 48 277 28 4 157
internal_value=0.0144561 0.0305747 -0.0311326 -0.0105954 -0.0392555 0.0120875 -0.00431043
internal_weight=177.2 132.13 45.07 16.0395 29.0305 10.6513 3.23873
internal_count=5616 3585 2031 329 1702 52 185
is_linear=0
shrinkage=0.03


Tree=64
num_leaves=8
num_cat=0
split_feature=16 6 2 6 4 13 16
split_gain=173.49 13.5552 4.77561 1.924 0.941142 0.66999 0.172202
threshold=1943.5850000000003 4.7700000000000005 502.57500000000005 5.0250000000000012 1622.326301066005 11.500000000000002 1999.0500000000004
decision_type=2 2 2 2 2 2 2
left_child=2 -2 5 -3 -5 -1 -6
right_child=1 3 -4 4 6 -7 -8
leaf_value=-0.007477199914592665 -0.017249318236625254 0.031679235937208013 -0.04454008882459283 -0.0079600767174349604 0.0097672186105898472 0.0063921681562931184 -0.0013201964992818711
leaf_weight=1.2189388991864538 2.4139378424133602 126.43036494549597 32.142970580658201 0.45919594959195764 2.4083527239381515 1.3588428134689821 0.23009969752274617
leaf_count=380 1861 14 921 1328 2 19 1084
internal_value=0.0139665 0.029631 -0.0417969 0.0311133 0.00271667 -0.00077245 0.00856904
internal_weight=166.663 131.942 34.7208 129.528 3.09765 2.57778 2.63845
internal_count=5609 4289 1320 2428 2414 399 1086
is_linear=0
shrinkage=0.03


Tree=65
num_leaves=9
num_cat=0
split_feature=19 6 0 6 13 6 6 6
split_gain=132.473 13.2234 5.34334 14.3085 6.33736 0.158805 0.232536 0.224371
threshold=1935.4900000000002 4.7700000000000005 5.5000000000000009 500.12000000000006 11.500000000000002 5.0250000000000012 264.63500000000005 251.99500000000003
decision_type=2 2 2 2 2 2 2 2
left_child=2 -2 4 -4 -1 -3 7 -7
right_child=1 5 3 -5 -6 6 -8 -9
leaf_value=-0.044048343233458243 -0.015223682930200242 0.031559472826739328 -0.029552171294895773 0.014938164490949386 0.0051535861767096408 -0.0017300661016094068 -0.0021283236901946919 0.0096817177561163686
leaf_weight=19.536221785589962 2.9343896439363268 123.17117395284367 11.236507891895601 6.8820611473056479 1.5244507161587524 0.29338445720827611 0.38158211307666068 2.388975138834212
leaf_count=936 1846 13 341 4 13 966 1451 20
internal_value=0.0151467 0.0296278 -0.0305456 -0.0130773 -0.0401814 0.0312107 0.00631531 0.00811991
internal_weight=168.349 129.17 39.1792 18.1186 21.0607 126.235 3.06394 2.68236
internal_count=5590 4296 1294 345 949 2450 2437 986
is_linear=0
shrinkage=0.03


Tree=66
num_leaves=8
num_cat=0
split_feature=16 19 0 3 13 5 3
split_gain=148.566 9.66211 8.85519 15.7756 7.35428 2.1014 2.56465
threshold=4635.8550000000005 4746.2400000000007 4.5000000000000009 1287.2345634920637 11.500000000000002 2130.7650000000003 1338.737272727273
decision_type=2 2 2 2 2 2 2
left_child=2 -2 4 -4 -1 -5 -7
right_child=1 -3 3 5 -6 6 -8
leaf_value=-0.048979106675301989 0.031414958316976264 -0.012217538264525409 -0.031585738368207071 0.017275061766371749 0.0050978335003891784 0.0096365495839906869 -0.016491534564291491
leaf_weight=18.719591514332951 120.04405937460251 2.2651103345269794 13.512778873696947 6.7189788818359357 1.5226311801737313 2.3626639376270764 1.5318560753194104
leaf_count=1273 22 3509 664 1 37 4 95
internal_value=0.0133501 0.0301588 -0.0313474 -0.0143878 -0.0447074 0.0106111 -0.00413397
internal_weight=166.678 122.309 44.3685 24.1263 20.2422 10.6135 3.89452
internal_count=5605 3531 2074 764 1310 100 99
is_linear=0
shrinkage=0.03


Tree=67
num_leaves=6
num_cat=0
split_feature=19 19 0 6 13
split_gain=130.005 10.5298 8.89019 15.3703 6.8533
threshold=4652.2700000000013 4746.2400000000007 4.5000000000000009 251.99500000000003 11.500000000000002
decision_type=2 2 2 2 2
left_child=2 -2 4 -4 -1
right_child=1 -3 3 -5 -6
leaf_value=-0.047022284809001225 0.031299909308560116 -0.012963266195116226 -0.029299117688408309 0.012976377267777844 0.0050657436425180641
leaf_weight=17.291686637155582 116.93897451032134 2.4610608833182246 13.098536673821487 9.6500638142083499 1.5165958595480322
leaf_count=1254 24 3577 678 38 36
internal_value=0.0142483 0.0299032 -0.0291119 -0.0122589 -0.0426404
internal_weight=160.957 119.4 41.5569 22.7486 18.8083
internal_count=5607 3601 2006 716 1290
is_linear=0
shrinkage=0.03


Tree=68
num_leaves=8
num_cat=0
split_feature=16 0 3 19 13 5 3
split_gain=137.602 9.46495 16.5627 9.31818 7.10379 0.997759 1.69356
threshold=4635.8550000000005 4.5000000000000009 1287.2345634920637 4746.2400000000007 11.500000000000002 2130.7650000000003 1338.737272727273
decision_type=2 2 2 2 2 2 2
left_child=1 4 -3 -2 -1 -4 -7
right_child=3 2 5 -5 -6 6 -8
leaf_value=-0.048232958445103197 0.031182931408225003 -0.030988200524290854 0.017051323033194319 -0.011964027441510235 0.005038633000373471 0.0094911516923089946 -0.011797441496152229
leaf_weight=18.37493978976703 113.9162042507669 12.780872463310759 6.52044630050659 2.2239592038677065 1.509756451639986 2.3096486038994049 1.2349527093260801
leaf_count=1279 23 666 1 3525 35 2 88
internal_value=0.0132321 -0.0304496 -0.012883 0.029897 -0.0439886 0.0127619 -0.00048914
internal_weight=158.871 42.7306 22.8459 116.14 19.8847 10.065 3.5446
internal_count=5619 2071 757 3548 1314 91 90
is_linear=0
shrinkage=0.03


Tree=69
num_leaves=8
num_cat=0
split_feature=16 16 0 3 13 4 3
split_gain=125.499 8.26335 7.21414 15.8806 6.54498 1.18133 1.79112
threshold=4635.8550000000005 4746.4450000000006 4.5000000000000009 1287.2345634920637 11.500000000000002 961.12171300591899 1364.900166666667
decision_type=2 2 2 2 2 2 2
left_child=2 -2 4 -4 -1 -5 -7
right_child=1 -3 3 5 -6 6 -8
leaf_value=-0.045999371596480577 0.031071826403914281 -0.011036329695803659 -0.030692245692557314 0.016924675609886808 0.0050050681423791914 0.0094277696473332919 -0.012365950403454631
leaf_weight=16.489211043985325 110.95934320306696 2.0103687733353572 12.941630521689335 6.4111593228645898 1.5042242995041863 2.2882498885774116 1.384503773588676
leaf_count=1259 24 3534 678 3 37 4 86
internal_value=0.01385 0.0298865 -0.0287645 -0.0131229 -0.0415743 0.0121249 -0.00118054
internal_weight=153.989 112.97 41.019 23.0255 17.9934 10.0839 3.67275
internal_count=5625 3558 2067 771 1296 93 90
is_linear=0
shrinkage=0.03


Tree=70
num_leaves=8
num_cat=0
split_feature=19 19 0 3 13 5 3
split_gain=124.989 9.13925 8.2026 15.109 6.92687 1.35603 1.88177
threshold=4652.2700000000013 4746.2400000000007 4.5000000000000009 1287.2345634920637 11.500000000000002 2130.7650000000003 1338.737272727273
decision_type=2 2 2 2 2 2 2
left_child=2 -2 4 -4 -1 -5 -7
right_child=1 -3 3 5 -6 6 -8
leaf_value=-0.048027263521322583 0.030963036010074975 -0.011883219321289346 -0.030426478078339089 0.016799072326312479 0.0049768842375788264 0.0093668863468670659 -0.01289264295829998
leaf_weight=15.785994374843726 108.07361724751908 2.2034663550174249 12.695523978164006 6.3043990135192853 1.4978146847615779 2.2668523511638345 1.5311222196487504
leaf_count=1266 23 3545 663 1 33 4 83
internal_value=0.0134199 0.0296286 -0.0295153 -0.0131177 -0.0433479 0.011506 -0.00183402
internal_weight=150.359 110.277 40.0817 22.7979 17.2838 10.1024 3.79797
internal_count=5618 3568 2050 751 1299 88 87
is_linear=0
shrinkage=0.03


Tree=71
num_leaves=9
num_cat=0
split_feature=16 16 2 2 13 2 2 6
split_gain=109.289 9.95628 6.14781 15.9905 2.28362 0.949283 0.403746 1.14419
threshold=4635.8550000000005 4746.4450000000006 6514.7250000000004 7909.0000000000009 11.500000000000002 529.28000000000009 7759.8300000000008 251.99500000000003
decision_type=2 2 2 2 2 2 2 2
left_child=2 -2 4 6 -1 -6 7 -4
right_child=1 -3 3 -5 5 -7 -8 -9
leaf_value=-0.038890348304841844 0.030854303459293478 -0.012611692707419572 -0.0082999023249407059 -0.0349341148060099 0.0061945442996112626 -0.010416784934792334 0.0166692538359209 0.0092955936983653079
leaf_weight=19.824144652472771 105.2616750238376 2.3934702573460518 1.2618483165967957 5.7003201241619754 1.3125463053611377 1.7617392615690048 6.20135593113082 2.2478215087230637
leaf_count=1532 23 3557 41 293 26 156 8 16
internal_value=0.0141779 0.0293711 -0.0269787 -0.00841139 -0.0357279 -0.0038805 0.0137392 0.00180971
internal_weight=145.965 107.655 38.3098 15.4113 22.8984 3.07429 9.71103 3.50967
internal_count=5652 3580 2072 358 1714 182 65 57
is_linear=0
shrinkage=0.03


Tree=72
num_leaves=7
num_cat=0
split_feature=16 0 3 19 4 3
split_gain=119.548 10.6818 13.7102 9.8022 1.23682 1.76026
threshold=4635.8550000000005 4.5000000000000009 1287.2345634920637 4746.2400000000007 961.12171300591899 1364.900166666667
decision_type=2 2 2 2 2 2
left_child=1 -1 -3 -2 -4 -6
right_child=3 2 4 -5 5 -7
leaf_value=-0.045972986898413302 0.030749428027541048 -0.029308388775318602 0.016549549355495106 -0.012512032114158739 0.0092470317937344212 -0.012287940239630488
leaf_weight=16.22835286401704 102.51524225412868 11.321162889885615 6.0985630828363337 2.3724610263161585 2.2250769384045275 1.5390924206662928
leaf_count=1328 18 650 2 3533 4 91
internal_value=0.0131001 -0.0302776 -0.0117711 0.0292461 0.0114471 -0.00154509
internal_weight=142.3 37.4122 21.1839 104.888 9.86273 3.76417
internal_count=5626 2075 747 3551 97 95
is_linear=0
shrinkage=0.03


end of trees

feature_importances:
spend_sum_lag1=67
spend_abs_sum_lag1=64
spend_std=61
spend_min=51
tx_count_lag1=36
spend_abs_sum=35
spend_sum=34
tx_count=23
spend_mean=18
tx_count_lag2=13
spend_max=5

parameters:
[boosting: gbdt]
[objective: binary]
[metric: auc]
[tree_learner: serial]
[device_type: cpu]
[data_sample_strategy: bagging]
[data: ]
[valid: ]
[num_iterations: 5000]
[learning_rate: 0.03]
[num_leaves: 31]
[num_threads: 0]
[seed: 42]
[deterministic: 0]
[force_col_wise: 0]
[force_row_wise: 0]
[histogram_pool_size: -1]
[max_depth: 6]
[min_data_in_leaf: 20]
[min_sum_hessian_in_leaf: 0.001]
[bagging_fraction: 0.9]
[pos_bagging_fraction: 1]
[neg_bagging_fraction: 1]
[bagging_freq: 1]
[bagging_seed: 400]
[bagging_by_query: 0]
[feature_fraction: 0.9]
[feature_fraction_bynode: 1]
[feature_fraction_seed: 30056]
[extra_trees: 0]
[extra_seed: 12879]
[early_stopping_round: 0]
[early_stopping_min_delta: 0]
[first_metric_only: 0]
[max_delta_step: 0]
[lambda_l1: 0]
[lambda_l2: 5]
[linear_lambda: 0]
[min_gain_to_split: 0.1]
[drop_rate: 0.1]
[max_drop: 50]
[skip_drop: 0.5]
[xgboost_dart_mode: 0]
[uniform_drop: 0]
[drop_seed: 17869]
[top_rate: 0.2]
[other_rate: 0.1]
[min_data_per_group: 100]
[max_cat_threshold: 32]
[cat_l2: 10]
[cat_smooth: 10]
[max_cat_to_onehot: 4]
[top_k: 20]
[monotone_constraints: ]
[monotone_constraints_method: basic]
[monotone_penalty: 0]
[feature_contri: ]
[forcedsplits_filename: ]
[refit_decay_rate: 0.9]
[cegb_tradeoff: 1]
[cegb_penalty_split: 0]
[cegb_penalty_feature_lazy: ]
[cegb_penalty_feature_coupled: ]
[path_smooth: 0]
[interaction_constraints: ]
[verbosity: -1]
[saved_feature_importance_type: 0]
[use_quantized_grad: 0]
[num_grad_quant_bins: 4]
[quant_train_renew_leaf: 0]
[stochastic_rounding: 1]
[linear_tree: 0]
[max_bin: 255]
[max_bin_by_feature: ]
[min_data_in_bin: 3]
[bin_construct_sample_cnt: 200000]
[data_random_seed: 175]
[is_enable_sparse: 1]
[enable_bundle: 1]
[use_missing: 1]
[zero_as_missing: 0]
[feature_pre_filter: 1]
[pre_partition: 0]
[two_round: 0]
[header: 0]
[label_column: ]
[weight_column: ]
[group_column: ]
[ignore_column: ]
[categorical_feature: ]
[forcedbins_filename: ]
[precise_float_parser: 0]
[parser_config_file: ]
[objective_seed: 16083]
[num_class: 1]
[is_unbalance: 0]
[scale_pos_weight: 1558.25]
[sigmoid: 1]
[boost_from_average: 1]
[reg_sqrt: 0]
[alpha: 0.9]
[fair_c: 1]
[poisson_max_delta_step: 0.7]
[tweedie_variance_power: 1.5]
[lambdarank_truncation_level: 30]
[lambdarank_norm: 1]
[label_gain: ]
[lambdarank_position_bias_regularization: 0]
[eval_at: ]
[multi_error_top_k: 1]
[auc_mu_weights: ]
[num_machines: 1]
[local_listen_port: 12400]
[time_out: 120]
[machine_list_filename: ]
[machines: ]
[gpu_platform_id: -1]
[gpu_device_id: -1]
[gpu_use_dp: 0]
[num_gpu: 1]

end of parameters

pandas_categorical:[]
